{"learner":{"attributes":{},"feature_names":["usuarios_registro_base","tasa_basic_a_risk","tasa_risk_a_fulldata","tasa_fulldata_a_video","tasa_video_a_review","tasa_review_a_aprobado","tasa_registro_a_aprobado","mediana_dias_registro_a_full","pct_perfil_conservador","pct_perfil_arriesgado","Coste por resultado","pauta_clics_totales","push_mail_delivered_pre_deposito","push_mail_converted_pre_deposito","cx_friccion_kyc","cx_bloqueos","Tasa_Intervencion_Mensual","TRM","Variacion_COLCAP","semana_del_mes","dias_habiles_semana","mes_prima","registros_ponderados","aprobados_ponderados","lag_1_target","tasa_registro_a_aprobado_ewma_4","tasa_rechazo_implicita_kyc_ewma_4"],"feature_types":[],"gradient_booster":{"model":{"cats":{"enc":[],"feature_segments":[],"sorted_idx":[]},"gbtree_model_param":{"num_parallel_tree":"1","num_trees":"257"},"iteration_indptr":[0,1,2,3,4,5,6,7,8,9,10,11,12,13,14,15,16,17,18,19,20,21,22,23,24,25,26,27,28,29,30,31,32,33,34,35,36,37,38,39,40,41,42,43,44,45,46,47,48,49,50,51,52,53,54,55,56,57,58,59,60,61,62,63,64,65,66,67,68,69,70,71,72,73,74,75,76,77,78,79,80,81,82,83,84,85,86,87,88,89,90,91,92,93,94,95,96,97,98,99,100,101,102,103,104,105,106,107,108,109,110,111,112,113,114,115,116,117,118,119,120,121,122,123,124,125,126,127,128,129,130,131,132,133,134,135,136,137,138,139,140,141,142,143,144,145,146,147,148,149,150,151,152,153,154,155,156,157,158,159,160,161,162,163,164,165,166,167,168,169,170,171,172,173,174,175,176,177,178,179,180,181,182,183,184,185,186,187,188,189,190,191,192,193,194,195,196,197,198,199,200,201,202,203,204,205,206,207,208,209,210,211,212,213,214,215,216,217,218,219,220,221,222,223,224,225,226,227,228,229,230,231,232,233,234,235,236,237,238,239,240,241,242,243,244,245,246,247,248,249,250,251,252,253,254,255,256,257],"tree_info":[0,0,0,0,0,0,0,0,0,0,0,0,0,0,0,0,0,0,0,0,0,0,0,0,0,0,0,0,0,0,0,0,0,0,0,0,0,0,0,0,0,0,0,0,0,0,0,0,0,0,0,0,0,0,0,0,0,0,0,0,0,0,0,0,0,0,0,0,0,0,0,0,0,0,0,0,0,0,0,0,0,0,0,0,0,0,0,0,0,0,0,0,0,0,0,0,0,0,0,0,0,0,0,0,0,0,0,0,0,0,0,0,0,0,0,0,0,0,0,0,0,0,0,0,0,0,0,0,0,0,0,0,0,0,0,0,0,0,0,0,0,0,0,0,0,0,0,0,0,0,0,0,0,0,0,0,0,0,0,0,0,0,0,0,0,0,0,0,0,0,0,0,0,0,0,0,0,0,0,0,0,0,0,0,0,0,0,0,0,0,0,0,0,0,0,0,0,0,0,0,0,0,0,0,0,0,0,0,0,0,0,0,0,0,0,0,0,0,0,0,0,0,0,0,0,0,0,0,0,0,0,0,0,0,0,0,0,0,0,0,0,0,0,0,0,0,0,0,0,0,0,0,0,0,0,0,0],"trees":[{"base_weights":[2.475557E0,6.720313E2,-3.1333133E2,2.7658247E1,7.282595E0,-4.0378983E2,2.1076632E1,-2.2908352E1,-3.048103E2,-2.3396928E0,3.9931011E0,-1.2603767E1,-1.5702103E2,-7.209527E0,-2.0429368E0],"categories":[],"categories_nodes":[],"categories_segments":[],"categories_sizes":[],"default_left":[0,0,0,0,0,0,0,0,0,0,0,0,0,0,0],"id":0,"left_children":[1,3,5,-1,-1,7,9,-1,11,-1,-1,-1,13,-1,-1],"loss_changes":[5.005051E7,2.498428E6,4.908501E6,0E0,0E0,1.924902E6,3.3092206E5,0E0,3.52457E5,0E0,0E0,0E0,7.470781E4,0E0,0E0],"parents":[2147483647,0,0,1,1,2,2,5,5,6,6,8,8,12,12],"right_children":[2,4,6,-1,-1,8,10,-1,12,-1,-1,-1,14,-1,-1],"split_conditions":[1.98E2,3.1088703E0,2.000775E3,2.7658247E1,7.282595E0,3.74E2,9.95E1,-2.2908352E1,9.26E1,-2.3396928E0,3.9931011E0,-1.2603767E1,3.7E1,-7.209527E0,-2.0429368E0],"split_indices":[15,26,23,0,0,24,2,0,1,0,0,0,13,0,0],"split_type":[0,0,0,0,0,0,0,0,0,0,0,0,0,0,0],"sum_hessian":[2.27E2,7.1E1,1.56E2,5.7E1,1.4E1,1.22E2,3.4E1,2.9E1,9.3E1,1.8E1,1.6E1,6.7E1,2.6E1,1.5E1,1.1E1],"tree_param":{"num_deleted":"0","num_feature":"27","num_nodes":"15","size_leaf_vector":"1"}},{"base_weights":[7.2200704E0,-3.2786133E2,6.1955914E2,-2.1280558E1,-1.9439636E2,5.1020064E0,2.4840534E1,-2.8043906E2,4.5429325E1,-3.063137E2,-3.0906284E0,5.3598127E0,-2.2870028E0,-1.2033495E1,-4.8804493E0],"categories":[],"categories_nodes":[],"categories_segments":[],"categories_sizes":[],"default_left":[0,0,0,0,0,0,0,0,0,0,0,0,0,0,0],"id":1,"left_children":[1,3,5,-1,7,-1,-1,9,11,13,-1,-1,-1,-1,-1],"loss_changes":[4.691967E7,4.555894E6,2.06776E6,0E0,2.2263968E6,0E0,0E0,2.651615E5,3.9954312E5,7.5195E4,0E0,0E0,0E0,0E0,0E0],"parents":[2147483647,0,0,1,1,2,2,4,4,7,7,8,8,9,9],"right_children":[2,4,6,-1,8,-1,-1,10,12,14,-1,-1,-1,-1,-1],"split_conditions":[1.152E3,3E0,9.96E1,-2.1280558E1,9.94E1,5.1020064E0,2.4840534E1,3.159E3,4.1151E3,8.12E1,-3.0906284E0,5.3598127E0,-2.2870028E0,-1.2033495E1,-4.8804493E0],"split_indices":[24,16,2,0,2,0,0,0,17,3,0,0,0,0,0],"split_type":[0,0,0,0,0,0,0,0,0,0,0,0,0,0,0],"sum_hessian":[2.19E2,1.43E2,7.6E1,4.3E1,1E2,1.1E1,6.5E1,7.3E1,2.7E1,6.2E1,1.1E1,1.3E1,1.4E1,5E1,1.2E1],"tree_param":{"num_deleted":"0","num_feature":"27","num_nodes":"15","size_leaf_vector":"1"}},{"base_weights":[1.6003782E1,-3.1099698E2,6.1924365E2,-3.9753763E2,3.4239867E0,4.5496798E0,2.569751E1,-1.9019337E1,-2.3763705E2,-2.9186943E0,4.863013E0,-1.0469074E1,-1.409098E2,-2.5800898E0,-6.30882E0],"categories":[],"categories_nodes":[],"categories_segments":[],"categories_sizes":[],"default_left":[0,0,1,0,0,0,0,0,0,0,0,0,0,0,0],"id":2,"left_children":[1,3,5,7,9,-1,-1,-1,11,-1,-1,-1,13,-1,-1],"loss_changes":[4.3713916E7,3.922248E6,3.006778E6,1.684524E6,4.4595466E5,0E0,0E0,0E0,9.1982E4,0E0,0E0,0E0,8.0003125E3,0E0,0E0],"parents":[2147483647,0,0,1,1,2,2,3,3,4,4,8,8,12,12],"right_children":[2,4,6,8,10,-1,-1,-1,12,-1,-1,-1,14,-1,-1],"split_conditions":[1.162E3,1.93136E3,2.747E0,8.68E1,5.482282E3,4.5496798E0,2.569751E1,-1.9019337E1,9.2E1,-2.9186943E0,4.863013E0,-1.0469074E1,4.4939908E-1,-2.5800898E0,-6.30882E0],"split_indices":[24,23,12,1,22,0,0,0,1,0,0,0,26,0,0],"split_type":[0,0,0,0,0,0,0,0,0,0,0,0,0,0,0],"sum_hessian":[2.12E2,1.39E2,7.3E1,1.08E2,3.1E1,1.3E1,6E1,5.4E1,5.4E1,2E1,1.1E1,2.9E1,2.5E1,1.3E1,1.2E1],"tree_param":{"num_deleted":"0","num_feature":"27","num_nodes":"15","size_leaf_vector":"1"}},{"base_weights":[-3.496401E1,-3.2188632E2,5.602458E2,-5.626102E2,-1.9297337E2,4.5423884E0,2.4758755E1,-2.2395779E1,-9.672575E0,-2.7201843E2,-1.893585E1,-1.1337873E1,-1.4726106E2,-4.346254E0,4.5336037E1,-7.5481973E0,-1.3481507E0,4.366795E0,-1.38475E0],"categories":[],"categories_nodes":[],"categories_segments":[],"categories_sizes":[],"default_left":[0,0,1,0,0,0,0,0,0,0,0,0,0,0,0,0,0,0,0],"id":3,"left_children":[1,3,5,7,9,-1,-1,-1,-1,11,13,-1,15,-1,17,-1,-1,-1,-1],"loss_changes":[4.0301016E7,4.399961E6,3.681306E6,5.8116E4,1.4991198E6,0E0,0E0,0E0,0E0,1.59955E5,2.852131E5,0E0,1.4845988E5,0E0,1.9736853E5,0E0,0E0,0E0,0E0],"parents":[2147483647,0,0,1,1,2,2,3,3,4,4,9,9,10,10,12,12,14,14],"right_children":[2,4,6,8,10,-1,-1,-1,-1,12,14,-1,16,-1,18,-1,-1,-1,-1],"split_conditions":[1.152E3,3E0,3E0,2.433552E3,9.92E1,4.5423884E0,2.4758755E1,-2.2395779E1,-9.672575E0,9.26E1,3.861749E3,-1.1337873E1,1.275E1,-4.346254E0,4.04043E3,-7.5481973E0,-1.3481507E0,4.366795E0,-1.38475E0],"split_indices":[24,16,15,22,2,0,0,0,0,1,22,0,16,0,17,0,0,0,0],"split_type":[0,0,0,0,0,0,0,0,0,0,0,0,0,0,0,0,0,0,0],"sum_hessian":[2.26E2,1.54E2,7.2E1,4.8E1,1.06E2,1.8E1,5.4E1,3.6E1,1.2E1,7.1E1,3.5E1,4.8E1,2.3E1,1.2E1,2.3E1,1.2E1,1.1E1,1.1E1,1.2E1],"tree_param":{"num_deleted":"0","num_feature":"27","num_nodes":"19","size_leaf_vector":"1"}},{"base_weights":[1.7201702E1,-3.5436288E2,4.617784E2,-2.0799177E1,-2.4741718E2,1.2074509E2,6.246386E2,-2.667385E2,-2.8109725E0,-5.748834E-1,8.236275E0,2.485856E1,6.9376755E0,-1.0486347E1,-2.8527625E0],"categories":[],"categories_nodes":[],"categories_segments":[],"categories_sizes":[],"default_left":[0,0,1,0,0,0,0,0,0,0,0,0,0,0,0],"id":4,"left_children":[1,3,5,-1,7,9,11,13,-1,-1,-1,-1,-1,-1,-1],"loss_changes":[4.025199E7,2.423867E6,5.78841E6,0E0,2.19675E5,6.266513E5,1.311614E6,2.5136E5,0E0,0E0,0E0,0E0,0E0,0E0,0E0],"parents":[2147483647,0,0,1,1,2,2,4,4,5,5,6,6,7,7],"right_children":[2,4,6,-1,8,10,12,14,-1,-1,-1,-1,-1,-1,-1],"split_conditions":[2.098973E3,3.88E2,2E0,-2.0799177E1,3.397E3,9.95E1,3.1088703E0,6.4621414E1,-2.8109725E0,-5.748834E-1,8.236275E0,2.485856E1,6.9376755E0,-1.0486347E1,-2.8527625E0],"split_indices":[23,24,15,0,0,2,26,25,0,0,0,0,0,0,0],"split_type":[0,0,0,0,0,0,0,0,0,0,0,0,0,0,0],"sum_hessian":[2.34E2,1.28E2,1.06E2,3.5E1,9.3E1,3.7E1,6.9E1,8.1E1,1.2E1,1.8E1,1.9E1,5.8E1,1.1E1,7E1,1.1E1],"tree_param":{"num_deleted":"0","num_feature":"27","num_nodes":"15","size_leaf_vector":"1"}},{"base_weights":[-2.3391373E0,-2.768353E2,5.5729E2,-5.03196E2,-1.5304414E2,6.371031E2,2.3846586E0,-2.0952766E1,-8.684006E0,-2.330759E2,2.5879553E1,1.7261389E1,3.0289625E1,-1.560536E2,-1.0560655E1,-2.807675E0,3.4983184E0,-1.9347098E0,-7.038971E0],"categories":[],"categories_nodes":[],"categories_segments":[],"categories_sizes":[],"default_left":[0,0,0,0,0,0,0,0,0,0,0,0,0,0,0,0,0,0,0],"id":5,"left_children":[1,3,5,7,9,11,-1,-1,-1,13,15,-1,-1,17,-1,-1,-1,-1,-1],"loss_changes":[3.8209108E7,4.299433E6,3.005496E6,4.45011E5,1.6746685E6,2.9443E5,0E0,0E0,0E0,1.357525E5,3.2712444E5,0E0,0E0,1.2435725E5,0E0,0E0,0E0,0E0,0E0],"parents":[2147483647,0,0,1,1,2,2,3,3,4,4,5,5,9,9,10,10,13,13],"right_children":[2,4,6,8,10,12,-1,-1,-1,14,16,-1,-1,18,-1,-1,-1,-1,-1],"split_conditions":[1.162E3,3E0,7.43E1,1.262583E3,3.462E3,6.641E3,2.3846586E0,-2.0952766E1,-8.684006E0,4.13913E3,7.68E2,1.7261389E1,3.0289625E1,3.7360746E-1,-1.0560655E1,-2.807675E0,3.4983184E0,-1.9347098E0,-7.038971E0],"split_indices":[24,16,3,23,0,0,0,0,0,17,24,0,0,26,0,0,0,0,0],"split_type":[0,0,0,0,0,0,0,0,0,0,0,0,0,0,0,0,0,0,0],"sum_hessian":[2.39E2,1.62E2,7.7E1,5.2E1,1.1E2,6.5E1,1.2E1,3.6E1,1.6E1,7.5E1,3.5E1,4.5E1,2E1,4E1,3.5E1,1.4E1,2.1E1,1.4E1,2.6E1],"tree_param":{"num_deleted":"0","num_feature":"27","num_nodes":"19","size_leaf_vector":"1"}},{"base_weights":[-2.7912855E1,-3.1973312E2,4.1783902E2,-2.0129215E1,-2.2484288E2,-3.6236823E0,4.9432224E2,-2.5216753E2,-6.656709E-1,4.2867126E0,2.0226274E1,-9.880505E0,-4.2188087E0],"categories":[],"categories_nodes":[],"categories_segments":[],"categories_sizes":[],"default_left":[0,0,0,0,0,0,0,1,0,0,0,0,0],"id":6,"left_children":[1,3,5,-1,7,-1,9,11,-1,-1,-1,-1,-1],"loss_changes":[3.0158264E7,2.515859E6,3.878984E6,0E0,5.85206E5,0E0,1.609704E6,1.068625E5,0E0,0E0,0E0,0E0,0E0],"parents":[2147483647,0,0,1,1,2,2,4,4,6,6,7,7],"right_children":[2,4,6,-1,8,-1,10,12,-1,-1,-1,-1,-1],"split_conditions":[9.55E2,1.378E3,9.95E1,-2.0129215E1,4.998E3,-3.6236823E0,1.162E3,1.7E1,-6.656709E-1,4.2867126E0,2.0226274E1,-9.880505E0,-4.2188087E0],"split_indices":[24,0,2,0,0,0,24,13,0,0,0,0,0],"split_type":[0,0,0,0,0,0,0,0,0,0,0,0,0],"sum_hessian":[2.22E2,1.35E2,8.7E1,3.2E1,1.03E2,1.1E1,7.6E1,9E1,1.3E1,1.3E1,6.3E1,7.4E1,1.6E1],"tree_param":{"num_deleted":"0","num_feature":"27","num_nodes":"13","size_leaf_vector":"1"}},{"base_weights":[2.2901665E1,-2.5295822E2,5.5625604E2,-3.218537E2,1.5355978E1,8.324324E0,6.154725E2,-1.8526974E1,-2.3601743E2,-4.3639064E0,3.5916133E0,1.2000261E1,2.4543015E1,-2.6165314E2,-1.13078E0,-1.0221832E1,-3.2885823E0],"categories":[],"categories_nodes":[],"categories_segments":[],"categories_sizes":[],"default_left":[0,0,0,0,0,0,0,0,0,0,0,0,0,0,0,0,0],"id":7,"left_children":[1,3,5,7,9,-1,11,-1,13,-1,-1,-1,-1,15,-1,-1,-1],"loss_changes":[3.4062376E7,2.850644E6,8.36298E5,1.390145E6,4.652072E5,0E0,2.4792E4,0E0,4.47034E5,0E0,0E0,0E0,0E0,1.58341E5,0E0,0E0,0E0],"parents":[2147483647,0,0,1,1,2,2,3,3,4,4,6,6,8,8,13,13],"right_children":[2,4,6,8,10,-1,12,-1,14,-1,-1,-1,-1,16,-1,-1,-1],"split_conditions":[1.162E3,4.048E3,4.982E3,1.378E3,7.66E2,8.324324E0,4.7597553E1,-1.8526974E1,6.4621414E1,-4.3639064E0,3.5916133E0,1.2000261E1,2.4543015E1,9.95E1,-1.13078E0,-1.0221832E1,-3.2885823E0],"split_indices":[24,0,0,0,24,0,25,0,25,0,0,0,0,2,0,0,0],"split_type":[0,0,0,0,0,0,0,0,0,0,0,0,0,0,0,0,0],"sum_hessian":[2.22E2,1.48E2,7.4E1,1.17E2,3.1E1,1.5E1,5.9E1,2.9E1,8.8E1,1.1E1,2E1,1.6E1,4.3E1,7.7E1,1.1E1,6.6E1,1.1E1],"tree_param":{"num_deleted":"0","num_feature":"27","num_nodes":"17","size_leaf_vector":"1"}},{"base_weights":[2.2215004E1,-2.3425784E2,4.9409616E2,-3.06917E2,4.4313137E1,5.5741223E2,2.0169334E0,-1.8054571E1,-2.3259776E2,-2.0807245E0,5.472746E0,1.0452273E1,2.2526213E1,-2.5506612E2,-1.8957026E0,-1.0009386E1,-3.6615796E0],"categories":[],"categories_nodes":[],"categories_segments":[],"categories_sizes":[],"default_left":[0,0,0,0,0,0,0,0,0,0,0,0,0,1,0,0,0],"id":8,"left_children":[1,3,5,7,9,11,-1,-1,13,-1,-1,-1,-1,15,-1,-1,-1],"loss_changes":[2.8502628E7,3.1608485E6,2.14775E6,1.165236E6,4.312384E5,3.62498E5,0E0,0E0,3.266555E5,0E0,0E0,0E0,0E0,1.37988E5,0E0,0E0,0E0],"parents":[2147483647,0,0,1,1,2,2,3,3,4,4,5,5,8,8,13,13],"right_children":[2,4,6,8,10,12,-1,-1,14,-1,-1,-1,-1,16,-1,-1,-1],"split_conditions":[1.162E3,4.477E3,7.43E1,1.378E3,4.55E1,5.35E1,2.0169334E0,-1.8054571E1,6.474809E1,-2.0807245E0,5.472746E0,1.0452273E1,2.2526213E1,4.4E1,-1.8957026E0,-1.0009386E1,-3.6615796E0],"split_indices":[24,0,3,0,6,3,0,0,25,0,0,0,0,12,0,0,0],"split_type":[0,0,0,0,0,0,0,0,0,0,0,0,0,0,0,0,0],"sum_hessian":[2.26E2,1.48E2,7.8E1,1.17E2,3.1E1,6.7E1,1.1E1,2.5E1,9.2E1,1.7E1,1.4E1,1.8E1,4.9E1,8E1,1.2E1,6.7E1,1.3E1],"tree_param":{"num_deleted":"0","num_feature":"27","num_nodes":"17","size_leaf_vector":"1"}},{"base_weights":[-8.0134535E-1,-2.2861902E2,5.084454E2,-3.7880344E2,-8.6096214E1,7.857356E0,2.1712435E1,-1.8228247E1,-8.868814E0,-1.2752642E2,5.2972684E0,-1.7169891E2,-5.447628E1,-7.420562E0,-2.7789903E0,-4.120299E0,8.635685E-1],"categories":[],"categories_nodes":[],"categories_segments":[],"categories_sizes":[],"default_left":[0,0,1,0,0,0,0,0,0,0,0,0,0,0,0,0,0],"id":9,"left_children":[1,3,5,7,9,-1,-1,-1,-1,11,-1,13,15,-1,-1,-1,-1],"loss_changes":[2.7346908E7,3.32604E6,1.288568E6,6.95261E5,9.54901E5,0E0,0E0,0E0,0E0,2.0831362E5,0E0,6.9749625E4,1.8416947E5,0E0,0E0,0E0,0E0],"parents":[2147483647,0,0,1,1,2,2,3,3,4,4,9,9,11,11,12,12],"right_children":[2,4,6,8,10,-1,-1,-1,-1,12,-1,14,16,-1,-1,-1,-1],"split_conditions":[1.162E3,1.29545E3,3E0,2E0,2.694911E3,7.857356E0,2.1712435E1,-1.8228247E1,-8.868814E0,7.66E2,5.2972684E0,7.51E1,3.675337E3,-7.420562E0,-2.7789903E0,-4.120299E0,8.635685E-1],"split_indices":[24,23,15,16,23,0,0,0,0,24,0,1,22,0,0,0,0],"split_type":[0,0,0,0,0,0,0,0,0,0,0,0,0,0,0,0,0],"sum_hessian":[2.26E2,1.58E2,6.8E1,7.3E1,8.5E1,2E1,4.8E1,3.1E1,4.2E1,7.4E1,1.1E1,4.2E1,3.2E1,2.7E1,1.5E1,1.7E1,1.5E1],"tree_param":{"num_deleted":"0","num_feature":"27","num_nodes":"17","size_leaf_vector":"1"}},{"base_weights":[-1.4555765E0,-2.4768674E2,4.3325232E2,-4.3451898E2,-1.4320865E2,2.600718E2,2.2605938E1,-1.8040274E1,-6.858111E0,-2.0078114E2,5.7023643E1,1.3318037E2,1.40334835E1,-2.2577798E2,-2.8429508E0,5.887378E0,-2.1148746E0,-5.222197E-1,7.4068704E0,-8.902798E0,-3.1010094E0],"categories":[],"categories_nodes":[],"categories_segments":[],"categories_sizes":[],"default_left":[0,0,1,0,0,0,0,0,0,0,0,0,0,0,0,0,0,0,0,0,0],"id":10,"left_children":[1,3,5,7,9,11,-1,-1,-1,13,15,17,-1,19,-1,-1,-1,-1,-1,-1,-1],"loss_changes":[2.6301846E7,2.757747E6,2.13705E6,3.7384E5,1.299443E6,6.319055E5,0E0,0E0,0E0,1.72614E5,3.8490522E5,3.8070562E5,0E0,8.50965E4,0E0,0E0,0E0,0E0,0E0,0E0,0E0],"parents":[2147483647,0,0,1,1,2,2,3,3,4,4,5,5,9,9,10,10,11,11,13,13],"right_children":[2,4,6,8,10,12,-1,-1,-1,14,16,18,-1,20,-1,-1,-1,-1,-1,-1,-1],"split_conditions":[2.416096E3,3E0,1.02E2,2.451805E3,9.94E1,9.54E1,2.2605938E1,-1.8040274E1,-6.858111E0,1.649453E3,4.02767E3,8.2E-1,1.40334835E1,8.11E1,-2.8429508E0,5.887378E0,-2.1148746E0,-5.222197E-1,7.4068704E0,-8.902798E0,-3.1010094E0],"split_indices":[23,16,13,22,2,1,0,0,0,23,17,18,0,3,0,0,0,0,0,0,0],"split_type":[0,0,0,0,0,0,0,0,0,0,0,0,0,0,0,0,0,0,0,0,0],"sum_hessian":[2.36E2,1.52E2,8.4E1,4.9E1,1.03E2,5E1,3.4E1,3.5E1,1.4E1,8E1,2.3E1,3E1,2E1,6.3E1,1.7E1,1.1E1,1.2E1,1.1E1,1.9E1,5.2E1,1.1E1],"tree_param":{"num_deleted":"0","num_feature":"27","num_nodes":"21","size_leaf_vector":"1"}},{"base_weights":[9.377607E0,-2.3344963E2,4.675659E2,-4.382453E2,-1.2625012E2,5.1022855E2,6.5433774E0,-1.787751E1,-6.142907E0,-1.9839613E2,2.871351E1,7.621377E0,2.0435337E1,-2.1888582E2,-2.4317474E0,-4.1937874E1,5.0677342E0,-8.877433E0,-2.9142218E0,-3.3767278E0,7.943272E-1],"categories":[],"categories_nodes":[],"categories_segments":[],"categories_sizes":[],"default_left":[0,0,0,0,0,0,0,0,0,0,0,0,0,0,0,0,0,0,0,0,0],"id":11,"left_children":[1,3,5,7,9,11,-1,-1,-1,13,15,-1,-1,17,-1,19,-1,-1,-1,-1,-1],"loss_changes":[2.5660094E7,3.0413865E6,5.28616E5,3.27025E5,1.2116976E6,4.93156E5,0E0,0E0,0E0,1.2383625E5,3.2583644E5,0E0,0E0,1.2222925E5,0E0,9.792455E4,0E0,0E0,0E0,0E0,0E0],"parents":[2147483647,0,0,1,1,2,2,3,3,4,4,5,5,9,9,10,10,13,13,15,15],"right_children":[2,4,6,8,10,12,-1,-1,-1,14,16,-1,-1,18,-1,20,-1,-1,-1,-1,-1],"split_conditions":[1.146E3,3E0,3.64E2,1.48297E3,9.92E1,4.7597553E1,6.5433774E0,-1.787751E1,-6.142907E0,1.625078E3,2.411233E3,7.621377E0,2.0435337E1,6.332272E1,-2.4317474E0,2E0,5.0677342E0,-8.877433E0,-2.9142218E0,-3.3767278E0,7.943272E-1],"split_indices":[24,16,12,23,2,25,0,0,0,23,23,0,0,25,0,7,0,0,0,0,0],"split_type":[0,0,0,0,0,0,0,0,0,0,0,0,0,0,0,0,0,0,0,0,0],"sum_hessian":[2.21E2,1.46E2,7.5E1,4.5E1,1.01E2,6.2E1,1.3E1,3.4E1,1.1E1,6.8E1,3.3E1,1.3E1,4.9E1,5.6E1,1.2E1,2.2E1,1.1E1,4.4E1,1.2E1,1.1E1,1.1E1],"tree_param":{"num_deleted":"0","num_feature":"27","num_nodes":"21","size_leaf_vector":"1"}},{"base_weights":[-3.007852E1,-2.7431616E2,3.3802344E2,-1.5851917E1,-1.9346713E2,-1.1522425E0,4.065425E2,-2.084451E2,-2.428246E0,2.8343382E0,1.7360132E1,-8.277951E0,-3.0598614E0],"categories":[],"categories_nodes":[],"categories_segments":[],"categories_sizes":[],"default_left":[0,0,0,0,0,0,0,0,0,0,0,0,0],"id":12,"left_children":[1,3,5,-1,7,-1,9,11,-1,-1,-1,-1,-1],"loss_changes":[2.0665972E7,1.402701E6,2.391489E6,0E0,1.2240775E5,0E0,1.664039E6,1.2197225E5,0E0,0E0,0E0,0E0,0E0],"parents":[2147483647,0,0,1,1,2,2,4,4,6,6,7,7],"right_children":[2,4,6,-1,8,-1,10,12,-1,-1,-1,-1,-1],"split_conditions":[2.098973E3,2E0,9.95E1,-1.5851917E1,6.54E1,-1.1522425E0,1.162E3,3.25E1,-2.428246E0,2.8343382E0,1.7360132E1,-8.277951E0,-3.0598614E0],"split_indices":[23,16,2,0,6,0,24,8,0,0,0,0,0],"split_type":[0,0,0,0,0,0,0,0,0,0,0,0,0],"sum_hessian":[2.2E2,1.33E2,8.7E1,3.7E1,9.6E1,1.4E1,7.3E1,8.3E1,1.3E1,1.5E1,5.8E1,6.8E1,1.5E1],"tree_param":{"num_deleted":"0","num_feature":"27","num_nodes":"13","size_leaf_vector":"1"}},{"base_weights":[-2.0921637E1,-2.1065483E2,4.8826978E2,-4.1349707E2,-1.2214401E2,3.184215E2,2.3224493E1,-1.6725536E1,-6.144564E0,-1.859541E2,2.2437616E1,1.3471582E1,4.4950104E0,-2.1441591E2,-3.4688826E0,-3.5996616E1,4.1408453E0,-8.433772E0,-3.2279036E0,-3.4336786E0,1.0529393E0],"categories":[],"categories_nodes":[],"categories_segments":[],"categories_sizes":[],"default_left":[1,0,0,0,0,0,0,0,0,0,0,0,0,0,0,0,0,0,0,0,0],"id":13,"left_children":[1,3,5,7,9,11,-1,-1,-1,13,15,-1,-1,17,-1,19,-1,-1,-1,-1,-1],"loss_changes":[2.2705508E7,2.820507E6,6.57855E5,1.99925E5,1.181917E6,1.865035E5,0E0,0E0,0E0,1.25123E5,2.5004578E5,0E0,0E0,4.1806E4,0E0,1.275709E5,0E0,0E0,0E0,0E0,0E0],"parents":[2147483647,0,0,1,1,2,2,3,3,4,4,5,5,9,9,10,10,13,13,15,15],"right_children":[2,4,6,8,10,12,-1,-1,-1,14,16,-1,-1,18,-1,20,-1,-1,-1,-1,-1],"split_conditions":[2E0,3E0,3.282608E3,2.451805E3,1.915498E3,5.489985E-1,2.3224493E1,-1.6725536E1,-6.144564E0,6.32E1,2.521111E3,1.3471582E1,4.4950104E0,3.25E1,-3.4688826E0,7.43E1,4.1408453E0,-8.433772E0,-3.2279036E0,-3.4336786E0,1.0529393E0],"split_indices":[15,16,23,22,23,26,0,0,0,6,23,0,0,8,0,3,0,0,0,0,0],"split_type":[0,0,0,0,0,0,0,0,0,0,0,0,0,0,0,0,0,0,0,0,0],"sum_hessian":[2.25E2,1.66E2,5.9E1,4.5E1,1.21E2,3.5E1,2.4E1,3.4E1,1.1E1,8.3E1,3.8E1,2.4E1,1.1E1,5.8E1,2.5E1,2.5E1,1.3E1,4.7E1,1.1E1,1.2E1,1.3E1],"tree_param":{"num_deleted":"0","num_feature":"27","num_nodes":"21","size_leaf_vector":"1"}},{"base_weights":[9.1749325E0,-2.2256302E2,4.357438E2,-1.6526888E1,-1.5860849E2,5.0266132E2,1.1852168E0,-2.0607481E2,-5.8839736E0,3.4664554E2,2.5003685E1,-2.1869643E2,-2.7268114E0,1.8281851E0,-2.9266999E0,5.2228146E0,1.4068983E1,-8.382918E0,-3.676738E0],"categories":[],"categories_nodes":[],"categories_segments":[],"categories_sizes":[],"default_left":[0,0,0,0,0,0,0,0,0,0,0,1,0,0,0,0,0,0,0],"id":14,"left_children":[1,3,5,-1,7,9,-1,11,13,15,-1,17,-1,-1,-1,-1,-1,-1,-1],"loss_changes":[2.2996062E7,1.897417E6,2.126325E6,0E0,9.05826E5,8.73166E5,0E0,7.751175E4,1.6675573E5,1.28116E5,0E0,9.59975E3,0E0,0E0,0E0,0E0,0E0,0E0,0E0],"parents":[2147483647,0,0,1,1,2,2,4,4,5,5,7,7,8,8,9,9,11,11],"right_children":[2,4,6,-1,8,10,-1,12,14,16,-1,18,-1,-1,-1,-1,-1,-1,-1],"split_conditions":[1.162E3,2.83E2,7.43E1,-1.6526888E1,2.000775E3,6.641E3,1.1852168E0,6.474809E1,4.16633E3,4.8030758E1,2.5003685E1,4.3E1,-2.7268114E0,1.8281851E0,-2.9266999E0,5.2228146E0,1.4068983E1,-8.382918E0,-3.676738E0],"split_indices":[24,24,3,0,23,0,0,25,17,25,0,12,0,0,0,0,0,0,0],"split_type":[0,0,0,0,0,0,0,0,0,0,0,0,0,0,0,0,0,0,0],"sum_hessian":[2.23E2,1.46E2,7.7E1,2.5E1,1.21E2,6.5E1,1.2E1,9.1E1,3E1,4.3E1,2.2E1,8E1,1.1E1,1.8E1,1.2E1,1.1E1,3.2E1,6.8E1,1.2E1],"tree_param":{"num_deleted":"0","num_feature":"27","num_nodes":"19","size_leaf_vector":"1"}},{"base_weights":[-9.731512E0,-2.1330766E2,3.5852222E2,-1.5216305E1,-1.3623613E2,-3.0327938E0,4.3294363E2,-1.7286774E2,-9.203588E0,1.1737446E1,2.0378569E1,-1.9009866E2,-1.2731628E0,-3.138589E0,2.2536852E0,-7.5388036E0,-2.0483737E0],"categories":[],"categories_nodes":[],"categories_segments":[],"categories_sizes":[],"default_left":[0,0,0,0,0,0,0,0,0,0,0,0,0,0,0,0,0],"id":15,"left_children":[1,3,5,-1,7,-1,9,11,13,-1,-1,15,-1,-1,-1,-1,-1],"loss_changes":[1.7228148E7,2.0722685E6,2.870715E6,0E0,5.2618275E5,0E0,1.12482E5,1.7778125E5,1.9657573E5,0E0,0E0,1.275685E5,0E0,0E0,0E0,0E0,0E0],"parents":[2147483647,0,0,1,1,2,2,4,4,6,6,7,7,8,8,11,11],"right_children":[2,4,6,-1,8,-1,10,12,14,-1,-1,16,-1,-1,-1,-1,-1],"split_conditions":[1.013E3,1.386E3,9.95E1,-1.5216305E1,4.477E3,-3.0327938E0,3.457784E3,6.4621414E1,2.3E0,1.1737446E1,2.0378569E1,9.95E1,-1.2731628E0,-3.138589E0,2.2536852E0,-7.5388036E0,-2.0483737E0],"split_indices":[24,0,2,0,0,0,23,25,8,0,0,2,0,0,0,0,0],"split_type":[0,0,0,0,0,0,0,0,0,0,0,0,0,0,0,0,0],"sum_hessian":[2.2E2,1.43E2,7.7E1,3.3E1,1.1E2,1.1E1,6.6E1,8.4E1,2.6E1,4.5E1,2.1E1,7.3E1,1.1E1,1.2E1,1.4E1,6.2E1,1.1E1],"tree_param":{"num_deleted":"0","num_feature":"27","num_nodes":"17","size_leaf_vector":"1"}},{"base_weights":[6.0388827E0,-1.8672398E2,3.96872E2,-1.4645642E1,-1.1475584E2,4.7169147E2,4.429963E-1,-1.4388327E2,3.6630507E0,1.13107815E1,2.377543E1,-1.6343706E2,2.2702298E-1,-1.9824706E2,-7.679989E1,-8.328038E0,-3.140726E0,-4.1278243E0,-1.0629845E0],"categories":[],"categories_nodes":[],"categories_segments":[],"categories_sizes":[],"default_left":[0,0,0,0,0,0,0,0,0,0,0,0,0,0,0,0,0,0,0],"id":16,"left_children":[1,3,5,-1,7,9,-1,11,-1,-1,-1,13,-1,15,17,-1,-1,-1,-1],"loss_changes":[1.6622997E7,2.084622E6,2.067313E6,0E0,8.1152675E5,7.92374E5,0E0,3.16251E5,0E0,0E0,0E0,2.08237E5,0E0,1.2651875E5,4.465917E4,0E0,0E0,0E0,0E0],"parents":[2147483647,0,0,1,1,2,2,4,4,5,5,7,7,11,11,13,13,14,14],"right_children":[2,4,6,-1,8,10,-1,12,-1,-1,-1,14,-1,16,18,-1,-1,-1,-1],"split_conditions":[1.162E3,1.386E3,7.43E1,-1.4645642E1,2.5678E3,6.641E3,4.429963E-1,1E0,3.6630507E0,1.13107815E1,2.377543E1,9.1E1,2.2702298E-1,2.38E0,3.93047E3,-8.328038E0,-3.140726E0,-4.1278243E0,-1.0629845E0],"split_indices":[24,0,3,0,23,0,0,21,0,0,0,1,0,18,17,0,0,0,0],"split_type":[0,0,0,0,0,0,0,0,0,0,0,0,0,0,0,0,0,0,0],"sum_hessian":[2.11E2,1.43E2,6.8E1,3E1,1.13E2,5.6E1,1.2E1,1.01E2,1.2E1,3.7E1,1.9E1,8.9E1,1.2E1,5.9E1,3E1,4.2E1,1.7E1,1.3E1,1.7E1],"tree_param":{"num_deleted":"0","num_feature":"27","num_nodes":"19","size_leaf_vector":"1"}},{"base_weights":[-1.2926725E1,-2.2836708E2,3.2334784E2,-1.4367528E1,-1.6534494E2,-2.318969E0,3.9480093E2,-1.8755348E2,-1.0470667E0,2.0831842E2,1.6431997E1,-2.0398758E2,-1.671626E0,3.5378792E0,9.247086E0,-8.577521E0,-1.0532973E2,-1.561576E0,-4.9690337E0],"categories":[],"categories_nodes":[],"categories_segments":[],"categories_sizes":[],"default_left":[0,0,0,0,0,0,0,0,0,0,0,0,0,0,0,0,0,0,0],"id":17,"left_children":[1,3,5,-1,7,-1,9,11,-1,13,-1,15,-1,-1,-1,-1,17,-1,-1],"loss_changes":[1.6286504E7,1.128132E6,2.555115E6,0E0,2.9989675E5,0E0,3.54677E5,1.670605E5,0E0,1.6973E4,0E0,1.37853E5,0E0,0E0,0E0,0E0,2.7755344E4,0E0,0E0],"parents":[2147483647,0,0,1,1,2,2,4,4,6,6,7,7,9,9,11,11,16,16],"right_children":[2,4,6,-1,8,-1,10,12,-1,14,-1,16,-1,-1,-1,-1,18,-1,-1],"split_conditions":[9.53E2,1.378E3,9.95E1,-1.4367528E1,2.17281E3,-2.318969E0,5.35E1,6.449077E1,-1.0470667E0,1.661E3,1.6431997E1,9.07E1,-1.671626E0,3.5378792E0,9.247086E0,-8.577521E0,9.4E1,-1.561576E0,-4.9690337E0],"split_indices":[24,0,2,0,23,0,3,25,0,24,0,1,0,0,0,0,1,0,0],"split_type":[0,0,0,0,0,0,0,0,0,0,0,0,0,0,0,0,0,0,0],"sum_hessian":[2.15E2,1.32E2,8.3E1,2.9E1,1.03E2,1.3E1,7E1,8.7E1,1.6E1,2.2E1,4.8E1,7.6E1,1.1E1,1.1E1,1.1E1,5.2E1,2.4E1,1.2E1,1.2E1],"tree_param":{"num_deleted":"0","num_feature":"27","num_nodes":"19","size_leaf_vector":"1"}},{"base_weights":[-1.5550058E1,-1.9012747E2,3.440917E2,-3.4381485E2,-1.2069774E2,2.2429167E2,1.979333E1,-1.4119722E1,-6.024707E0,-1.5878798E2,-1.907652E1,1.2882755E0,1.1217754E1,-1.8147395E2,-2.194779E0,-2.3103077E0,1.6526549E0,-7.275328E0,-2.194206E0],"categories":[],"categories_nodes":[],"categories_segments":[],"categories_sizes":[],"default_left":[0,0,0,0,0,1,0,0,0,0,0,0,0,0,0,0,0,0,0],"id":18,"left_children":[1,3,5,7,9,11,-1,-1,-1,13,15,-1,-1,17,-1,-1,-1,-1,-1],"loss_changes":[1.456069E7,1.460032E6,1.236934E6,5.55545E4,4.2931875E5,8.428495E5,0E0,0E0,0E0,1.3056575E5,1.2056206E5,0E0,0E0,9.07125E4,0E0,0E0,0E0,0E0,0E0],"parents":[2147483647,0,0,1,1,2,2,3,3,4,4,5,5,9,9,10,10,13,13],"right_children":[2,4,6,8,10,12,-1,-1,-1,14,16,-1,-1,18,-1,-1,-1,-1,-1],"split_conditions":[1.152E3,3E0,6.641E3,1.706E3,9.92E1,7E0,1.979333E1,-1.4119722E1,-6.024707E0,6.332272E1,7.43E1,1.2882755E0,1.1217754E1,3.049E3,-2.194779E0,-2.3103077E0,1.6526549E0,-7.275328E0,-2.194206E0],"split_indices":[24,16,0,0,2,15,0,0,0,25,3,0,0,0,0,0,0,0,0],"split_type":[0,0,0,0,0,0,0,0,0,0,0,0,0,0,0,0,0,0,0],"sum_hessian":[2.22E2,1.51E2,7.1E1,4.1E1,1.1E2,5.1E1,2E1,2.8E1,1.3E1,7.8E1,3.2E1,1.8E1,3.3E1,6E1,1.8E1,1.9E1,1.3E1,4.9E1,1.1E1],"tree_param":{"num_deleted":"0","num_feature":"27","num_nodes":"19","size_leaf_vector":"1"}},{"base_weights":[6.8911448E0,3.8339316E2,-1.670724E2,4.4783252E2,2.2815847E0,-1.31530485E1,-9.909642E1,8.4206295E0,1.79362E1,-1.4783144E2,5.15679E1,-1.6140877E2,-1.1076268E0,-2.2940226E0,5.7785435E0,-8.894514E0,-1.27487854E2,-1.4903432E2,-2.9965025E-1,-1.6616917E2,-1.8661419E0,-6.9268007E0,-3.2383542E0],"categories":[],"categories_nodes":[],"categories_segments":[],"categories_sizes":[],"default_left":[0,0,0,0,0,0,0,0,0,0,0,0,0,0,0,0,0,0,0,0,0,0,0],"id":19,"left_children":[1,3,5,7,-1,-1,9,-1,-1,11,13,15,-1,-1,-1,-1,17,19,-1,21,-1,-1,-1],"loss_changes":[1.5105016E7,1.366056E6,1.923909E6,4.4359E4,0E0,0E0,9.467781E5,0E0,0E0,1.2649525E5,4.6848103E5,8.558875E4,0E0,0E0,0E0,0E0,1.7297862E5,5.6166625E4,0E0,7.733125E3,0E0,0E0,0E0],"parents":[2147483647,0,0,1,1,2,2,3,3,6,6,9,9,10,10,11,11,16,16,17,17,19,19],"right_children":[2,4,6,8,-1,-1,10,-1,-1,12,14,16,-1,-1,-1,-1,18,20,-1,22,-1,-1,-1],"split_conditions":[9.9E1,3.1088703E0,1.449E3,1.01E2,2.2815847E0,-1.31530485E1,2.098973E3,8.4206295E0,1.79362E1,6.474809E1,3.1542072E-1,3.85904E3,-1.1076268E0,-2.2940226E0,5.7785435E0,-8.894514E0,9.94E1,8.11E1,-2.9965025E-1,9.1E1,-1.8661419E0,-6.9268007E0,-3.2383542E0],"split_indices":[15,26,0,13,0,0,23,0,0,25,26,17,0,0,0,0,2,3,0,1,0,0,0],"split_type":[0,0,0,0,0,0,0,0,0,0,0,0,0,0,0,0,0,0,0,0,0,0,0],"sum_hessian":[2.21E2,6.8E1,1.53E2,5.5E1,1.3E1,3.4E1,1.19E2,1.5E1,4E1,9E1,2.9E1,7.9E1,1.1E1,1.5E1,1.4E1,1.4E1,6.5E1,5.4E1,1.1E1,4.3E1,1.1E1,2.7E1,1.6E1],"tree_param":{"num_deleted":"0","num_feature":"27","num_nodes":"23","size_leaf_vector":"1"}},{"base_weights":[-1.2265867E0,-1.7586197E2,3.3758704E2,-1.416348E1,-1.1227939E2,3.9455963E2,2.6862538E-1,-1.3919255E2,2.8632512E0,9.550677E0,1.9284351E1,-1.5241862E2,-6.8824035E-1,-1.669838E2,-8.004925E-1,-6.5283246E0,-2.5566761E0],"categories":[],"categories_nodes":[],"categories_segments":[],"categories_sizes":[],"default_left":[0,0,0,0,0,0,0,0,0,0,0,0,0,0,0,0,0],"id":20,"left_children":[1,3,5,-1,7,9,-1,11,-1,-1,-1,13,-1,15,-1,-1,-1],"loss_changes":[1.4065847E7,1.927463E6,1.505571E6,0E0,7.116949E5,5.56925E5,0E0,1.66433E5,0E0,0E0,0E0,1.7486875E5,0E0,5.213E4,0E0,0E0,0E0],"parents":[2147483647,0,0,1,1,2,2,4,4,5,5,7,7,11,11,13,13],"right_children":[2,4,6,-1,8,10,-1,12,-1,-1,-1,14,-1,16,-1,-1,-1],"split_conditions":[1.152E3,1.371E3,7.43E1,-1.416348E1,5.22145E3,3.282608E3,2.6862538E-1,3.86E0,2.8632512E0,9.550677E0,1.9284351E1,6.56E1,-6.8824035E-1,1.93136E3,-8.004925E-1,-6.5283246E0,-2.5566761E0],"split_indices":[24,0,3,0,22,23,0,18,0,0,0,6,0,23,0,0,0],"split_type":[0,0,0,0,0,0,0,0,0,0,0,0,0,0,0,0,0],"sum_hessian":[2.28E2,1.52E2,7.6E1,2.9E1,1.23E2,6.4E1,1.2E1,1.09E2,1.4E1,4E1,2.4E1,9.7E1,1.2E1,8.6E1,1.1E1,7.2E1,1.4E1],"tree_param":{"num_deleted":"0","num_feature":"27","num_nodes":"17","size_leaf_vector":"1"}},{"base_weights":[-1.4933838E1,-1.931501E2,2.95323E2,-1.4107875E1,-1.4019127E2,1.4322597E2,3.9195218E2,-1.6627417E2,-4.715528E-1,3.873847E-1,8.332037E0,8.507637E0,1.8211067E1,-1.8362178E2,-6.502768E-1,-1.970487E2,-3.2125278E0,-3.2940187E0,-7.7020216E0],"categories":[],"categories_nodes":[],"categories_segments":[],"categories_sizes":[],"default_left":[0,0,0,0,0,0,0,0,0,0,0,0,0,0,0,0,0,0,0],"id":21,"left_children":[1,3,5,-1,7,9,11,13,-1,-1,-1,-1,-1,15,-1,17,-1,-1,-1],"loss_changes":[1.2543942E7,1.2262745E6,9.43376E5,0E0,3.89864E5,4.4471088E5,2.55706E5,2.4033875E5,0E0,0E0,0E0,0E0,0E0,2.7653E4,0E0,2.593525E4,0E0,0E0,0E0],"parents":[2147483647,0,0,1,1,2,2,4,4,5,5,6,6,7,7,13,13,15,15],"right_children":[2,4,6,-1,8,10,12,14,-1,-1,-1,-1,-1,16,-1,18,-1,-1,-1],"split_conditions":[2.421244E3,1.165E3,4.9645294E1,-1.4107875E1,1.93136E3,3E0,3.457784E3,6.449077E1,-4.715528E-1,3.873847E-1,8.332037E0,8.507637E0,1.8211067E1,9.48E1,-6.502768E-1,4.8307255E1,-3.2125278E0,-3.2940187E0,-7.7020216E0],"split_indices":[23,0,25,0,23,19,23,25,0,0,0,0,0,1,0,25,0,0,0],"split_type":[0,0,0,0,0,0,0,0,0,0,0,0,0,0,0,0,0,0,0],"sum_hessian":[2.17E2,1.39E2,7.8E1,2.3E1,1.16E2,3.5E1,4.3E1,9.5E1,2.1E1,1.6E1,1.9E1,2.4E1,1.9E1,8.4E1,1.1E1,6.9E1,1.5E1,1.3E1,5.6E1],"tree_param":{"num_deleted":"0","num_feature":"27","num_nodes":"19","size_leaf_vector":"1"}},{"base_weights":[3.517858E-1,-1.4089684E2,3.5601907E2,-1.2171827E1,-8.6032074E1,4.098013E2,1.9551302E0,-1.1519025E2,6.419556E0,1.0100673E1,1.9782795E1,-1.3719284E2,-4.4614853E1,-1.6898367E2,-7.6493546E1,9.7042286E-1,-3.0053136E0,-2.37842E0,-6.934979E0,-4.6564474E0,4.4617984E-1],"categories":[],"categories_nodes":[],"categories_segments":[],"categories_sizes":[],"default_left":[1,0,0,0,0,0,0,0,0,0,0,0,0,0,0,0,0,0,0,0,0],"id":22,"left_children":[1,3,5,-1,7,9,-1,11,-1,-1,-1,13,15,17,19,-1,-1,-1,-1,-1,-1],"loss_changes":[1.1992803E7,1.6845852E6,9.93708E5,0E0,1.1717704E6,2.72344E5,0E0,1.6979312E5,0E0,0E0,0E0,1.21413125E5,1.14383625E5,7.3878875E4,2.010862E5,0E0,0E0,0E0,0E0,0E0,0E0],"parents":[2147483647,0,0,1,1,2,2,4,4,5,5,7,7,11,11,12,12,13,13,14,14],"right_children":[2,4,6,-1,8,10,-1,12,-1,-1,-1,14,16,18,20,-1,-1,-1,-1,-1,-1],"split_conditions":[2E0,1.386E3,3.1088703E0,-1.2171827E1,2.726682E3,3.457784E3,1.9551302E0,9.26E1,6.419556E0,1.0100673E1,1.9782795E1,6.8E2,9.45E1,1.64E3,9.93E1,9.7042286E-1,-3.0053136E0,-2.37842E0,-6.934979E0,-4.6564474E0,4.4617984E-1],"split_indices":[15,0,26,0,23,23,0,1,0,0,0,24,1,0,2,0,0,0,0,0,0],"split_type":[0,0,0,0,0,0,0,0,0,0,0,0,0,0,0,0,0,0,0,0,0],"sum_hessian":[2.29E2,1.66E2,6.3E1,3.1E1,1.35E2,5.2E1,1.1E1,1.24E2,1.1E1,3.4E1,1.8E1,9.1E1,3.3E1,5.4E1,3.7E1,1.2E1,2.1E1,1.3E1,4.1E1,2.2E1,1.5E1],"tree_param":{"num_deleted":"0","num_feature":"27","num_nodes":"21","size_leaf_vector":"1"}},{"base_weights":[1.6278541E0,-1.7024117E2,3.1241455E2,-1.158372E1,-1.1478529E2,1.7119638E2,1.6345879E1,-1.4549724E2,-1.5195677E0,-1.6280339E0,2.398306E2,-1.7503642E2,-4.6999172E1,-2.6191351E0,2.3740122E0,2.4978874E0,1.1443925E1,-7.0487046E0,-1.8320911E0,7.4489504E-2,-3.07984E0],"categories":[],"categories_nodes":[],"categories_segments":[],"categories_sizes":[],"default_left":[0,0,1,0,0,0,0,0,0,0,0,0,1,0,0,0,0,0,0,0,0],"id":23,"left_children":[1,3,5,-1,7,9,-1,11,13,-1,15,17,19,-1,-1,-1,-1,-1,-1,-1,-1],"loss_changes":[1.2429766E7,1.0608295E6,1.2427925E6,0E0,4.0497012E5,7.775774E5,0E0,2.266075E5,1.6446614E5,0E0,3.8371575E5,1.1761025E5,5.2961453E4,0E0,0E0,0E0,0E0,0E0,0E0,0E0,0E0],"parents":[2147483647,0,0,1,1,2,2,4,4,5,5,7,7,8,8,10,10,11,11,12,12],"right_children":[2,4,6,-1,8,10,-1,12,14,-1,16,18,20,-1,-1,-1,-1,-1,-1,-1,-1],"split_conditions":[2.416096E3,1.386E3,1.02E2,-1.158372E1,3.60845E3,5.364E3,1.6345879E1,9.26E1,2.3E0,-1.6280339E0,3E0,5.32E1,2.3E1,-2.6191351E0,2.3740122E0,2.4978874E0,1.1443925E1,-7.0487046E0,-1.8320911E0,7.4489504E-2,-3.07984E0],"split_indices":[23,0,13,0,22,0,0,1,8,0,19,9,13,0,0,0,0,0,0,0,0],"split_type":[0,0,0,0,0,0,0,0,0,0,0,0,0,0,0,0,0,0,0,0,0],"sum_hessian":[2.23E2,1.45E2,7.8E1,3.3E1,1.12E2,4.4E1,3.4E1,8.7E1,2.5E1,1.1E1,3.3E1,6.4E1,2.3E1,1.2E1,1.3E1,1.3E1,2E1,5.3E1,1.1E1,1.2E1,1.1E1],"tree_param":{"num_deleted":"0","num_feature":"27","num_nodes":"21","size_leaf_vector":"1"}},{"base_weights":[6.3056087E0,-1.5172745E2,2.827419E2,-1.296745E1,-1.0607635E2,2.0936964E0,3.2889227E2,-1.3690324E2,3.3875416E1,2.2585449E2,1.669848E1,-1.7427913E2,-7.284615E1,4.5178814E0,-2.6380134E0,1.1245884E2,1.0967817E1,-1.9217606E2,-2.4181204E0,-3.8297415E0,4.5758128E-1,1.2879266E0,5.7865396E0,-2.6533191E0,-7.771616E0],"categories":[],"categories_nodes":[],"categories_segments":[],"categories_sizes":[],"default_left":[0,0,0,0,0,0,0,0,0,0,0,0,0,0,0,0,0,0,0,0,0,0,0,0,0],"id":24,"left_children":[1,3,5,-1,7,-1,9,11,13,15,-1,17,19,-1,-1,21,-1,23,-1,-1,-1,-1,-1,-1,-1],"loss_changes":[1.0556212E7,1.2606422E6,8.18812E5,0E0,5.960379E5,0E0,4.674185E5,2.00574E5,3.137388E5,2.6678975E5,0E0,6.373175E4,1.4365619E5,0E0,0E0,7.288384E4,0E0,6.5002E4,0E0,0E0,0E0,0E0,0E0,0E0,0E0],"parents":[2147483647,0,0,1,1,2,2,4,4,6,6,7,7,8,8,9,9,11,11,12,12,15,15,17,17],"right_children":[2,4,6,-1,8,-1,10,12,14,16,-1,18,20,-1,-1,22,-1,24,-1,-1,-1,-1,-1,-1,-1],"split_conditions":[2.421244E3,1.139E3,1.162E3,-1.296745E1,2.098973E3,2.0936964E0,6.641E3,9.1E1,4.02767E3,3E0,1.669848E1,6.16E1,2.612359E3,4.5178814E0,-2.6380134E0,5.497E3,1.0967817E1,5E0,-2.4181204E0,-3.8297415E0,4.5758128E-1,1.2879266E0,5.7865396E0,-2.6533191E0,-7.771616E0],"split_indices":[23,0,24,0,23,0,0,1,17,19,0,6,22,0,0,0,0,20,0,0,0,0,0,0,0],"split_type":[0,0,0,0,0,0,0,0,0,0,0,0,0,0,0,0,0,0,0,0,0,0,0,0,0],"sum_hessian":[2.32E2,1.49E2,8.3E1,2.1E1,1.28E2,1.6E1,6.7E1,1.05E2,2.3E1,4.5E1,2.2E1,6.1E1,4.4E1,1.2E1,1.1E1,2.3E1,2.2E1,4.9E1,1.2E1,3.1E1,1.3E1,1.2E1,1.1E1,1.1E1,3.8E1],"tree_param":{"num_deleted":"0","num_feature":"27","num_nodes":"25","size_leaf_vector":"1"}},{"base_weights":[4.221669E0,-1.8062132E2,2.3649428E2,-1.2274384E1,-1.262688E2,-2.0192735E0,2.8831497E2,-1.3923636E2,-3.5610974E-1,2.3919423E0,3.2854477E2,-5.739012E0,-7.979004E1,2.2470064E2,1.7162983E1,-4.779941E0,-6.8857825E-1,3.394502E0,2.6014056E2,5.749213E0,1.219211E1],"categories":[],"categories_nodes":[],"categories_segments":[],"categories_sizes":[],"default_left":[0,0,0,0,0,0,0,0,0,0,0,0,0,0,0,0,0,0,0,0,0],"id":25,"left_children":[1,3,5,-1,7,-1,9,11,-1,-1,13,-1,15,17,-1,-1,-1,-1,19,-1,-1],"loss_changes":[1.0162272E7,9.226595E5,1.6664275E6,0E0,1.5273975E5,0E0,6.97234E5,4.5332E4,0E0,0E0,6.0692E5,0E0,9.1337875E4,1.2612025E5,0E0,0E0,0E0,0E0,3.989075E4,0E0,0E0],"parents":[2147483647,0,0,1,1,2,2,4,4,6,6,7,7,10,10,12,12,13,13,18,18],"right_children":[2,4,6,-1,8,-1,10,12,-1,-1,14,-1,16,18,-1,-1,-1,-1,20,-1,-1],"split_conditions":[4.389582E3,2.83E2,9.95E1,-1.2274384E1,3.557E3,-2.0192735E0,1.152E3,6.330597E1,-3.5610974E-1,2.3919423E0,6.641E3,-5.739012E0,1.534E3,2E0,1.7162983E1,-4.779941E0,-6.8857825E-1,3.394502E0,1.93E0,5.749213E0,1.219211E1],"split_indices":[22,24,2,0,0,0,24,25,0,0,0,0,0,19,0,0,0,0,18,0,0],"split_type":[0,0,0,0,0,0,0,0,0,0,0,0,0,0,0,0,0,0,0,0,0],"sum_hessian":[2.27E2,1.27E2,1E2,2.6E1,1.01E2,1.5E1,8.5E1,9E1,1.1E1,1.5E1,7E1,6.2E1,2.8E1,4.8E1,2.2E1,1.2E1,1.6E1,1.4E1,3.4E1,2.1E1,1.3E1],"tree_param":{"num_deleted":"0","num_feature":"27","num_nodes":"21","size_leaf_vector":"1"}},{"base_weights":[1.6016E0,-1.3534879E2,3.1947253E2,-1.6980725E2,2.7193084E0,4.416988E0,3.7772693E2,-2.735158E2,-1.14372116E2,4.3441754E2,7.0649877E0,-1.1286656E1,-3.9469671E0,-7.120553E1,-5.896484E0,7.4811482E0,1.8035223E1,-9.271757E1,6.5426505E-1,-8.4794235E-1,-1.140035E2,-6.561284E0,-1.6745288E0],"categories":[],"categories_nodes":[],"categories_segments":[],"categories_sizes":[],"default_left":[1,0,0,0,0,0,0,0,0,0,0,0,0,0,0,0,0,0,0,0,0,0,0],"id":26,"left_children":[1,3,5,7,-1,-1,9,11,13,15,-1,-1,-1,17,-1,-1,-1,19,-1,-1,21,-1,-1],"loss_changes":[9.955746E6,1.2208728E6,5.677095E5,6.451255E5,0E0,0E0,1.14039E5,1.131185E5,1.4895175E5,1.6E2,0E0,0E0,0E0,1.2520669E5,0E0,0E0,0E0,6.0196875E4,0E0,0E0,1.2607244E5,0E0,0E0],"parents":[2147483647,0,0,1,1,2,2,3,3,6,6,7,7,8,8,9,9,13,13,17,17,20,20],"right_children":[2,4,6,8,-1,-1,10,12,14,16,-1,-1,-1,18,-1,-1,-1,20,-1,-1,22,-1,-1],"split_conditions":[2E0,5.22145E3,4.9645294E1,3.85904E3,2.7193084E0,4.416988E0,1E2,2.480951E3,4.15159E3,3.022245E3,7.0649877E0,-1.1286656E1,-3.9469671E0,3.592688E3,-5.896484E0,7.4811482E0,1.8035223E1,3.7360746E-1,6.5426505E-1,-8.4794235E-1,9.07E1,-6.561284E0,-1.6745288E0],"split_indices":[15,22,25,17,0,0,4,22,17,23,0,0,0,22,0,0,0,26,0,0,1,0,0],"split_type":[0,0,0,0,0,0,0,0,0,0,0,0,0,0,0,0,0,0,0,0,0,0,0],"sum_hessian":[2.19E2,1.55E2,6.4E1,1.34E2,2.1E1,1.8E1,4.6E1,4E1,9.4E1,3E1,1.6E1,2.9E1,1.1E1,5.6E1,3.8E1,1.1E1,1.9E1,4.5E1,1.1E1,1.3E1,3.2E1,1.2E1,2E1],"tree_param":{"num_deleted":"0","num_feature":"27","num_nodes":"23","size_leaf_vector":"1"}},{"base_weights":[1.1451756E1,-1.4275882E2,2.564361E2,-1.1702891E1,-9.701387E1,1.3436546E2,1.4348367E1,-1.1656057E2,3.3856812E-1,-7.6180416E-1,1.8757541E2,-1.4854397E0,-1.3181432E2,2.4942125E2,2.0559049E-1,-1.4713365E2,-1.4255452E0,2.754642E0,1.1712638E1,-2.5525284E0,-1.6462086E2,-6.7230816E0,-2.5702007E0],"categories":[],"categories_nodes":[],"categories_segments":[],"categories_sizes":[],"default_left":[0,0,1,0,0,0,0,0,0,0,0,0,0,0,0,0,0,0,0,0,0,0,0],"id":27,"left_children":[1,3,5,-1,7,9,-1,11,-1,-1,13,-1,15,17,-1,19,-1,-1,-1,-1,21,-1,-1],"loss_changes":[9.088721E6,1.0641712E6,1.3191005E6,0E0,2.6518112E5,4.8974556E5,0E0,9.5283375E4,0E0,0E0,4.7448775E5,0E0,9.297325E4,2.86347E5,0E0,3.938525E4,0E0,0E0,0E0,0E0,4.2339125E4,0E0,0E0],"parents":[2147483647,0,0,1,1,2,2,4,4,5,5,7,7,10,10,12,12,13,13,15,15,20,20],"right_children":[2,4,6,-1,8,10,-1,12,-1,-1,14,-1,16,18,-1,20,-1,-1,-1,-1,22,-1,-1],"split_conditions":[2.416096E3,1.165E3,1.02E2,-1.1702891E1,3.27E1,5.364E3,1.4348367E1,2.8883284E-1,3.3856812E-1,-7.6180416E-1,9.75E0,-1.4854397E0,1.886814E3,6.9E-1,2.0559049E-1,5.0534336E1,-1.4255452E0,2.754642E0,1.1712638E1,-2.5525284E0,6.3137478E1,-6.7230816E0,-2.5702007E0],"split_indices":[23,0,13,0,8,0,0,26,0,0,16,0,23,18,0,25,0,0,0,0,25,0,0],"split_type":[0,0,0,0,0,0,0,0,0,0,0,0,0,0,0,0,0,0,0,0,0,0,0],"sum_hessian":[2.31E2,1.43E2,8.8E1,2.3E1,1.2E2,5.2E1,3.6E1,1.01E2,1.9E1,1.4E1,3.8E1,2E1,8.1E1,2.7E1,1.1E1,6.7E1,1.4E1,1.1E1,1.6E1,1.7E1,5E1,3.7E1,1.3E1],"tree_param":{"num_deleted":"0","num_feature":"27","num_nodes":"23","size_leaf_vector":"1"}},{"base_weights":[-3.3229465E0,-1.3103346E2,2.5763235E2,-1.06133375E1,-7.9950096E1,3.1634454E2,-5.674098E-1,-1.0111282E2,3.3944035E0,5.579601E0,1.3445731E1,-1.1347918E2,-7.461813E-1,-1.2906473E2,-1.4514657E0,-5.6081104E0,-7.1802795E1,-4.521333E0,2.3131974E-1],"categories":[],"categories_nodes":[],"categories_segments":[],"categories_sizes":[],"default_left":[0,0,0,0,0,0,0,0,0,0,0,0,0,0,0,0,0,0,0],"id":28,"left_children":[1,3,5,-1,7,9,-1,11,-1,-1,-1,13,-1,15,-1,-1,17,-1,-1],"loss_changes":[7.590732E6,1.1477252E6,1.226086E6,0E0,4.9729788E5,2.688145E5,0E0,9.9634E4,0E0,0E0,0E0,8.41E4,0E0,5.806125E4,0E0,0E0,1.4013205E5,0E0,0E0],"parents":[2147483647,0,0,1,1,2,2,4,4,5,5,7,7,11,11,13,13,16,16],"right_children":[2,4,6,-1,8,10,-1,12,-1,-1,-1,14,-1,16,-1,-1,18,-1,-1],"split_conditions":[1.162E3,3.88E2,7.43E1,-1.06133375E1,5.781598E3,5.35E1,-5.674098E-1,1E0,3.3944035E0,5.579601E0,1.3445731E1,6.330597E1,-7.461813E-1,2.96E1,-1.4514657E0,-5.6081104E0,4.0255E3,-4.521333E0,2.3131974E-1],"split_indices":[24,24,3,0,22,3,0,21,0,0,0,25,0,8,0,0,17,0,0],"split_type":[0,0,0,0,0,0,0,0,0,0,0,0,0,0,0,0,0,0,0],"sum_hessian":[2.18E2,1.48E2,7E1,3E1,1.18E2,5.7E1,1.3E1,1.07E2,1.1E1,1.9E1,3.8E1,9.1E1,1.6E1,7.2E1,1.9E1,4.4E1,2.8E1,1.5E1,1.3E1],"tree_param":{"num_deleted":"0","num_feature":"27","num_nodes":"19","size_leaf_vector":"1"}},{"base_weights":[-2.4659854E-1,-1.5385118E2,2.3104593E2,-2.725934E2,-9.3051285E1,2.1142887E-1,3.1568768E2,-1.0973966E1,-4.382435E0,-1.2181805E2,-1.9041796E1,-1.820103E0,2.301262E0,1.664382E2,3.6627936E2,-4.9700274E0,-1.6905867E0,1.34159E0,-2.202266E0,2.6866796E0,7.5265675E0,1.6744972E1,8.05599E0],"categories":[],"categories_nodes":[],"categories_segments":[],"categories_sizes":[],"default_left":[0,0,0,0,0,0,0,0,0,0,0,0,0,0,1,0,0,0,0,0,0,0,0],"id":29,"left_children":[1,3,5,7,9,11,13,-1,-1,15,17,-1,-1,19,21,-1,-1,-1,-1,-1,-1,-1,-1],"loss_changes":[8.622968E6,9.2865775E5,1.891124E6,3.479825E4,2.0940625E5,1.1392777E5,2.37211E5,0E0,0E0,5.3122625E4,9.2455625E4,0E0,0E0,2.6447812E4,1.72097E5,0E0,0E0,0E0,0E0,0E0,0E0,0E0,0E0],"parents":[2147483647,0,0,1,1,2,2,3,3,4,4,5,5,6,6,9,9,10,10,13,13,14,14],"right_children":[2,4,6,8,10,12,14,-1,-1,16,18,-1,-1,20,22,-1,-1,-1,-1,-1,-1,-1,-1],"split_conditions":[9.95E1,3E0,1.152E3,2.451805E3,1.649453E3,7.04E1,1.01E2,-1.0973966E1,-4.382435E0,8.07E1,4.11823E3,-1.820103E0,2.301262E0,5.3690544E1,4.6E1,-4.9700274E0,-1.6905867E0,1.34159E0,-2.202266E0,2.6866796E0,7.5265675E0,1.6744972E1,8.05599E0],"split_indices":[2,16,24,22,23,3,13,0,0,3,22,0,0,25,14,0,0,0,0,0,0,0,0],"split_type":[0,0,0,0,0,0,0,0,0,0,0,0,0,0,0,0,0,0,0,0,0,0,0],"sum_hessian":[2.33E2,1.41E2,9.2E1,4.2E1,9.9E1,2.6E1,6.6E1,3.1E1,1.1E1,6.9E1,3E1,1.5E1,1.1E1,2.2E1,4.4E1,5.4E1,1.5E1,1.3E1,1.7E1,1.1E1,1.1E1,2E1,2.4E1],"tree_param":{"num_deleted":"0","num_feature":"27","num_nodes":"23","size_leaf_vector":"1"}},{"base_weights":[1.2423707E0,-1.5746803E2,2.3939702E2,-9.561677E0,-9.594069E1,1.6223608E2,1.3715534E1,1.1119267E0,-1.1393326E2,2.0129268E2,-5.8224934E-1,-5.222582E0,-4.397234E1,2.614509E0,2.3524448E2,8.726324E-1,-3.0348985E0,1.3258969E2,1.1658293E1,7.217238E0,7.655183E-1],"categories":[],"categories_nodes":[],"categories_segments":[],"categories_sizes":[],"default_left":[0,0,0,0,0,0,0,0,0,0,0,0,0,0,0,0,0,0,0,0,0],"id":30,"left_children":[1,3,5,-1,7,9,-1,-1,11,13,-1,-1,15,-1,17,-1,-1,19,-1,-1,-1],"loss_changes":[8.871475E6,7.9681575E5,7.060445E5,0E0,2.3787881E5,4.95782E5,0E0,0E0,1.4951038E5,1.6600675E5,0E0,0E0,9.880422E4,0E0,1.711645E5,0E0,0E0,1.8531481E5,0E0,0E0,0E0],"parents":[2147483647,0,0,1,1,2,2,4,4,5,5,8,8,9,9,12,12,14,14,17,17],"right_children":[2,4,6,-1,8,10,-1,-1,12,14,-1,-1,16,-1,18,-1,-1,20,-1,-1,-1],"split_conditions":[9.55E2,3E0,6.829188E3,-9.561677E0,7.5E0,9.75E0,1.3715534E1,1.1119267E0,9.26E1,2E0,-5.8224934E-1,-5.222582E0,9.47E1,2.614509E0,1.93E0,8.726324E-1,-3.0348985E0,2.1E1,1.1658293E1,7.217238E0,7.655183E-1],"split_indices":[24,16,22,0,16,16,0,0,1,19,0,0,1,0,18,0,0,15,0,0,0],"split_type":[0,0,0,0,0,0,0,0,0,0,0,0,0,0,0,0,0,0,0,0,0],"sum_hessian":[2.25E2,1.36E2,8.9E1,4.4E1,9.2E1,6.4E1,2.5E1,1.1E1,8.1E1,5.2E1,1.2E1,5.3E1,2.8E1,1.4E1,3.8E1,1.1E1,1.7E1,2.3E1,1.5E1,1.2E1,1.1E1],"tree_param":{"num_deleted":"0","num_feature":"27","num_nodes":"21","size_leaf_vector":"1"}},{"base_weights":[-4.322659E0,-1.247834E2,2.4014249E2,-2.3411952E2,-6.962473E1,2.8281506E2,-4.7627E-1,-1.257333E2,-1.0712926E1,1.7971066E0,-8.776588E1,1.8632912E2,1.5178646E1,-5.792884E0,-1.920817E0,-2.854047E1,-1.0804632E2,7.9174666E0,2.33101E0,-2.4881082E0,7.7507514E-1,-4.977074E0,-5.7803032E1,2.870024E-1,-3.257534E0],"categories":[],"categories_nodes":[],"categories_segments":[],"categories_sizes":[],"default_left":[0,0,0,0,0,0,0,0,0,0,0,0,0,0,0,0,0,0,0,0,0,0,0,0,0],"id":31,"left_children":[1,3,5,7,9,11,-1,13,-1,-1,15,17,-1,-1,-1,19,21,-1,-1,-1,-1,-1,23,-1,-1],"loss_changes":[6.9436255E6,8.718785E5,8.60383E5,1.5640875E5,2.6311844E5,4.953665E5,0E0,2.4731906E4,0E0,0E0,1.03332875E5,1.1805875E5,0E0,0E0,0E0,7.101954E4,6.6362625E4,0E0,0E0,0E0,0E0,0E0,7.71164E4,0E0,0E0],"parents":[2147483647,0,0,1,1,2,2,3,3,4,4,5,5,7,7,10,10,11,11,15,15,16,16,22,22],"right_children":[2,4,6,8,10,12,-1,14,-1,-1,16,18,-1,-1,-1,20,22,-1,-1,-1,-1,-1,24,-1,-1],"split_conditions":[1.162E3,3E0,7.43E1,4E0,7.5E0,6.641E3,-4.7627E-1,9.25E1,-1.0712926E1,1.7971066E0,1.34E2,4.21646E3,1.5178646E1,-5.792884E0,-1.920817E0,2.612359E3,5.8556576E1,7.9174666E0,2.33101E0,-2.4881082E0,7.7507514E-1,-4.977074E0,4.13762E3,2.870024E-1,-3.257534E0],"split_indices":[24,16,3,7,16,0,0,2,0,0,12,17,0,0,0,22,25,0,0,0,0,0,17,0,0],"split_type":[0,0,0,0,0,0,0,0,0,0,0,0,0,0,0,0,0,0,0,0,0,0,0,0,0],"sum_hessian":[2.26E2,1.53E2,7.3E1,4.6E1,1.07E2,6.2E1,1.1E1,2.2E1,2.4E1,1.3E1,9.4E1,4.3E1,1.9E1,1.1E1,1.1E1,2.7E1,6.7E1,3.1E1,1.2E1,1.4E1,1.3E1,3.7E1,3E1,1.1E1,1.9E1],"tree_param":{"num_deleted":"0","num_feature":"27","num_nodes":"25","size_leaf_vector":"1"}},{"base_weights":[-3.5718007E0,-1.3168777E2,2.2133705E2,-1.0710856E1,-9.1955986E1,1.2772344E2,3.113819E2,-1.1202014E2,6.288363E-1,-1.7532736E0,1.8369464E2,4.373814E0,1.5498683E1,-1.2418121E2,-1.17062375E-1,8.254075E0,1.8127002E0,-1.3823773E2,-1.4726478E0,-1.514945E2,-1.8158607E0,-1.6146419E2,-2.506879E0,-2.8679092E0,-6.419081E0],"categories":[],"categories_nodes":[],"categories_segments":[],"categories_sizes":[],"default_left":[0,0,0,0,0,0,0,0,0,0,0,0,0,0,0,0,0,1,0,0,0,0,0,0,0],"id":32,"left_children":[1,3,5,-1,7,9,11,13,-1,-1,15,-1,-1,17,-1,-1,-1,19,-1,21,-1,23,-1,-1,-1],"loss_changes":[6.7357275E6,8.3517825E5,5.20726E5,0E0,2.8793525E5,5.3494875E5,6.303685E5,1.403525E5,0E0,0E0,1.7223012E5,0E0,0E0,8.593575E4,0E0,0E0,0E0,5.7005125E4,0E0,7.5775E2,0E0,4.13325E3,0E0,0E0,0E0],"parents":[2147483647,0,0,1,1,2,2,4,4,5,5,6,6,7,7,10,10,13,13,17,17,19,19,21,21],"right_children":[2,4,6,-1,8,10,12,14,-1,-1,16,-1,-1,18,-1,-1,-1,20,-1,22,-1,24,-1,-1,-1],"split_conditions":[2.416096E3,1.165E3,3.136361E3,-1.0710856E1,2.098973E3,1.162E3,6.63E3,6.4621414E1,6.288363E-1,-1.7532736E0,6.105066E3,4.373814E0,1.5498683E1,9.99E1,-1.17062375E-1,8.254075E0,1.8127002E0,4.3E1,-1.4726478E0,6.3137478E1,-1.8158607E0,4.7384167E1,-2.506879E0,-2.8679092E0,-6.419081E0],"split_indices":[23,0,23,0,23,24,0,25,0,0,22,0,0,4,0,0,0,12,0,25,0,25,0,0,0],"split_type":[0,0,0,0,0,0,0,0,0,0,0,0,0,0,0,0,0,0,0,0,0,0,0,0,0],"sum_hessian":[2.24E2,1.44E2,8E1,2.2E1,1.22E2,4.5E1,3.5E1,1.03E2,1.9E1,1.1E1,3.4E1,1.7E1,1.8E1,9.2E1,1.1E1,2.3E1,1.1E1,7.6E1,1.6E1,6.3E1,1.3E1,5.2E1,1.1E1,1.3E1,3.9E1],"tree_param":{"num_deleted":"0","num_feature":"27","num_nodes":"25","size_leaf_vector":"1"}},{"base_weights":[6.853655E0,-1.4004976E2,2.0200198E2,-1.0471207E1,-9.433591E1,9.55759E1,3.272341E2,-1.07534195E2,-4.879032E-1,-2.0900401E-1,1.4594392E2,4.843407E0,1.5048249E1,-1.2001211E2,-3.620088E-1,2.3018348E0,7.1515317E0,-6.887217E0,-9.1936455E1,-1.0380056E2,-1.2401085E0,-1.3281003E0,-1.2074063E2,-4.935768E0,-1.9786376E0],"categories":[],"categories_nodes":[],"categories_segments":[],"categories_sizes":[],"default_left":[0,0,0,0,0,0,0,0,0,0,0,0,0,0,0,0,0,0,0,0,0,0,0,0,0],"id":33,"left_children":[1,3,5,-1,7,9,11,13,-1,-1,15,-1,-1,17,-1,-1,-1,-1,19,21,-1,-1,23,-1,-1],"loss_changes":[6.6698515E6,7.6991675E5,1.1776458E6,0E0,1.0879425E5,3.1516356E5,4.747285E5,1.0680075E5,0E0,0E0,1.1119119E5,0E0,0E0,7.50275E4,0E0,0E0,0E0,0E0,2.8800625E4,3.9305812E4,0E0,0E0,4.928E3,0E0,0E0],"parents":[2147483647,0,0,1,1,2,2,4,4,5,5,6,6,7,7,10,10,13,13,18,18,19,19,22,22],"right_children":[2,4,6,-1,8,10,12,14,-1,-1,16,-1,-1,18,-1,-1,-1,-1,20,22,-1,-1,24,-1,-1],"split_conditions":[4.389582E3,1.165E3,3.054355E3,-1.0471207E1,3.27E1,1.162E3,7.2E-1,5.42E1,-4.879032E-1,-2.0900401E-1,9.99E1,4.843407E0,1.5048249E1,3.84184E3,-3.620088E-1,2.3018348E0,7.1515317E0,-6.887217E0,2.755E3,7.6E-1,-1.2401085E0,-1.3281003E0,9.2E1,-4.935768E0,-1.9786376E0],"split_indices":[22,0,23,0,8,24,18,9,0,0,4,0,0,17,0,0,0,0,0,18,0,0,1,0,0],"split_type":[0,0,0,0,0,0,0,0,0,0,0,0,0,0,0,0,0,0,0,0,0,0,0,0,0],"sum_hessian":[2.23E2,1.28E2,9.5E1,2.4E1,1.04E2,5.6E1,3.9E1,8.8E1,1.6E1,2E1,3.6E1,1.6E1,2.3E1,7.7E1,1.1E1,1.8E1,1.8E1,1.4E1,6.3E1,4.9E1,1.4E1,1.3E1,3.6E1,2.5E1,1.1E1],"tree_param":{"num_deleted":"0","num_feature":"27","num_nodes":"25","size_leaf_vector":"1"}},{"base_weights":[-8.042056E0,-1.11326385E2,2.0724811E2,-1.4219337E2,2.4869282E0,2.4770215E2,-2.8748024E-1,-1.0398442E2,-8.118589E0,-3.1582918E0,4.354959E0,1.729413E2,1.4885129E1,-1.1503025E2,-9.024286E-1,7.93073E1,8.234289E0,-4.6476774E0,-1.5384941E0,2.314843E-1,4.631358E0],"categories":[],"categories_nodes":[],"categories_segments":[],"categories_sizes":[],"default_left":[0,0,0,0,0,0,0,0,0,0,0,0,0,0,0,1,0,0,0,0,0],"id":34,"left_children":[1,3,5,7,9,11,-1,13,-1,-1,-1,15,-1,17,-1,19,-1,-1,-1,-1,-1],"loss_changes":[5.2674025E6,5.6374725E5,6.793225E5,2.7887325E5,4.604547E5,4.42867E5,0E0,6.8528E4,0E0,0E0,0E0,1.7964225E5,0E0,5.1233E4,0E0,9.047291E4,0E0,0E0,0E0,0E0,0E0],"parents":[2147483647,0,0,1,1,2,2,3,3,4,4,5,5,7,7,11,11,13,13,15,15],"right_children":[2,4,6,8,10,12,-1,14,-1,-1,-1,16,-1,18,-1,20,-1,-1,-1,-1,-1],"split_conditions":[1.152E3,3.941E3,7.43E1,4E0,7.43E1,4.147796E3,-2.8748024E-1,6.63E1,-8.118589E0,-3.1582918E0,4.354959E0,9.4E-1,1.4885129E1,9.92E1,-9.024286E-1,2E1,8.234289E0,-4.6476774E0,-1.5384941E0,2.314843E-1,4.631358E0],"split_indices":[24,0,3,7,3,23,0,6,0,0,0,18,0,2,0,15,0,0,0,0,0],"split_type":[0,0,0,0,0,0,0,0,0,0,0,0,0,0,0,0,0,0,0,0,0],"sum_hessian":[2.27E2,1.55E2,7.2E1,1.21E2,3.4E1,6E1,1.2E1,9E1,3.1E1,2E1,1.4E1,4.8E1,1.2E1,7.7E1,1.3E1,2.2E1,2.6E1,6.2E1,1.5E1,1.1E1,1.1E1],"tree_param":{"num_deleted":"0","num_feature":"27","num_nodes":"21","size_leaf_vector":"1"}},{"base_weights":[5.759816E0,-1.3477202E2,1.984756E2,-8.443861E0,-7.949931E1,-1.6364126E0,2.3041653E2,-3.219607E1,-1.20891266E2,3.5308337E2,1.6351595E2,-6.0999935E1,8.944913E-1,-4.9854984E0,-1.7605702E0,6.122114E0,1.5389192E1,2.0152473E2,-8.214909E-1,-2.8761587E0,-4.853651E-1,2.483726E2,6.7461675E-1,1.2978926E1,5.631591E0],"categories":[],"categories_nodes":[],"categories_segments":[],"categories_sizes":[],"default_left":[0,0,0,0,0,0,0,0,0,0,0,0,0,0,0,0,0,0,0,0,0,0,0,0,0],"id":35,"left_children":[1,3,5,-1,7,-1,9,11,13,15,17,19,-1,-1,-1,-1,-1,21,-1,-1,-1,23,-1,-1,-1],"loss_changes":[6.5449E6,6.6756875E5,8.4366925E5,0E0,1.7025875E5,0E0,4.635355E5,9.236741E4,2.6898188E4,1.62445E4,5.029195E5,2.5842234E4,0E0,0E0,0E0,0E0,0E0,4.6395E5,0E0,0E0,0E0,1.8574225E5,0E0,0E0,0E0],"parents":[2147483647,0,0,1,1,2,2,4,4,6,6,7,7,8,8,9,9,10,10,11,11,17,17,21,21],"right_children":[2,4,6,-1,8,-1,10,12,14,16,18,20,-1,-1,-1,-1,-1,22,-1,-1,-1,24,-1,-1,-1],"split_conditions":[9.55E2,3E0,9.95E1,-8.443861E0,4.15159E3,-1.6364126E0,3.82898E3,2.972E3,6.3137478E1,3.72E2,3.5E1,4E0,8.944913E-1,-4.9854984E0,-1.7605702E0,6.122114E0,1.5389192E1,9.75E0,-8.214909E-1,-2.8761587E0,-4.853651E-1,9.99E1,6.7461675E-1,1.2978926E1,5.631591E0],"split_indices":[24,16,2,0,17,0,17,0,25,13,15,19,0,0,0,0,0,16,0,0,0,4,0,0,0],"split_type":[0,0,0,0,0,0,0,0,0,0,0,0,0,0,0,0,0,0,0,0,0,0,0,0,0],"sum_hessian":[2.32E2,1.35E2,9.7E1,4.3E1,9.2E1,1.1E1,8.6E1,4.7E1,4.5E1,2.3E1,6.3E1,3.1E1,1.6E1,3.3E1,1.2E1,1.1E1,1.2E1,5.2E1,1.1E1,2E1,1.1E1,4E1,1.2E1,1.2E1,2.8E1],"tree_param":{"num_deleted":"0","num_feature":"27","num_nodes":"25","size_leaf_vector":"1"}},{"base_weights":[1.0485384E1,-1.3352266E2,1.8638977E2,-8.618116E0,-8.178089E1,-1.023324E0,2.2572658E2,-1.088488E2,-4.408389E1,2.573328E2,4.5851296E-1,-4.8004217E0,-5.302719E-1,-7.170263E1,6.0527384E-1,1.6572664E2,3.3519293E2,-3.138577E0,-1.256756E0,2.2601767E0,7.832537E0,5.3931217E0,1.42725E1],"categories":[],"categories_nodes":[],"categories_segments":[],"categories_sizes":[],"default_left":[0,0,0,0,0,0,0,0,0,0,0,0,0,0,0,0,0,0,0,0,0,0,0],"id":36,"left_children":[1,3,5,-1,7,-1,9,11,13,15,-1,-1,-1,17,-1,19,21,-1,-1,-1,-1,-1,-1],"loss_changes":[6.0197445E6,6.0991125E5,9.336875E5,0E0,7.3002375E4,0E0,5.952455E5,1.0521356E5,8.63219E4,2.910235E5,0E0,0E0,0E0,3.6836875E3,0E0,1.7220462E5,1.26466E5,0E0,0E0,0E0,0E0,0E0,0E0],"parents":[2147483647,0,0,1,1,2,2,4,4,6,6,7,7,8,8,9,9,13,13,15,15,16,16],"right_children":[2,4,6,-1,8,-1,10,12,14,16,-1,-1,-1,18,-1,20,22,-1,-1,-1,-1,-1,-1],"split_conditions":[2.000775E3,3.85102E3,9.95E1,-8.618116E0,9.06E1,-1.023324E0,1E2,8.12E1,2.567783E3,3.023968E3,4.5851296E-1,-4.8004217E0,-5.302719E-1,7.95E1,6.0527384E-1,9.99E1,6.154077E3,-3.138577E0,-1.256756E0,2.2601767E0,7.832537E0,5.3931217E0,1.42725E1],"split_indices":[23,17,2,0,1,0,5,3,22,23,0,0,0,3,0,4,22,0,0,0,0,0,0],"split_type":[0,0,0,0,0,0,0,0,0,0,0,0,0,0,0,0,0,0,0,0,0,0,0],"sum_hessian":[2.28E2,1.26E2,1.02E2,3.6E1,9E1,1.6E1,8.6E1,4.7E1,4.3E1,7.4E1,1.2E1,3.6E1,1.1E1,2.9E1,1.4E1,4.1E1,3.3E1,1.6E1,1.3E1,1.7E1,2.4E1,1.2E1,2.1E1],"tree_param":{"num_deleted":"0","num_feature":"27","num_nodes":"23","size_leaf_vector":"1"}},{"base_weights":[-3.8592014E0,2.2562585E2,-1.0342368E2,2.645008E2,4.3591213E-1,-7.516511E1,-1.0352242E1,1.5889746E2,1.4785581E1,2.3561249E0,-9.246335E1,2.5706677E0,1.8262257E2,-1.0524371E2,6.373084E-1,2.7826135E0,8.137607E0,-1.2031891E2,-4.7903034E1,-1.3169632E2,-9.415314E-1,-3.4203753E0,-1.2418852E-1,-5.8265295E0,-8.482598E1,-1.2026587E0,-4.041401E0],"categories":[],"categories_nodes":[],"categories_segments":[],"categories_sizes":[],"default_left":[0,0,0,0,0,0,0,0,0,0,0,0,0,0,0,0,0,0,0,0,0,0,0,0,0,0,0],"id":37,"left_children":[1,3,5,7,-1,9,-1,11,-1,-1,13,-1,15,17,-1,-1,-1,19,21,23,-1,-1,-1,-1,25,-1,-1],"loss_changes":[5.27351E6,5.6377425E5,7.22379E5,5.7414E5,0E0,3.8288544E5,0E0,2.369275E4,0E0,0E0,1.9470125E5,0E0,4.758375E4,7.4218125E4,0E0,0E0,0E0,8.0426125E4,6.598663E4,4.1577125E4,0E0,0E0,0E0,0E0,3.7811125E4,0E0,0E0],"parents":[2147483647,0,0,1,1,2,2,3,3,5,5,7,7,10,10,12,12,13,13,17,17,18,18,19,19,24,24],"right_children":[2,4,6,8,-1,10,-1,12,-1,-1,14,-1,16,18,-1,-1,-1,20,22,24,-1,-1,-1,-1,26,-1,-1],"split_conditions":[1.98E2,3.0978024E0,9E0,6.63E3,4.3591213E-1,4.398632E1,-1.0352242E1,3.6E1,1.4785581E1,2.3561249E0,5.461E3,2.5706677E0,5.35E1,9.26E1,6.373084E-1,2.7826135E0,8.137607E0,5.4E1,3.91649E3,4.05095E3,-9.415314E-1,-3.4203753E0,-1.2418852E-1,-5.8265295E0,4.39299E3,-1.2026587E0,-4.041401E0],"split_indices":[15,26,7,0,0,25,0,8,0,0,0,0,3,1,0,0,0,9,17,17,0,0,0,0,17,0,0],"split_type":[0,0,0,0,0,0,0,0,0,0,0,0,0,0,0,0,0,0,0,0,0,0,0,0,0,0,0],"sum_hessian":[2.21E2,6.5E1,1.56E2,5.4E1,1.1E1,1.41E2,1.5E1,3.7E1,1.7E1,1.4E1,1.27E2,1.2E1,2.5E1,1.14E2,1.3E1,1.1E1,1.4E1,8.6E1,2.8E1,7.5E1,1.1E1,1.1E1,1.7E1,3.9E1,3.6E1,1.6E1,2E1],"tree_param":{"num_deleted":"0","num_feature":"27","num_nodes":"27","size_leaf_vector":"1"}},{"base_weights":[3.9878314E0,-9.600055E1,2.1044266E2,-8.60983E0,-6.353651E1,7.507749E1,2.5802338E2,-8.164499E1,1.08331175E1,4.3901825E0,2.1292244E-1,3.8920112E0,1.1719364E1,-1.13527885E2,-2.8751387E1,3.3380992E0,-3.0084467E0,-1.3092061E2,-6.2682253E-1,-5.26176E1,1.0918201E0,-6.4274163E0,-7.819912E1,-2.6552103E0,-5.439101E-1,-4.2268515E0,-1.2013979E0],"categories":[],"categories_nodes":[],"categories_segments":[],"categories_sizes":[],"default_left":[0,0,0,0,0,0,0,0,0,0,0,0,0,0,0,0,0,0,0,0,0,0,0,0,0,0,0],"id":38,"left_children":[1,3,5,-1,7,9,11,13,15,-1,-1,-1,-1,17,19,-1,-1,21,-1,23,-1,-1,25,-1,-1,-1,-1],"loss_changes":[4.8641225E6,6.553356E5,3.998765E5,0E0,1.8748081E5,8.166484E4,3.691035E5,1.6896325E5,2.7229775E5,0E0,0E0,0E0,0E0,1.0045275E5,7.50027E4,0E0,0E0,6.836631E4,0E0,2.2194688E4,0E0,0E0,4.1056734E4,0E0,0E0,0E0,0E0],"parents":[2147483647,0,0,1,1,2,2,4,4,5,5,6,6,7,7,8,8,13,13,14,14,17,17,19,19,22,22],"right_children":[2,4,6,-1,8,10,12,14,16,-1,-1,-1,-1,18,20,-1,-1,22,-1,24,-1,-1,26,-1,-1,-1,-1],"split_conditions":[1.162E3,1.340215E3,5.235E3,-8.60983E0,2.17281E3,3.86749E3,5.67E1,9.09E1,4.1151E3,4.3901825E0,2.1292244E-1,3.8920112E0,1.1719364E1,5.42E1,2.614479E3,3.3380992E0,-3.0084467E0,2E0,-6.2682253E-1,7.95E1,1.0918201E0,-6.4274163E0,3.85904E3,-2.6552103E0,-5.439101E-1,-4.2268515E0,-1.2013979E0],"split_indices":[24,22,0,0,23,17,3,1,17,0,0,0,0,9,22,0,0,7,0,3,0,0,17,0,0,0,0],"split_type":[0,0,0,0,0,0,0,0,0,0,0,0,0,0,0,0,0,0,0,0,0,0,0,0,0,0,0],"sum_hessian":[2.26E2,1.54E2,7.2E1,2.3E1,1.31E2,2.2E1,5E1,1.05E2,2.6E1,1.1E1,1.1E1,1.9E1,3.1E1,6.2E1,4.3E1,1.4E1,1.2E1,5.1E1,1.1E1,3.1E1,1.2E1,2.1E1,3E1,1.7E1,1.4E1,1.2E1,1.8E1],"tree_param":{"num_deleted":"0","num_feature":"27","num_nodes":"27","size_leaf_vector":"1"}},{"base_weights":[1.0642314E0,-1.214715E2,1.9493565E2,-8.388656E0,-8.6521194E1,-1.2311078E0,2.308153E2,-9.9456314E1,7.392356E-2,1.7113593E2,1.3580802E1,-1.0881706E2,-1.0249567E0,5.796037E1,2.4017639E2,-1.2580239E2,-1.7027286E0,4.1247087E0,-9.4117934E-1,4.002652E0,1.0192706E1,-1.9737433E0,-4.92295E0],"categories":[],"categories_nodes":[],"categories_segments":[],"categories_sizes":[],"default_left":[0,0,0,0,0,0,0,0,0,0,0,0,0,0,0,0,0,0,0,0,0,0,0],"id":39,"left_children":[1,3,5,-1,7,-1,9,11,-1,13,-1,15,-1,17,19,21,-1,-1,-1,-1,-1,-1,-1],"loss_changes":[5.2669795E6,4.2357725E5,7.4380025E5,0E0,1.28281125E5,0E0,3.2911725E5,4.917025E4,0E0,4.1478112E5,0E0,5.8861062E4,0E0,1.54445E5,4.388225E4,8.2558125E3,0E0,0E0,0E0,0E0,0E0,0E0,0E0],"parents":[2147483647,0,0,1,1,2,2,4,4,6,6,7,7,9,9,11,11,13,13,14,14,15,15],"right_children":[2,4,6,-1,8,-1,10,12,-1,14,-1,16,-1,18,20,22,-1,-1,-1,-1,-1,-1,-1],"split_conditions":[9.55E2,2.83E2,9.95E1,-8.388656E0,4.998E3,-1.2311078E0,2.98E0,5.42E1,7.392356E-2,5.614E3,1.3580802E1,9.2E1,-1.0249567E0,4.1095E3,4.73E1,8.55E1,-1.7027286E0,4.1247087E0,-9.4117934E-1,4.002652E0,1.0192706E1,-1.9737433E0,-4.92295E0],"split_indices":[24,24,2,0,0,0,18,9,0,0,0,1,0,17,6,2,0,0,0,0,0,0,0],"split_type":[0,0,0,0,0,0,0,0,0,0,0,0,0,0,0,0,0,0,0,0,0,0,0],"sum_hessian":[2.12E2,1.31E2,8.1E1,2.5E1,1.06E2,1.1E1,7E1,9.2E1,1.4E1,5.7E1,1.3E1,7.9E1,1.3E1,2.5E1,3.2E1,5.8E1,2.1E1,1.4E1,1.1E1,1.2E1,2E1,1.1E1,4.7E1],"tree_param":{"num_deleted":"0","num_feature":"27","num_nodes":"23","size_leaf_vector":"1"}},{"base_weights":[-1.8036123E1,-1.0006207E2,1.9176266E2,-8.105608E0,-7.3419075E1,-4.3707454E-1,2.345359E2,-9.069286E1,9.978023E0,4.158006E0,2.7461575E2,-1.11757195E2,-4.8033157E1,3.9499252E0,-3.3239172E0,5.4784265E0,1.322465E1,-1.3336487E2,-5.4006447E1,-6.9754814E1,6.153189E-1,-8.8812E1,-6.0707483E0,-3.382556E-2,-3.3113859E0,-1.4670814E0,-3.253562E0,-3.739027E0,-1.5111015E0],"categories":[],"categories_nodes":[],"categories_segments":[],"categories_sizes":[],"default_left":[1,0,0,0,0,0,0,0,0,0,0,0,0,0,0,0,0,0,0,0,0,0,0,0,0,0,0,0,0],"id":40,"left_children":[1,3,5,-1,7,-1,9,11,13,-1,15,17,19,-1,-1,-1,-1,21,23,25,-1,27,-1,-1,-1,-1,-1,-1,-1],"loss_changes":[3.9624988E6,4.6178112E5,5.7985825E5,0E0,2.1044725E5,0E0,1.04507E5,8.022831E4,3.3889406E5,0E0,1.40981E5,5.9084812E4,7.3491445E4,0E0,0E0,0E0,0E0,5.6811875E3,5.6464742E4,3.5262031E3,0E0,8.366719E2,0E0,0E0,0E0,0E0,0E0,0E0,0E0],"parents":[2147483647,0,0,1,1,2,2,4,4,6,6,7,7,8,8,10,10,11,11,12,12,17,17,18,18,19,19,21,21],"right_children":[2,4,6,-1,8,-1,10,12,14,-1,16,18,20,-1,-1,-1,-1,22,24,26,-1,28,-1,-1,-1,-1,-1,-1,-1],"split_conditions":[2E0,2.83E2,4.7597553E1,-8.105608E0,4.998E3,-4.3707454E-1,5.69E1,9.07E1,3.99353E3,4.158006E0,6.63E3,2.35E0,9.98E1,3.9499252E0,-3.3239172E0,5.4784265E0,1.322465E1,3E0,2.5E0,1.54E0,6.153189E-1,4E0,-6.0707483E0,-3.382556E-2,-3.3113859E0,-1.4670814E0,-3.253562E0,-3.739027E0,-1.5111015E0],"split_indices":[15,24,25,0,0,0,3,1,17,0,0,18,4,0,0,0,0,9,8,18,0,19,0,0,0,0,0,0,0],"split_type":[0,0,0,0,0,0,0,0,0,0,0,0,0,0,0,0,0,0,0,0,0,0,0,0,0,0,0,0,0],"sum_hessian":[2.2E2,1.6E2,6E1,2.2E1,1.38E2,1.1E1,4.9E1,1.14E2,2.4E1,1.7E1,3.2E1,7.1E1,4.3E1,1.2E1,1.2E1,1.9E1,1.3E1,4.7E1,2.4E1,3.2E1,1.1E1,2.8E1,1.9E1,1.2E1,1.2E1,1.9E1,1.3E1,1.7E1,1.1E1],"tree_param":{"num_deleted":"0","num_feature":"27","num_nodes":"29","size_leaf_vector":"1"}},{"base_weights":[-1.3605737E1,-1.07397995E2,1.7985274E2,-7.8874164E0,-8.2752014E1,6.475979E-1,2.3149538E2,-9.132488E1,3.7854293E-1,4.1959934E0,2.7771994E2,-1.1392639E2,-3.975919E1,5.345251E0,1.2028245E1,-1.2512666E2,-1.9466944E0,4.2278857E0,-4.512723E0,-5.0275736E0,-2.2541702E0,-2.427365E0,1.8421401E0],"categories":[],"categories_nodes":[],"categories_segments":[],"categories_sizes":[],"default_left":[0,0,0,0,0,0,0,0,0,0,0,0,0,0,0,0,0,0,0,0,0,0,0],"id":41,"left_children":[1,3,5,-1,7,-1,9,11,-1,-1,13,15,17,-1,-1,19,-1,21,-1,-1,-1,-1,-1],"loss_changes":[4.264362E6,3.4013488E5,6.22102E5,0E0,1.1422431E5,0E0,1.522425E5,1.2419775E5,0E0,0E0,2.741825E4,2.405275E4,1.7379844E5,0E0,0E0,1.5329375E4,0E0,1.3204444E5,0E0,0E0,0E0,0E0,0E0],"parents":[2147483647,0,0,1,1,2,2,4,4,6,6,7,7,10,10,11,11,12,12,15,15,17,17],"right_children":[2,4,6,-1,8,-1,10,12,-1,-1,14,16,18,-1,-1,20,-1,22,-1,-1,-1,-1,-1],"split_conditions":[1.152E3,1.165E3,2E0,-7.8874164E0,6.474809E1,6.475979E-1,1.01E2,3.321E3,3.7854293E-1,4.1959934E0,5.7E1,6.3137478E1,4.16633E3,5.345251E0,1.2028245E1,9.19E1,-1.9466944E0,2.5E0,-4.512723E0,-5.0275736E0,-2.2541702E0,-2.427365E0,1.8421401E0],"split_indices":[24,0,19,0,25,0,13,0,0,0,3,25,17,0,0,1,0,8,0,0,0,0,0],"split_type":[0,0,0,0,0,0,0,0,0,0,0,0,0,0,0,0,0,0,0,0,0,0,0],"sum_hessian":[2.25E2,1.53E2,7.2E1,2.1E1,1.32E2,1.9E1,5.3E1,1.21E2,1.1E1,2E1,3.3E1,8E1,4.1E1,1.5E1,1.8E1,6.3E1,1.7E1,3E1,1.1E1,4.7E1,1.6E1,1.1E1,1.9E1],"tree_param":{"num_deleted":"0","num_feature":"27","num_nodes":"23","size_leaf_vector":"1"}},{"base_weights":[3.17976E0,1.8733063E2,-7.990034E1,2.1597757E0,2.2934341E2,-1.7611296E2,-3.969279E1,1.4575543E2,1.1873833E1,-7.362054E0,-2.2133958E0,6.689596E1,-7.202615E1,9.738672E-1,7.0977836E0,-1.9849118E0,5.359752E0,-1.0529402E2,-3.522642E1,-1.686521E0,-1.1662017E2,-6.1303318E1,6.855653E-1,-1.8350282E0,-5.1539288E0,-2.9821289E0,-9.400863E-1],"categories":[],"categories_nodes":[],"categories_segments":[],"categories_sizes":[],"default_left":[0,0,0,0,0,0,0,0,0,0,0,0,0,0,0,0,0,0,0,0,0,0,0,0,0,0,0],"id":42,"left_children":[1,3,5,-1,7,9,11,13,-1,-1,-1,15,17,-1,-1,-1,-1,19,21,-1,23,25,-1,-1,-1,-1,-1],"loss_changes":[3.6356065E6,3.29171E5,5.9924675E5,0E0,2.0848775E5,8.420975E4,4.4339122E5,1.9885656E5,0E0,0E0,0E0,3.4339356E5,9.889616E4,0E0,0E0,0E0,0E0,4.997625E3,8.038191E4,0E0,2.6560875E4,1.6613234E4,0E0,0E0,0E0,0E0,0E0],"parents":[2147483647,0,0,1,1,2,2,4,4,5,5,6,6,7,7,11,11,12,12,17,17,18,18,20,20,21,21],"right_children":[2,4,6,-1,8,10,12,14,-1,-1,-1,16,18,-1,-1,-1,-1,20,22,-1,24,26,-1,-1,-1,-1,-1],"split_conditions":[1.98E2,4.86E1,3E0,2.1597757E0,6.63E3,2.451805E3,7.5E0,3.6E1,1.1873833E1,-7.362054E0,-2.2133958E0,3.2161722E-1,9.1E1,9.738672E-1,7.0977836E0,-1.9849118E0,5.359752E0,2.8685185E-1,2.612359E3,-1.686521E0,5.65E2,4.1E1,6.855653E-1,-1.8350282E0,-5.1539288E0,-2.9821289E0,-9.400863E-1],"split_indices":[15,6,16,0,0,22,16,8,0,0,0,26,1,0,0,0,0,26,22,0,24,13,0,0,0,0,0],"split_type":[0,0,0,0,0,0,0,0,0,0,0,0,0,0,0,0,0,0,0,0,0,0,0,0,0,0,0],"sum_hessian":[2.28E2,6.9E1,1.59E2,2E1,4.9E1,4.2E1,1.17E2,3.3E1,1.6E1,3.1E1,1.1E1,2.6E1,9.1E1,1.2E1,2.1E1,1.1E1,1.5E1,4.3E1,4.8E1,1.1E1,3.2E1,3.2E1,1.6E1,1.3E1,1.9E1,1.6E1,1.6E1],"tree_param":{"num_deleted":"0","num_feature":"27","num_nodes":"27","size_leaf_vector":"1"}},{"base_weights":[-3.6400025E0,-9.682493E1,1.5416946E2,-7.58965E1,-8.689467E0,1.9997777E2,2.2613233E-1,-9.161237E1,-1.2990835E1,1.6008373E0,2.4752638E2,-1.0831814E2,-4.5170143E1,-2.4897828E0,2.036039E0,2.9293242E0,1.2138464E1,-5.5595726E1,-4.899615E0,-2.2238333E0,-2.1012689E-1,-4.251612E0,7.334318E-1],"categories":[],"categories_nodes":[],"categories_segments":[],"categories_sizes":[],"default_left":[0,0,0,0,0,0,0,0,0,0,0,0,0,0,0,0,0,0,0,0,0,0,0],"id":43,"left_children":[1,3,5,7,-1,9,-1,11,13,-1,15,17,19,-1,-1,-1,-1,21,-1,-1,-1,-1,-1],"loss_changes":[3.3201575E6,3.347205E5,5.615634E5,1.2326025E5,0E0,4.1913675E5,0E0,5.6330062E4,1.4142947E5,0E0,5.63629E5,6.5922125E4,2.088743E4,0E0,0E0,0E0,0E0,1.6546967E5,0E0,0E0,0E0,0E0,0E0],"parents":[2147483647,0,0,1,1,2,2,3,3,5,5,7,7,8,8,10,10,11,11,12,12,17,17],"right_children":[2,4,6,8,-1,10,-1,12,14,-1,16,18,20,-1,-1,-1,-1,22,-1,-1,-1,-1,-1],"split_conditions":[2.416096E3,1E1,9.75E0,3.941E3,-8.689467E0,5.411E3,2.2613233E-1,1.3E1,3.5657734E-1,1.6008373E0,3.042933E3,2.5E0,1.236637E3,-2.4897828E0,2.036039E0,2.9293242E0,1.2138464E1,1.491E3,-4.899615E0,-2.2238333E0,-2.1012689E-1,-4.251612E0,7.334318E-1],"split_indices":[23,7,16,0,0,0,0,16,26,0,23,8,23,0,0,0,0,0,0,0,0,0,0],"split_type":[0,0,0,0,0,0,0,0,0,0,0,0,0,0,0,0,0,0,0,0,0,0,0],"sum_hessian":[2.16E2,1.37E2,7.9E1,1.26E2,1.1E1,5.9E1,2E1,9.9E1,2.7E1,1.6E1,4.3E1,6.8E1,3.1E1,1.5E1,1.2E1,1.8E1,2.5E1,2.8E1,4E1,2E1,1.1E1,1.4E1,1.4E1],"tree_param":{"num_deleted":"0","num_feature":"27","num_nodes":"23","size_leaf_vector":"1"}},{"base_weights":[5.2052574E0,-8.064041E1,2.0417928E2,2.7891123E0,-1.02028595E2,2.3784537E2,6.7446077E-1,-1.644909E2,-6.5107506E1,2.2407541E0,2.8210056E2,-3.0679142E0,-7.260388E0,-8.658527E1,7.2146664E0,1.1672796E1,5.223128E0,-1.12778046E2,-3.5538673E1,1.697178E0,-1.2470086E0,-2.1125724E0,-4.7558713E0,-2.622283E0,3.711761E-1],"categories":[],"categories_nodes":[],"categories_segments":[],"categories_sizes":[],"default_left":[1,0,0,0,0,0,0,0,0,0,0,0,0,0,0,0,0,0,0,0,0,0,0,0,0],"id":44,"left_children":[1,3,5,-1,7,9,-1,11,13,-1,15,-1,-1,17,19,-1,-1,21,23,-1,-1,-1,-1,-1,-1],"loss_changes":[3.9041052E6,5.7694075E5,4.07905E5,0E0,2.7671138E5,3.6499025E5,0E0,5.91975E4,1.5528731E5,0E0,1.99775E4,0E0,0E0,8.1492E4,5.2108582E4,0E0,0E0,1.0264375E4,5.912215E4,0E0,0E0,0E0,0E0,0E0,0E0],"parents":[2147483647,0,0,1,1,2,2,4,4,5,5,7,7,8,8,10,10,13,13,14,14,17,17,18,18],"right_children":[2,4,6,-1,8,10,-1,12,14,-1,16,-1,-1,18,20,-1,-1,22,24,-1,-1,-1,-1,-1,-1],"split_conditions":[2E0,4.481547E1,3.0978024E0,2.7891123E0,3.85904E3,5.282E3,6.7446077E-1,3E0,9.29E1,2.2407541E0,1E2,-3.0679142E0,-7.260388E0,1E2,7.78E2,1.1672796E1,5.223128E0,5.13E2,7.82E1,1.697178E0,-1.2470086E0,-2.1125724E0,-4.7558713E0,-2.622283E0,3.711761E-1],"split_indices":[15,25,26,0,17,0,0,7,1,0,4,0,0,5,24,0,0,24,3,0,0,0,0,0,0],"split_type":[0,0,0,0,0,0,0,0,0,0,0,0,0,0,0,0,0,0,0,0,0,0,0,0,0],"sum_hessian":[2.19E2,1.55E2,6.4E1,1.7E1,1.38E2,5.3E1,1.1E1,4.5E1,9.3E1,1.3E1,4E1,1.9E1,2.6E1,7.1E1,2.2E1,2.6E1,1.4E1,4.3E1,2.8E1,1.1E1,1.1E1,1.6E1,2.7E1,1.4E1,1.4E1],"tree_param":{"num_deleted":"0","num_feature":"27","num_nodes":"25","size_leaf_vector":"1"}},{"base_weights":[7.1605244E0,-9.905247E1,1.4886746E2,-1.7253497E2,-5.616166E1,-2.4095697E0,1.9493741E2,-4.3280325E0,-8.569034E0,-1.4290187E1,-9.475469E1,1.0636718E2,2.7522476E2,-2.1897976E0,2.2011768E1,-1.0984818E2,-1.3396747E0,4.6509518E1,6.6384616E0,4.30764E0,1.1940368E1,2.1722393E0,-6.299358E-1,-1.4839743E0,-4.8648834E0,4.0184774E0,-2.0377522E0],"categories":[],"categories_nodes":[],"categories_segments":[],"categories_sizes":[],"default_left":[0,0,0,0,0,0,0,0,0,0,0,0,0,0,0,0,0,0,0,0,0,0,0,0,0,0,0],"id":45,"left_children":[1,3,5,7,9,-1,11,-1,-1,13,15,17,19,-1,21,23,-1,25,-1,-1,-1,-1,-1,-1,-1,-1,-1],"loss_changes":[3.441103E6,3.6464062E5,1.03409475E6,1.7393125E4,1.3828706E5,0E0,4.3868825E5,0E0,0E0,8.835514E4,1.9833719E4,1.7312262E5,1.4582125E5,0E0,5.1253547E4,2.954725E4,0E0,2.4752298E5,0E0,0E0,0E0,0E0,0E0,0E0,0E0,0E0,0E0],"parents":[2147483647,0,0,1,1,2,2,3,3,4,4,6,6,9,9,10,10,11,11,12,12,14,14,15,15,17,17],"right_children":[2,4,6,8,10,-1,12,-1,-1,14,16,18,20,-1,22,24,-1,26,-1,-1,-1,-1,-1,-1,-1,-1,-1],"split_conditions":[9.55E2,3.85904E3,9.95E1,9E0,4.1151E3,-2.4095697E0,3.054355E3,-4.3280325E0,-8.569034E0,3E0,6.3137478E1,2.31E0,9.9E1,-2.1897976E0,5.45E1,5.91E2,-1.3396747E0,3E1,6.6384616E0,4.30764E0,1.1940368E1,2.1722393E0,-6.299358E-1,-1.4839743E0,-4.8648834E0,4.0184774E0,-2.0377522E0],"split_indices":[24,17,2,7,17,0,23,0,0,19,25,18,13,0,6,24,0,15,0,0,0,0,0,0,0,0,0],"split_type":[0,0,0,0,0,0,0,0,0,0,0,0,0,0,0,0,0,0,0,0,0,0,0,0,0,0,0],"sum_hessian":[2.19E2,1.26E2,9.3E1,4.1E1,8.5E1,1.6E1,7.7E1,3E1,1.1E1,4.4E1,4.1E1,4.2E1,3.5E1,1.8E1,2.6E1,2.9E1,1.2E1,2.8E1,1.4E1,1.3E1,2.2E1,1.2E1,1.4E1,1.1E1,1.8E1,1.7E1,1.1E1],"tree_param":{"num_deleted":"0","num_feature":"27","num_nodes":"27","size_leaf_vector":"1"}},{"base_weights":[9.109517E0,-8.125414E1,1.8065987E2,-6.1606552E1,-8.169255E0,1.3619977E0,2.2392467E2,-7.0906075E1,4.9496704E-1,2.767286E0,2.6726913E2,-9.501308E1,-3.108172E1,4.3278594E0,1.2396406E1,-9.8169476E-1,-1.05347176E2,2.2523048E1,-7.499707E1,-2.0619006E0,-4.268955E0,-1.1906673E0,2.3832839E0,-3.2394693E0,-1.194642E0],"categories":[],"categories_nodes":[],"categories_segments":[],"categories_sizes":[],"default_left":[0,0,0,0,0,0,0,0,0,0,0,0,0,0,0,0,0,0,0,0,0,0,0,0,0],"id":46,"left_children":[1,3,5,7,-1,-1,9,11,-1,-1,13,15,17,-1,-1,-1,19,21,23,-1,-1,-1,-1,-1,-1],"loss_changes":[3.6813682E6,3.7282306E5,4.6509825E5,1.05562625E5,0E0,0E0,2.955725E5,1.0896925E5,0E0,0E0,3.06517E5,4.0390812E4,1.3986366E5,0E0,0E0,0E0,6.499E3,7.962529E4,4.5399375E3,0E0,0E0,0E0,0E0,0E0,0E0],"parents":[2147483647,0,0,1,1,2,2,3,3,6,6,7,7,10,10,11,11,12,12,16,16,17,17,18,18],"right_children":[2,4,6,8,-1,-1,10,12,-1,-1,14,16,18,-1,-1,-1,20,22,24,-1,-1,-1,-1,-1,-1],"split_conditions":[1.152E3,1E1,2E0,5.42E1,-8.169255E0,1.3619977E0,5.1E-1,9.07E1,4.9496704E-1,2.767286E0,5.59E1,4.481547E1,9.4E1,4.3278594E0,1.2396406E1,-9.8169476E-1,1.766344E3,2.243397E3,5.90987E1,-2.0619006E0,-4.268955E0,-1.1906673E0,2.3832839E0,-3.2394693E0,-1.194642E0],"split_indices":[24,7,19,9,0,0,18,1,0,0,3,25,1,0,0,0,22,22,25,0,0,0,0,0,0],"split_type":[0,0,0,0,0,0,0,0,0,0,0,0,0,0,0,0,0,0,0,0,0,0,0,0,0],"sum_hessian":[2.28E2,1.51E2,7.7E1,1.39E2,1.2E1,2E1,5.7E1,1.24E2,1.5E1,1.6E1,4.1E1,7.3E1,5.1E1,1.8E1,2.3E1,1.2E1,6.1E1,2.4E1,2.7E1,1.8E1,4.3E1,1.1E1,1.3E1,1.6E1,1.1E1],"tree_param":{"num_deleted":"0","num_feature":"27","num_nodes":"25","size_leaf_vector":"1"}},{"base_weights":[-4.487623E0,-1.0550424E2,1.2249759E2,-7.6089497E0,-7.542537E1,6.462297E1,9.8729105E0,-9.287689E1,-1.7721188E1,-1.7335186E0,9.4255775E1,-1.0757353E2,4.363034E-3,1.0992404E0,-1.881946E0,2.2891094E-1,1.3271152E2,-1.532025E0,-4.3088546E0,6.7451577E0,2.1194072E0],"categories":[],"categories_nodes":[],"categories_segments":[],"categories_sizes":[],"default_left":[0,0,0,0,0,0,0,0,0,0,0,0,0,0,0,0,0,0,0,0,0],"id":47,"left_children":[1,3,5,-1,7,9,-1,11,13,-1,15,17,-1,-1,-1,-1,19,-1,-1,-1,-1],"loss_changes":[2.9471242E6,3.235565E5,7.965755E5,0E0,9.9267625E4,2.8810662E5,0E0,1.1091094E5,5.8388086E4,0E0,2.1483738E5,2.652325E4,0E0,0E0,0E0,0E0,1.2403675E5,0E0,0E0,0E0,0E0],"parents":[2147483647,0,0,1,1,2,2,4,4,5,5,7,7,8,8,10,10,11,11,16,16],"right_children":[2,4,6,-1,8,10,-1,12,14,-1,16,18,-1,-1,-1,-1,20,-1,-1,-1,-1],"split_conditions":[2.098973E3,1.165E3,6.829188E3,-7.6089497E0,9.26E1,3.3E-1,9.8729105E0,5.32E1,7.29E2,-1.7335186E0,1.162E3,4.3E-1,4.363034E-3,1.0992404E0,-1.881946E0,2.2891094E-1,3.446693E-1,-1.532025E0,-4.3088546E0,6.7451577E0,2.1194072E0],"split_indices":[23,0,22,0,1,18,0,9,24,0,24,18,0,0,0,0,26,0,0,0,0],"split_type":[0,0,0,0,0,0,0,0,0,0,0,0,0,0,0,0,0,0,0,0,0],"sum_hessian":[2.2E2,1.23E2,9.7E1,2.1E1,1.02E2,7.5E1,2.2E1,7.6E1,2.6E1,1.5E1,6E1,6.5E1,1.1E1,1.1E1,1.5E1,2E1,4E1,1.3E1,5.2E1,1.9E1,2.1E1],"tree_param":{"num_deleted":"0","num_feature":"27","num_nodes":"21","size_leaf_vector":"1"}},{"base_weights":[2.8254695E0,-8.807922E1,1.2426971E2,-6.577234E0,-6.309826E1,-2.6617143E0,1.6299648E2,-9.849267E1,-3.90192E1,1.1358613E2,1.0850634E1,-4.3359437E0,-1.6186467E0,-5.618233E1,4.561122E-1,2.5018558E-1,1.4922307E2,2.3171821E-1,-7.330152E1,1.7097443E2,1.6641392E0,-3.3779008E0,-1.0022584E0,7.8744955E0,1.7987176E0],"categories":[],"categories_nodes":[],"categories_segments":[],"categories_sizes":[],"default_left":[0,0,0,0,0,0,0,0,0,0,0,0,0,0,0,0,0,0,0,0,0,0,0,0,0],"id":48,"left_children":[1,3,5,-1,7,-1,9,11,13,15,-1,-1,-1,17,-1,-1,19,-1,21,23,-1,-1,-1,-1,-1],"loss_changes":[2.6019248E6,2.5803988E5,8.305401E5,0E0,7.793778E4,0E0,4.1168925E5,2.2239375E4,7.074992E4,2.6390888E5,0E0,0E0,0E0,6.446264E4,0E0,0E0,7.999475E4,0E0,2.8703453E4,1.8158425E5,0E0,0E0,0E0,0E0,0E0],"parents":[2147483647,0,0,1,1,2,2,4,4,6,6,7,7,8,8,9,9,13,13,16,16,18,18,19,19],"right_children":[2,4,6,-1,8,-1,10,12,14,16,-1,-1,-1,18,-1,-1,20,-1,22,24,-1,-1,-1,-1,-1],"split_conditions":[9.55E2,2.8E2,9.95E1,-6.577234E0,9.2E-1,-2.6617143E0,3.01E0,4E0,9.26E1,4.7597553E1,1.0850634E1,-4.3359437E0,-1.6186467E0,4.26E2,4.561122E-1,2.5018558E-1,2.8E1,2.3171821E-1,6.8E2,1E2,1.6641392E0,-3.3779008E0,-1.0022584E0,7.8744955E0,1.7987176E0],"split_indices":[24,24,2,0,18,0,18,19,1,25,0,0,0,24,0,0,15,0,24,4,0,0,0,0,0],"split_type":[0,0,0,0,0,0,0,0,0,0,0,0,0,0,0,0,0,0,0,0,0,0,0,0,0],"sum_hessian":[2.26E2,1.3E2,9.6E1,2.1E1,1.09E2,1.5E1,8.1E1,3.8E1,7.1E1,6.6E1,1.5E1,2.3E1,1.5E1,5.3E1,1.8E1,1.8E1,4.8E1,1.2E1,4.1E1,3.7E1,1.1E1,2.5E1,1.6E1,2.4E1,1.3E1],"tree_param":{"num_deleted":"0","num_feature":"27","num_nodes":"25","size_leaf_vector":"1"}},{"base_weights":[6.083208E0,-8.565565E1,1.3178746E2,-6.41479E1,-7.7939034E0,5.55652E1,2.1891264E2,3.8108352E-1,-7.2419754E1,-1.696192E1,1.0511145E2,4.6737885E0,1.047619E1,-8.702541E1,-4.0133663E1,-3.4183424E0,2.3588762E0,6.66595E-1,7.342653E0,-1.3252854E0,-9.471152E1,1.5727999E0,-7.358235E1,-5.1468415E0,-6.1364346E1,-1.0405636E0,-3.8364336E0,-2.8000271E0,-3.081594E-1],"categories":[],"categories_nodes":[],"categories_segments":[],"categories_sizes":[],"default_left":[0,0,1,0,0,0,0,0,0,1,0,0,0,0,0,0,0,0,0,0,0,0,0,0,0,0,0,0,0],"id":49,"left_children":[1,3,5,7,-1,9,11,-1,13,15,17,-1,-1,19,21,-1,-1,-1,-1,-1,23,-1,25,-1,27,-1,-1,-1,-1],"loss_changes":[2.7864208E6,3.211022E5,6.164769E5,8.223425E4,0E0,2.2762662E5,1.067985E5,0E0,3.6797812E4,2.1290534E5,2.9258688E5,0E0,0E0,1.1812E4,1.4090748E5,0E0,0E0,0E0,0E0,0E0,5.4500875E4,0E0,3.3805516E4,0E0,3.416208E4,0E0,0E0,0E0,0E0],"parents":[2147483647,0,0,1,1,2,2,3,3,5,5,6,6,8,8,9,9,10,10,13,13,14,14,20,20,22,22,24,24],"right_children":[2,4,6,8,-1,10,12,-1,14,16,18,-1,-1,20,22,-1,-1,-1,-1,-1,24,-1,26,-1,28,-1,-1,-1,-1],"split_conditions":[2.187084E3,1E1,1.02E2,1E0,-7.7939034E0,3E0,6.269E3,3.8108352E-1,2.480951E3,5.7E1,7.36E1,4.6737885E0,1.047619E1,8.11229E2,2.406E3,-3.4183424E0,2.3588762E0,6.66595E-1,7.342653E0,-1.3252854E0,8.68E1,1.5727999E0,3E0,-5.1468415E0,8.84E1,-1.0405636E0,-3.8364336E0,-2.8000271E0,-3.081594E-1],"split_indices":[23,7,13,7,0,19,0,0,22,13,3,0,0,23,0,0,0,0,0,0,1,0,19,0,2,0,0,0,0],"split_type":[0,0,0,0,0,0,0,0,0,0,0,0,0,0,0,0,0,0,0,0,0,0,0,0,0,0,0,0,0],"sum_hessian":[2.32E2,1.35E2,9.7E1,1.22E2,1.3E1,5.6E1,4.1E1,1.2E1,1.1E2,2.4E1,3.2E1,2.4E1,1.7E1,7E1,4E1,1.2E1,1.2E1,2E1,1.2E1,1.3E1,5.7E1,1.1E1,2.9E1,1.7E1,4E1,1.6E1,1.3E1,2.9E1,1.1E1],"tree_param":{"num_deleted":"0","num_feature":"27","num_nodes":"29","size_leaf_vector":"1"}},{"base_weights":[-2.0387495E0,-6.633361E1,1.8471703E2,-4.4635334E1,-7.9855647E0,1.1506031E2,2.3354674E2,-7.1405495E1,1.7392872E1,5.585313E0,1.3794515E0,4.0525675E0,1.0325664E1,-5.7163284E1,-4.6790266E0,-3.566067E1,4.889423E0,-7.158324E1,-6.51648E0,-3.538802E0,8.3490527E-1,-1.0051913E0,-8.304431E1,-2.4073994E0,2.0001028E0,-9.1696014E1,-1.30185E0,-3.9898696E0,-1.8313853E0],"categories":[],"categories_nodes":[],"categories_segments":[],"categories_sizes":[],"default_left":[1,0,0,0,0,0,0,0,0,0,0,0,0,0,0,0,0,0,0,0,0,0,0,0,0,0,0,0,0],"id":50,"left_children":[1,3,5,7,-1,9,11,13,15,-1,-1,-1,-1,17,-1,19,-1,21,23,-1,-1,-1,25,-1,-1,27,-1,-1,-1],"loss_changes":[2.7591235E6,5.2203275E5,6.856175E4,2.6500503E5,0E0,7.259041E4,3.044375E4,5.3776188E4,3.4060934E5,0E0,0E0,0E0,0E0,6.822769E4,0E0,1.5241367E5,0E0,2.6098188E4,1.1703244E5,0E0,0E0,0E0,6.7945312E3,0E0,0E0,6.3936875E3,0E0,0E0,0E0],"parents":[2147483647,0,0,1,1,2,2,3,3,5,5,6,6,7,7,8,8,13,13,15,15,17,17,18,18,22,22,25,25],"right_children":[2,4,6,8,-1,10,12,14,16,-1,-1,-1,-1,18,-1,20,-1,22,24,-1,-1,-1,26,-1,-1,28,-1,-1,-1],"split_conditions":[3E0,9E0,5.69E1,1.93136E3,-7.9855647E0,8.44899E5,6.207E3,1.678129E3,2.7E0,5.585313E0,1.3794515E0,4.0525675E0,1.0325664E1,2.480951E3,-4.6790266E0,3E0,4.889423E0,5E0,4.81E1,-3.538802E0,8.3490527E-1,-1.0051913E0,1.325E1,-2.4073994E0,2.0001028E0,6.16E1,-1.30185E0,-3.9898696E0,-1.8313853E0],"split_indices":[15,7,3,23,0,11,0,23,18,0,0,0,0,22,0,19,0,20,6,0,0,0,16,0,0,6,0,0,0],"split_type":[0,0,0,0,0,0,0,0,0,0,0,0,0,0,0,0,0,0,0,0,0,0,0,0,0,0,0,0,0],"sum_hessian":[2.2E2,1.66E2,5.4E1,1.51E2,1.5E1,2.9E1,2.5E1,1.05E2,4.6E1,1.6E1,1.3E1,1.2E1,1.3E1,9.2E1,1.3E1,3.4E1,1.2E1,7E1,2.2E1,1.5E1,1.9E1,1.8E1,5.2E1,1.1E1,1.1E1,4E1,1.2E1,2.2E1,1.8E1],"tree_param":{"num_deleted":"0","num_feature":"27","num_nodes":"29","size_leaf_vector":"1"}},{"base_weights":[-4.01215E0,-8.777655E1,1.0571875E2,-5.1164284E1,-1.4222815E2,6.986637E1,9.397555E0,-1.00985374E2,-2.7078578E-1,-2.2530608E0,-6.143965E0,-1.3660676E1,1.2103607E2,-1.4294335E0,-4.3506556E0,4.0319885E1,-1.8543643E0,-2.3123376E0,1.6059111E0,4.9872177E1,7.3519316E0,2.7349987E0,-4.9280274E-1,3.0758271E0,-8.055674E-1],"categories":[],"categories_nodes":[],"categories_segments":[],"categories_sizes":[],"default_left":[0,0,0,0,0,0,0,0,0,0,0,1,0,0,0,0,0,0,0,0,0,0,0,0,0],"id":51,"left_children":[1,3,5,7,9,11,-1,13,15,-1,-1,17,19,-1,-1,21,-1,-1,-1,23,-1,-1,-1,-1,-1],"loss_changes":[2.203732E6,2.3489019E5,4.8247412E5,2.248565E5,6.120475E4,3.9669984E5,0E0,2.9015656E4,1.1094515E5,0E0,0E0,1.2664289E5,2.8081394E5,0E0,0E0,6.1697586E4,0E0,0E0,0E0,1.0225142E5,0E0,0E0,0E0,0E0,0E0],"parents":[2147483647,0,0,1,1,2,2,3,3,4,4,5,5,7,7,8,8,11,11,12,12,15,15,19,19],"right_children":[2,4,6,8,10,12,-1,14,16,-1,-1,18,20,-1,-1,22,-1,-1,-1,24,-1,-1,-1,-1,-1],"split_conditions":[9.95E1,3E0,4.147796E3,1.1E0,8.03E1,9.98E1,9.397555E0,2.4E0,4.11386E3,-2.2530608E0,-6.143965E0,1.11E2,1.93E0,-1.4294335E0,-4.3506556E0,2.48E0,-1.8543643E0,-2.3123376E0,1.6059111E0,4.1095E3,7.3519316E0,2.7349987E0,-4.9280274E-1,3.0758271E0,-8.055674E-1],"split_indices":[2,7,23,18,3,4,0,9,17,0,0,12,18,0,0,18,0,0,0,17,0,0,0,0,0],"split_type":[0,0,0,0,0,0,0,0,0,0,0,0,0,0,0,0,0,0,0,0,0,0,0,0,0],"sum_hessian":[2.3E2,1.31E2,9.9E1,8.4E1,4.7E1,8.6E1,1.3E1,4E1,4.4E1,1.6E1,3.1E1,3.4E1,5.2E1,1.3E1,2.7E1,2.5E1,1.9E1,1.8E1,1.6E1,3.2E1,2E1,1.4E1,1.1E1,2.1E1,1.1E1],"tree_param":{"num_deleted":"0","num_feature":"27","num_nodes":"25","size_leaf_vector":"1"}},{"base_weights":[5.400652E0,-7.2466255E1,1.3805205E2,-1.3471213E2,-3.879145E1,-5.2882427E-1,1.666956E2,-5.9081554E0,-2.3011384E0,-6.45248E1,2.9640476E1,7.469111E1,2.2754454E2,-3.3151105E-1,-7.7608734E1,-1.7708722E0,3.6342032E0,-1.195857E0,6.151778E0,3.2090807E0,2.703511E2,-9.566111E1,-8.999269E-1,4.5866113E0,1.1760559E1,-1.4420089E0,-4.0256815E0],"categories":[],"categories_nodes":[],"categories_segments":[],"categories_sizes":[],"default_left":[0,0,0,0,0,0,0,0,0,0,0,1,0,0,0,0,0,0,0,0,0,0,0,0,0,0,0],"id":52,"left_children":[1,3,5,7,9,-1,11,-1,-1,13,15,17,19,-1,21,-1,-1,-1,-1,-1,23,25,-1,-1,-1,-1,-1],"loss_changes":[2.3713978E6,2.7771106E5,3.8329275E5,4.7352812E4,1.8700933E5,0E0,3.1877962E5,0E0,0E0,5.0524312E4,1.9491222E5,3.9433494E5,1.2580375E5,0E0,4.513022E4,0E0,0E0,0E0,0E0,0E0,2.348425E4,1.4894969E4,0E0,0E0,0E0,0E0,0E0],"parents":[2147483647,0,0,1,1,2,2,3,3,4,4,6,6,9,9,10,10,11,11,12,12,14,14,20,20,21,21],"right_children":[2,4,6,8,10,-1,12,-1,-1,14,16,18,20,-1,22,-1,-1,-1,-1,-1,24,26,-1,-1,-1,-1,-1],"split_conditions":[4.998E3,3E0,4.34E1,1.548E3,3.462E3,-5.2882427E-1,3E0,-5.9081554E0,-2.3011384E0,1.484E3,1.51E0,1.02E2,5.1E-1,-3.3151105E-1,6.2252846E1,-1.7708722E0,3.6342032E0,-1.195857E0,6.151778E0,3.2090807E0,1.08E2,7E1,-8.999269E-1,4.5866113E0,1.1760559E1,-1.4420089E0,-4.0256815E0],"split_indices":[0,16,6,0,0,0,19,0,0,0,18,13,18,0,25,0,0,0,0,0,13,12,0,0,0,0,0],"split_type":[0,0,0,0,0,0,0,0,0,0,0,0,0,0,0,0,0,0,0,0,0,0,0,0,0,0,0],"sum_hessian":[2.2E2,1.4E2,8E1,4.4E1,9.6E1,1.3E1,6.7E1,2.7E1,1.7E1,7E1,2.6E1,3.1E1,3.6E1,1.5E1,5.5E1,1.3E1,1.3E1,1.6E1,1.5E1,1.2E1,2.4E1,3.8E1,1.7E1,1.1E1,1.3E1,1.2E1,2.6E1],"tree_param":{"num_deleted":"0","num_feature":"27","num_nodes":"27","size_leaf_vector":"1"}},{"base_weights":[2.8324125E0,-6.110922E1,1.1897974E2,-4.3042915E1,-5.866437E0,1.9060522E1,1.845087E2,-1.9818342E1,-8.3546394E1,4.1838975E0,-1.7115108E0,2.6778681E0,2.32193E2,-4.77023E1,1.8284956E1,-3.596151E0,-9.770281E-1,3.582012E0,1.012954E1,-7.561032E1,-5.8542333E0,-2.8856234E1,3.50585E0,-8.5616314E-1,-3.6654563E0,-1.0471878E0,6.8055767E-1,1.051407E0,-2.5466607E0],"categories":[],"categories_nodes":[],"categories_segments":[],"categories_sizes":[],"default_left":[0,0,0,0,0,0,0,0,0,0,0,0,0,0,0,0,0,0,0,0,0,0,0,0,0,0,0,0,0],"id":53,"left_children":[1,3,5,7,-1,9,11,13,15,-1,-1,-1,17,19,21,-1,-1,-1,-1,23,25,27,-1,-1,-1,-1,-1,-1,-1],"loss_changes":[1.7128702E6,2.3632262E5,5.18253E5,1.1660981E5,0E0,2.6835272E5,1.7352062E5,1.0086317E5,2.8098531E4,0E0,0E0,0E0,6.5277375E4,6.049575E4,1.6848856E5,0E0,0E0,0E0,0E0,3.0231922E4,1.789556E4,8.151115E4,0E0,0E0,0E0,0E0,0E0,0E0,0E0],"parents":[2147483647,0,0,1,1,2,2,3,3,5,5,6,6,7,7,8,8,12,12,13,13,14,14,19,19,20,20,21,21],"right_children":[2,4,6,8,-1,10,12,14,16,-1,-1,-1,18,20,22,-1,-1,-1,-1,24,26,28,-1,-1,-1,-1,-1,-1,-1],"split_conditions":[1.152E3,6E0,5.605E3,4.16633E3,-5.866437E0,5.197837E3,3.042933E3,1.577613E3,6.36E1,4.1838975E0,-1.7115108E0,2.6778681E0,6.535E3,3.91649E3,2E0,-3.596151E0,-9.770281E-1,3.582012E0,1.012954E1,3.1476E-1,3.8486746E-1,8.7E1,3.50585E0,-8.5616314E-1,-3.6654563E0,-1.0471878E0,6.8055767E-1,1.051407E0,-2.5466607E0],"split_indices":[24,7,0,17,0,22,23,23,6,0,0,0,0,17,7,0,0,0,0,26,26,2,0,0,0,0,0,0,0],"split_type":[0,0,0,0,0,0,0,0,0,0,0,0,0,0,0,0,0,0,0,0,0,0,0,0,0,0,0,0,0],"sum_hessian":[2.21E2,1.44E2,7.7E1,1.28E2,1.6E1,3.3E1,4.4E1,8.6E1,4.2E1,1.2E1,2.1E1,1.7E1,2.7E1,4.9E1,3.7E1,3E1,1.2E1,1.1E1,1.6E1,2.7E1,2.2E1,2.5E1,1.2E1,1.2E1,1.5E1,1.1E1,1.1E1,1.1E1,1.4E1],"tree_param":{"num_deleted":"0","num_feature":"27","num_nodes":"29","size_leaf_vector":"1"}},{"base_weights":[8.547598E0,-7.44264E1,1.1432047E2,-5.3645123E1,-7.0150743E0,5.5106716E1,2.0260509E2,-6.2416817E1,8.61568E-2,-1.2144382E1,9.997032E1,1.9120904E0,9.625802E0,-8.168324E1,-1.826433E1,-1.9342952E0,7.926552E-1,1.3003719E2,3.858111E-1,-3.316798E1,-1.0455008E2,-4.9868607E1,1.4742233E0,6.1521544E0,1.9883903E0,-2.5141397E0,5.2663964E-1,-4.718495E0,-1.4158018E0,-8.406002E-1,-2.2145147E0],"categories":[],"categories_nodes":[],"categories_segments":[],"categories_sizes":[],"default_left":[0,0,0,0,0,0,0,0,0,0,0,0,0,0,0,0,0,0,0,0,0,0,0,0,0,0,0,0,0,0,0],"id":54,"left_children":[1,3,5,7,-1,9,11,13,-1,15,17,-1,-1,19,21,-1,-1,23,-1,25,27,29,-1,-1,-1,-1,-1,-1,-1,-1,-1],"loss_changes":[2.0763369E6,2.7751544E5,4.8789062E5,5.9806656E4,0E0,2.1392567E5,3.066245E5,8.078806E4,0E0,5.0405875E4,1.0526272E5,0E0,0E0,6.1332844E4,8.03815E4,0E0,0E0,4.6084344E4,0E0,5.657791E4,5.165197E4,8.914219E2,0E0,0E0,0E0,0E0,0E0,0E0,0E0,0E0,0E0],"parents":[2147483647,0,0,1,1,2,2,3,3,5,5,6,6,7,7,9,9,10,10,13,13,14,14,17,17,19,19,20,20,21,21],"right_children":[2,4,6,8,-1,10,12,14,-1,16,18,-1,-1,20,22,-1,-1,24,-1,26,28,30,-1,-1,-1,-1,-1,-1,-1,-1,-1],"split_conditions":[9.95E1,1E1,3.054355E3,5.42E1,-7.0150743E0,1.162E3,9.9E1,9.07E1,8.61568E-2,2.4E0,6.056282E3,1.9120904E0,9.625802E0,4.85905E1,2.612359E3,-1.9342952E0,7.926552E-1,3.446693E-1,3.858111E-1,3.6961368E-1,4.05095E3,3E0,1.4742233E0,6.1521544E0,1.9883903E0,-2.5141397E0,5.2663964E-1,-4.718495E0,-1.4158018E0,-8.406002E-1,-2.2145147E0],"split_indices":[2,7,23,9,0,24,13,1,0,8,22,0,0,25,22,0,0,26,0,26,17,9,0,0,0,0,0,0,0,0,0],"split_type":[0,0,0,0,0,0,0,0,0,0,0,0,0,0,0,0,0,0,0,0,0,0,0,0,0,0,0,0,0,0,0],"sum_hessian":[2.27E2,1.28E2,9.9E1,1.15E2,1.3E1,6.4E1,3.5E1,9.9E1,1.6E1,2.7E1,3.7E1,1.3E1,2.2E1,6.6E1,3.3E1,1.1E1,1.6E1,2.6E1,1.1E1,2.5E1,4.1E1,2.2E1,1.1E1,1.3E1,1.3E1,1.3E1,1.2E1,2.6E1,1.5E1,1.1E1,1.1E1],"tree_param":{"num_deleted":"0","num_feature":"27","num_nodes":"31","size_leaf_vector":"1"}},{"base_weights":[2.9084053E0,-8.132635E1,9.547735E1,-6.177757E1,-6.6690125E0,4.3277626E1,1.7210283E2,-7.230061E1,2.502968E-1,-2.5920496E0,7.971868E1,1.7376192E0,7.9136477E0,-5.7589867E1,-4.4807734E0,1.0397485E0,6.298787E0,-6.9045395E1,4.26537E-1,2.5809438E0,-1.7622817E0,-3.207698E0,-3.1065252E1,-2.4687713E-1,-1.8309848E0],"categories":[],"categories_nodes":[],"categories_segments":[],"categories_sizes":[],"default_left":[0,0,0,0,0,0,0,0,0,0,0,0,0,0,0,0,0,0,0,0,0,0,0,0,0],"id":55,"left_children":[1,3,5,7,-1,9,11,13,-1,-1,15,-1,-1,17,-1,19,-1,21,-1,-1,-1,-1,23,-1,-1],"loss_changes":[1.7988985E6,1.8646369E5,4.0255694E5,8.130431E4,0E0,3.2824462E5,1.940355E5,3.642175E4,0E0,0E0,4.191261E5,0E0,0E0,6.995472E4,0E0,1.417508E5,0E0,3.9292688E4,0E0,0E0,0E0,0E0,1.3169094E4,0E0,0E0],"parents":[2147483647,0,0,1,1,2,2,3,3,5,5,6,6,7,7,10,10,13,13,15,15,17,17,22,22],"right_children":[2,4,6,8,-1,10,12,14,-1,-1,16,-1,-1,18,-1,20,-1,22,-1,-1,-1,-1,24,-1,-1],"split_conditions":[2.000775E3,9E0,5.099088E1,1E0,-6.6690125E0,2E0,5.235E3,8.67E2,2.502968E-1,-2.5920496E0,1.99E0,1.7376192E0,7.9136477E0,6.63E1,-4.4807734E0,4.491256E1,6.298787E0,3.5E0,4.26537E-1,2.5809438E0,-1.7622817E0,-3.207698E0,3.07E1,-2.4687713E-1,-1.8309848E0],"split_indices":[23,7,25,21,0,19,0,24,0,0,18,0,0,6,0,25,0,8,0,0,0,0,8,0,0],"split_type":[0,0,0,0,0,0,0,0,0,0,0,0,0,0,0,0,0,0,0,0,0,0,0,0,0],"sum_hessian":[2.21E2,1.16E2,1.05E2,1.04E2,1.2E1,6.7E1,3.8E1,9E1,1.4E1,1.5E1,5.2E1,1.3E1,2.5E1,7.8E1,1.2E1,3.1E1,2.1E1,6.7E1,1.1E1,1.2E1,1.9E1,4E1,2.7E1,1.5E1,1.2E1],"tree_param":{"num_deleted":"0","num_feature":"27","num_nodes":"25","size_leaf_vector":"1"}},{"base_weights":[1.3433856E1,-7.575665E1,1.3433482E2,-5.6179604E1,-6.6581993E0,8.325991E0,1.8150676E2,-8.9085266E1,-2.5613346E1,-3.723012E0,4.485238E0,1.1779468E2,1.2057694E1,-3.5313542E0,-1.4567494E0,-3.212855E0,-1.4585818E0,1.5296254E-1,1.4639412E2,-3.9288315E1,1.7107168E0,1.9637647E0,1.7763405E2,-2.1558364E-1,-2.5709915E0,3.0431645E0,7.8891068E0],"categories":[],"categories_nodes":[],"categories_segments":[],"categories_sizes":[],"default_left":[0,0,0,0,0,1,0,0,0,0,0,0,0,0,0,0,0,0,0,0,0,0,0,0,0,0,0],"id":56,"left_children":[1,3,5,7,-1,9,11,13,15,-1,-1,17,-1,-1,-1,-1,19,-1,21,23,-1,-1,25,-1,-1,-1,-1],"loss_changes":[2.3125665E6,2.1072469E5,5.321329E5,1.01064E5,0E0,4.4421475E5,4.421125E5,1.643125E3,9.778931E4,0E0,0E0,1.7147094E5,0E0,0E0,0E0,0E0,1.04405414E5,0E0,7.6023375E4,3.1301445E4,0E0,0E0,2.2120438E4,0E0,0E0,0E0,0E0],"parents":[2147483647,0,0,1,1,2,2,3,3,5,5,6,6,7,7,8,8,11,11,16,16,18,18,19,19,22,22],"right_children":[2,4,6,8,-1,10,12,14,16,-1,-1,18,-1,-1,-1,-1,20,-1,22,24,-1,-1,26,-1,-1,-1,-1],"split_conditions":[9.55E2,1E1,2E0,3E0,-6.6581993E0,1.02E2,2.98E0,9.2E1,4.99E1,-3.723012E0,4.485238E0,1.164E3,1.2057694E1,-3.5313542E0,-1.4567494E0,-3.212855E0,2.243397E3,1.5296254E-1,5.1E-1,4E0,1.7107168E0,1.9637647E0,5.49E1,-2.1558364E-1,-2.5709915E0,3.0431645E0,7.8891068E0],"split_indices":[24,7,19,19,0,13,18,1,6,0,0,24,0,0,0,0,22,0,18,19,0,0,3,0,0,0,0],"split_type":[0,0,0,0,0,0,0,0,0,0,0,0,0,0,0,0,0,0,0,0,0,0,0,0,0,0,0],"sum_hessian":[2.05E2,1.19E2,8.6E1,1.07E2,1.2E1,2.5E1,6.1E1,4.7E1,6E1,1.3E1,1.2E1,4.9E1,1.2E1,3.6E1,1.1E1,1.3E1,4.7E1,1.1E1,3.8E1,2.7E1,2E1,1.3E1,2.5E1,1.6E1,1.1E1,1.2E1,1.3E1],"tree_param":{"num_deleted":"0","num_feature":"27","num_nodes":"27","size_leaf_vector":"1"}},{"base_weights":[-1.2875569E-1,-8.002898E1,1.0935156E2,-6.115877E1,-6.6054254E0,-9.225558E0,1.6343144E2,-9.861949E1,-3.1592064E1,1.4366528E0,-3.0154922E0,6.416824E1,2.2775427E2,-1.5994732E0,-3.9147055E0,-6.6055214E1,9.4010105E0,-2.7309975E-1,3.6405566E0,2.7675E0,1.0410215E1,-2.9123065E0,-1.3410056E0,2.6848729E0,-1.4994495E0],"categories":[],"categories_nodes":[],"categories_segments":[],"categories_sizes":[],"default_left":[0,0,0,0,0,0,0,0,0,0,0,0,0,0,0,0,0,0,0,0,0,0,0,0,0],"id":57,"left_children":[1,3,5,7,-1,9,11,13,15,-1,-1,17,19,-1,-1,21,23,-1,-1,-1,-1,-1,-1,-1,-1],"loss_changes":[2.0706004E6,2.0893188E5,6.4815925E5,1.2053403E5,0E0,1.4567238E5,3.6774112E5,2.8192188E3,1.1036215E5,0E0,0E0,9.1947234E4,2.5072162E5,0E0,0E0,2.5632031E3,1.4249223E5,0E0,0E0,0E0,0E0,0E0,0E0,0E0,0E0],"parents":[2147483647,0,0,1,1,2,2,3,3,5,5,6,6,7,7,8,8,11,11,12,12,15,15,16,16],"right_children":[2,4,6,8,-1,10,12,14,16,-1,-1,18,20,-1,-1,22,24,-1,-1,-1,-1,-1,-1,-1,-1],"split_conditions":[9.95E1,1E1,1.162E3,1.08E0,-6.6054254E0,4.13913E3,5.7E1,4.9316326E1,1.29545E3,1.4366528E0,-3.0154922E0,4.782797E1,7.2E-1,-1.5994732E0,-3.9147055E0,4.41357E3,2.48E0,-2.7309975E-1,3.6405566E0,2.7675E0,1.0410215E1,-2.9123065E0,-1.3410056E0,2.6848729E0,-1.4994495E0],"split_indices":[2,7,24,18,0,17,3,25,23,0,0,25,18,0,0,17,18,0,0,0,0,0,0,0,0],"split_type":[0,0,0,0,0,0,0,0,0,0,0,0,0,0,0,0,0,0,0,0,0,0,0,0,0],"sum_hessian":[2.27E2,1.32E2,9.5E1,1.18E2,1.4E1,3.1E1,6.4E1,4.7E1,7.1E1,2E1,1.1E1,2.9E1,3.5E1,1.1E1,3.6E1,3.7E1,3.4E1,1.1E1,1.8E1,1.3E1,2.2E1,1.9E1,1.8E1,1.4E1,2E1],"tree_param":{"num_deleted":"0","num_feature":"27","num_nodes":"25","size_leaf_vector":"1"}},{"base_weights":[3.6946654E0,-5.2346394E1,1.3384445E2,-5.3043947E0,-3.0167978E1,3.5097897E1,2.030714E2,-4.436853E1,2.249764E0,-1.0946834E0,3.0083256E0,2.9661636E0,9.518191E0,1.4836749E0,-5.5836067E1,-6.742769E1,1.1290606E0,-4.494231E0,-4.348386E1,-5.5540985E1,5.01024E-1,-8.9278644E-1,-2.733667E0],"categories":[],"categories_nodes":[],"categories_segments":[],"categories_sizes":[],"default_left":[0,0,0,0,0,0,0,0,0,0,0,0,0,0,0,0,0,0,0,0,0,0,0],"id":58,"left_children":[1,3,5,-1,7,9,11,13,-1,-1,-1,-1,-1,-1,15,17,-1,-1,19,21,-1,-1,-1],"loss_changes":[1.6451701E6,3.0694556E5,4.2850312E5,0E0,1.8861422E5,1.181673E5,1.7471838E5,1.273973E5,0E0,0E0,0E0,0E0,0E0,0E0,1.1804831E5,1.0303534E5,0E0,0E0,5.5578656E4,2.9256844E4,0E0,0E0,0E0],"parents":[2147483647,0,0,1,1,2,2,4,4,5,5,6,6,7,7,14,14,15,15,18,18,19,19],"right_children":[2,4,6,-1,8,10,12,14,-1,-1,-1,-1,-1,-1,16,18,-1,-1,20,22,-1,-1,-1],"split_conditions":[2.726682E3,1.19E3,1.02E2,-5.3043947E0,3.59E1,8.2E-1,6.829188E3,4.398632E1,2.249764E0,-1.0946834E0,3.0083256E0,2.9661636E0,9.518191E0,1.4836749E0,5.42E1,3.85904E3,1.1290606E0,-4.494231E0,9.99E1,9.97E1,5.01024E-1,-8.9278644E-1,-2.733667E0],"split_indices":[23,0,13,0,8,18,22,25,0,0,0,0,0,0,9,17,0,0,4,4,0,0,0],"split_type":[0,0,0,0,0,0,0,0,0,0,0,0,0,0,0,0,0,0,0,0,0,0,0],"sum_hessian":[2.16E2,1.53E2,6.3E1,2.4E1,1.29E2,2.9E1,3.4E1,1.14E2,1.5E1,1.3E1,1.6E1,1.5E1,1.9E1,1.2E1,1.02E2,9.1E1,1.1E1,2.1E1,7E1,5.8E1,1.2E1,2.7E1,3.1E1],"tree_param":{"num_deleted":"0","num_feature":"27","num_nodes":"23","size_leaf_vector":"1"}},{"base_weights":[3.668447E0,1.23781235E2,-4.7338055E1,4.9967024E-2,1.5020079E2,-6.419489E1,4.3170574E1,6.522545E1,7.053579E0,-1.2195925E2,-3.6195683E1,6.33442E0,-2.842479E0,4.0024467E0,1.3621627E-1,-5.319989E0,-1.08587E0,-4.8142307E1,8.5391515E-1,-5.732347E1,-1.54794E-1,-7.001573E1,-5.071545E-1,-7.931012E-1,-8.069345E1,-1.0493643E0,-3.3952334E0],"categories":[],"categories_nodes":[],"categories_segments":[],"categories_sizes":[],"default_left":[0,0,0,0,0,0,0,0,0,0,0,0,0,0,0,0,0,0,0,0,0,0,0,0,0,0,0],"id":59,"left_children":[1,3,5,-1,7,9,11,13,-1,15,17,-1,-1,-1,-1,-1,-1,19,-1,21,-1,23,-1,-1,25,-1,-1],"loss_changes":[1.4982026E6,2.341315E5,2.7573078E5,0E0,1.6309925E5,2.1558256E5,5.443042E5,7.4970766E4,0E0,8.262056E4,8.114453E4,0E0,0E0,0E0,0E0,0E0,0E0,3.481386E4,0E0,3.5603703E4,0E0,1.9817719E4,0E0,0E0,1.5844406E4,0E0,0E0],"parents":[2147483647,0,0,1,1,2,2,4,4,5,5,6,6,7,7,9,9,10,10,17,17,19,19,21,21,24,24],"right_children":[2,4,6,-1,8,10,12,14,-1,16,18,-1,-1,-1,-1,-1,-1,20,-1,22,-1,24,-1,-1,26,-1,-1],"split_conditions":[1.98E2,1.26E3,4.998E3,4.9967024E-2,5.703E3,3.85904E3,3.94727E3,9.54E1,7.053579E0,6.449077E1,9.99E1,6.33442E0,-2.842479E0,4.0024467E0,1.3621627E-1,-5.319989E0,-1.08587E0,3.675337E3,8.5391515E-1,6.327815E1,-1.54794E-1,5.7E1,-5.071545E-1,-7.931012E-1,8.39E1,-1.0493643E0,-3.3952334E0],"split_indices":[15,24,0,0,0,17,17,1,0,25,4,0,0,0,0,0,0,22,0,25,0,13,0,0,2,0,0],"split_type":[0,0,0,0,0,0,0,0,0,0,0,0,0,0,0,0,0,0,0,0,0,0,0,0,0,0,0],"sum_hessian":[2.35E2,6.8E1,1.67E2,1.3E1,5.5E1,1.42E2,2.5E1,2.3E1,3.2E1,4.1E1,1.01E2,1.1E1,1.4E1,1.1E1,1.2E1,3E1,1.1E1,8.5E1,1.6E1,6.9E1,1.6E1,5.1E1,1.8E1,1.2E1,3.9E1,1.1E1,2.8E1],"tree_param":{"num_deleted":"0","num_feature":"27","num_nodes":"27","size_leaf_vector":"1"}},{"base_weights":[-4.065447E0,-5.5692654E1,1.0487444E2,-4.1976326E1,-5.85143E0,1.3638611E2,-1.6822178E0,-2.3039513E1,-7.178424E1,5.5543556E1,1.8683237E2,-4.072145E1,2.4343252E1,-3.7391026E0,-3.8438995E1,-6.845897E-2,3.1333532E0,1.0557924E1,2.727134E0,-2.4317087E1,-2.9779637E0,-5.252457E-1,2.2935581E0,-1.9690961E0,-9.387914E-2,-5.9257027E1,1.0923781E1,-5.215374E-1,-2.9163885E0,-1.1765746E0,1.956067E0],"categories":[],"categories_nodes":[],"categories_segments":[],"categories_sizes":[],"default_left":[0,0,0,0,0,0,0,0,0,0,0,0,0,0,0,0,0,0,0,0,0,0,0,0,0,0,0,0,0,0,0],"id":60,"left_children":[1,3,5,7,-1,9,-1,11,13,15,17,19,21,-1,23,-1,-1,-1,-1,25,-1,-1,-1,-1,-1,27,29,-1,-1,-1,-1],"loss_changes":[1.3434995E6,2.011095E5,3.9739112E5,7.6259125E4,0E0,2.1333388E5,0E0,8.7691984E4,3.868147E4,5.755232E4,3.3345238E5,4.0141453E4,4.97225E4,0E0,1.8971977E4,0E0,0E0,0E0,0E0,7.69996E4,0E0,0E0,0E0,0E0,0E0,2.3410312E4,7.176071E4,0E0,0E0,0E0,0E0],"parents":[2147483647,0,0,1,1,2,2,3,3,5,5,7,7,8,8,9,9,10,10,11,11,12,12,14,14,19,19,25,25,26,26],"right_children":[2,4,6,8,-1,10,-1,12,14,16,18,20,22,-1,24,-1,-1,-1,-1,26,-1,-1,-1,-1,-1,28,30,-1,-1,-1,-1],"split_conditions":[1.152E3,1E1,7.43E1,4.16633E3,-5.85143E0,5.7E1,-1.6822178E0,4.00091E3,1.4E0,4.8075706E1,2.2E0,8.72E2,9.97E1,-3.7391026E0,6.61E2,-6.845897E-2,3.1333532E0,1.0557924E1,2.727134E0,1.29545E3,-2.9779637E0,-5.252457E-1,2.2935581E0,-1.9690961E0,-9.387914E-2,8.98752E2,5.13E1,-5.215374E-1,-2.9163885E0,-1.1765746E0,1.956067E0],"split_indices":[24,7,3,17,0,3,0,17,18,25,9,24,4,0,24,0,0,0,0,23,0,0,0,0,0,23,6,0,0,0,0],"split_type":[0,0,0,0,0,0,0,0,0,0,0,0,0,0,0,0,0,0,0,0,0,0,0,0,0,0,0,0,0,0,0],"sum_hessian":[2.29E2,1.57E2,7.2E1,1.45E2,1.2E1,6E1,1.2E1,9.4E1,5.1E1,2.7E1,3.3E1,6.9E1,2.5E1,2.1E1,3E1,1.1E1,1.6E1,1.3E1,2E1,5.5E1,1.4E1,1.4E1,1.1E1,1.9E1,1.1E1,2.6E1,2.9E1,1.1E1,1.5E1,1.5E1,1.4E1],"tree_param":{"num_deleted":"0","num_feature":"27","num_nodes":"31","size_leaf_vector":"1"}},{"base_weights":[5.949107E0,-6.259075E1,9.489534E1,-1.0928772E2,-3.699973E1,8.437538E0,4.568943E1,-6.395272E1,-5.4587903E0,-6.688627E1,-6.4684267E0,8.3892E0,5.077668E0,1.0832721E-1,-4.228265E0,-2.9919872E0,-3.93144E-1,-2.744157E1,1.7893904E0,5.3475647E1,-3.1601982E1,5.2146035E-1,-4.7362617E1,3.2527165E0,1.891904E-1,1.2600424E0,-3.7727587E0,-2.4915133E0,-5.561502E-1],"categories":[],"categories_nodes":[],"categories_segments":[],"categories_sizes":[],"default_left":[0,0,0,0,0,0,1,0,0,0,0,0,0,0,0,0,0,0,0,1,0,0,0,0,0,0,0,0,0],"id":61,"left_children":[1,3,5,7,9,-1,11,13,-1,15,17,19,-1,-1,-1,-1,-1,21,-1,23,25,-1,27,-1,-1,-1,-1,-1,-1],"loss_changes":[1.4424456E6,1.3986256E5,6.450186E5,3.6485E4,8.331214E4,0E0,2.8193406E5,1.0731424E5,0E0,3.6422125E4,6.722399E4,1.2341787E5,0E0,0E0,0E0,0E0,0E0,3.745422E4,0E0,5.3140742E4,1.949886E5,0E0,1.4352367E4,0E0,0E0,0E0,0E0,0E0,0E0],"parents":[2147483647,0,0,1,1,2,2,3,3,4,4,6,6,7,7,9,9,10,10,11,11,17,17,19,19,20,20,22,22],"right_children":[2,4,6,8,10,-1,12,14,-1,16,18,20,-1,-1,-1,-1,-1,22,-1,24,26,-1,28,-1,-1,-1,-1,-1,-1],"split_conditions":[9.95E1,3.85102E3,3.82898E3,6E0,3E0,8.437538E0,1.95E2,4.14E2,-5.4587903E0,6.279171E1,3.159E3,1.12E0,5.077668E0,1.0832721E-1,-4.228265E0,-2.9919872E0,-3.93144E-1,1.904092E3,1.7893904E0,1.44E2,2.66E2,5.2146035E-1,9.8E-1,3.2527165E0,1.891904E-1,1.2600424E0,-3.7727587E0,-2.4915133E0,-5.561502E-1],"split_indices":[2,17,17,7,19,0,12,24,0,25,0,18,0,0,0,0,0,22,0,12,13,0,18,0,0,0,0,0,0],"split_type":[0,0,0,0,0,0,0,0,0,0,0,0,0,0,0,0,0,0,0,0,0,0,0,0,0,0,0,0,0],"sum_hessian":[2.27E2,1.29E2,9.8E1,4E1,8.9E1,2.1E1,7.7E1,2.5E1,1.5E1,4.2E1,4.7E1,5.9E1,1.8E1,1.3E1,1.2E1,3.1E1,1.1E1,3.6E1,1.1E1,2.7E1,3.2E1,1.2E1,2.4E1,1.3E1,1.4E1,1.8E1,1.4E1,1.1E1,1.3E1],"tree_param":{"num_deleted":"0","num_feature":"27","num_nodes":"29","size_leaf_vector":"1"}},{"base_weights":[-9.3832535E-1,-3.439109E1,1.5208803E2,-1.1883502E1,-1.1332921E2,2.5830574E0,7.9763374E0,6.009252E1,-3.6173702E1,-1.5637585E0,-4.9001474E0,4.3992896E0,-1.1281711E0,-4.6775078E1,1.4277087E0,3.3666342E-1,-5.462372E1,-4.855943E0,-3.1966034E1,1.3530009E0,-5.143307E1,-2.5666225E0,2.7710372E-1],"categories":[],"categories_nodes":[],"categories_segments":[],"categories_sizes":[],"default_left":[1,0,0,0,0,0,0,0,0,0,0,0,0,0,0,0,0,0,0,0,0,0,0],"id":62,"left_children":[1,3,5,7,9,-1,-1,11,13,-1,-1,-1,-1,15,-1,-1,17,-1,19,-1,21,-1,-1],"loss_changes":[1.1658865E6,3.250582E5,1.4725894E5,2.742323E5,3.3715188E4,0E0,0E0,2.4127142E5,1.0176736E5,0E0,0E0,0E0,0E0,4.8303125E4,0E0,0E0,1.4374684E5,0E0,1.14378375E5,0E0,7.4706E4,0E0,0E0],"parents":[2147483647,0,0,1,1,2,2,3,3,4,4,7,7,8,8,13,13,16,16,18,18,20,20],"right_children":[2,4,6,8,10,-1,-1,12,14,-1,-1,-1,-1,16,-1,-1,18,-1,20,-1,22,-1,-1],"split_conditions":[1.02E2,4E0,6.269E3,5E0,7.95E1,2.5830574E0,7.9763374E0,5.85E1,9.6E1,-1.5637585E0,-4.9001474E0,4.3992896E0,-1.1281711E0,4.14E2,1.4277087E0,3.3666342E-1,3.89342E3,-4.855943E0,3.94727E3,1.3530009E0,7.95E1,-2.5666225E0,2.7710372E-1],"split_indices":[13,7,0,20,3,0,0,6,1,0,0,0,0,24,0,0,17,0,17,0,3,0,0],"split_type":[0,0,0,0,0,0,0,0,0,0,0,0,0,0,0,0,0,0,0,0,0,0,0],"sum_hessian":[2.18E2,1.82E2,3.6E1,1.46E2,3.6E1,2.1E1,1.5E1,3.5E1,1.11E2,1.2E1,2.4E1,2E1,1.5E1,9.9E1,1.2E1,1.2E1,8.7E1,1.4E1,7.3E1,1.5E1,5.8E1,4.3E1,1.5E1],"tree_param":{"num_deleted":"0","num_feature":"27","num_nodes":"23","size_leaf_vector":"1"}},{"base_weights":[9.563875E0,-6.230512E1,1.0451819E2,-4.2011604E1,-4.7889347E0,8.340529E0,5.7476795E1,-6.1617138E1,-3.8475192E0,2.0678179E1,5.9260283E0,-8.370524E1,-1.6083204E1,-3.5654984E1,2.2128925E0,-4.388623E1,7.559506E1,-4.9209273E-1,-1.02762215E2,-1.1995898E0,3.2145658E-1,-2.0188167E0,-1.6798271E-1,-3.132658E0,7.678817E-1,4.4618554E0,-2.976852E-1,-4.5587664E0,-1.750396E0],"categories":[],"categories_nodes":[],"categories_segments":[],"categories_sizes":[],"default_left":[0,0,0,0,0,0,1,0,0,0,0,0,0,0,0,0,0,0,0,0,0,0,0,0,0,0,0,0,0],"id":63,"left_children":[1,3,5,7,-1,-1,9,11,13,15,-1,17,19,21,-1,23,25,-1,27,-1,-1,-1,-1,-1,-1,-1,-1,-1,-1],"loss_changes":[1.6003806E6,1.6204931E5,5.304104E5,8.1590766E4,0E0,0E0,2.9441412E5,6.642572E4,9.893916E4,2.4618134E5,0E0,5.6824125E4,1.4166692E4,1.8350008E4,0E0,9.998844E4,1.518902E5,0E0,1.61020625E4,0E0,0E0,0E0,0E0,0E0,0E0,0E0,0E0,0E0,0E0],"parents":[2147483647,0,0,1,1,2,2,3,3,6,6,7,7,8,8,9,9,11,11,12,12,13,13,15,15,16,16,18,18],"right_children":[2,4,6,8,-1,-1,10,12,14,16,-1,18,20,22,-1,24,26,-1,28,-1,-1,-1,-1,-1,-1,-1,-1,-1,-1],"split_conditions":[9.95E1,5.288529E-1,3.82898E3,3.8963944E-1,-4.7889347E0,8.340529E0,1.95E2,3.5E0,2.732E3,3E0,5.9260283E0,4.21E2,2.291404E3,9.03E1,2.2128925E0,2.1E0,9.75E0,-4.9209273E-1,4.03503E3,-1.1995898E0,3.2145658E-1,-2.0188167E0,-1.6798271E-1,-3.132658E0,7.678817E-1,4.4618554E0,-2.976852E-1,-4.5587664E0,-1.750396E0],"split_indices":[2,26,17,26,0,0,12,8,0,19,0,24,22,1,0,9,16,0,17,0,0,0,0,0,0,0,0,0,0],"split_type":[0,0,0,0,0,0,0,0,0,0,0,0,0,0,0,0,0,0,0,0,0,0,0,0,0,0,0,0,0],"sum_hessian":[2.25E2,1.29E2,9.6E1,1.06E2,2.3E1,2.1E1,7.5E1,6.8E1,3.8E1,6E1,1.5E1,4.3E1,2.5E1,2.7E1,1.1E1,2.8E1,3.2E1,1.1E1,3.2E1,1.4E1,1.1E1,1.4E1,1.3E1,1.6E1,1.2E1,1.9E1,1.3E1,1.8E1,1.4E1],"tree_param":{"num_deleted":"0","num_feature":"27","num_nodes":"29","size_leaf_vector":"1"}},{"base_weights":[-7.261497E-1,-6.1468628E1,8.853576E1,-4.794131E0,-4.8571507E1,-1.9917189E1,1.2614816E2,-3.6909397E1,-4.3036027E0,-3.4106302E0,2.5195148E0,3.1182758E1,1.6768884E2,-6.773418E1,-2.0623775E1,-2.0248556E-1,2.065497E0,7.607743E0,3.1133695E0,-5.316572E-1,-3.1435049E0,-4.1000465E1,2.6643595E1,5.662551E-2,-5.0802254E1,2.1719086E0,-6.047199E-1,-6.3918126E-1,-6.7275986E1,-9.337856E-1,-3.0389724E0],"categories":[],"categories_nodes":[],"categories_segments":[],"categories_sizes":[],"default_left":[0,0,0,0,0,0,0,0,0,0,0,1,1,0,0,0,0,0,0,0,0,0,0,0,0,0,0,0,0,0,0],"id":64,"left_children":[1,3,5,-1,7,9,11,13,-1,-1,-1,15,17,19,21,-1,-1,-1,-1,-1,-1,23,25,-1,27,-1,-1,-1,29,-1,-1],"loss_changes":[1.2834852E6,9.677931E4,4.035593E5,0E0,8.1977875E4,2.2315445E5,2.5745088E5,5.109847E4,0E0,0E0,0E0,2.8117746E4,8.0002E4,3.1614531E4,8.515661E4,0E0,0E0,0E0,0E0,0E0,0E0,2.5511203E4,4.5129344E4,0E0,2.0673086E4,0E0,0E0,0E0,1.0365391E4,0E0,0E0],"parents":[2147483647,0,0,1,1,2,2,4,4,5,5,6,6,7,7,11,11,12,12,13,13,14,14,21,21,22,22,24,24,28,28],"right_children":[2,4,6,-1,8,10,12,14,-1,-1,-1,16,18,20,22,-1,-1,-1,-1,-1,-1,24,26,-1,28,-1,-1,-1,30,-1,-1],"split_conditions":[9.55E2,8.05E2,2E0,-4.794131E0,8.72E2,9.54E1,1E2,4.99E1,-4.3036027E0,-3.4106302E0,2.5195148E0,7E0,4.6E1,4.481547E1,2.473801E3,-2.0248556E-1,2.065497E0,7.607743E0,3.1133695E0,-5.316572E-1,-3.1435049E0,8.98752E2,1.812755E3,5.662551E-2,8.8E1,2.1719086E0,-6.047199E-1,-6.3918126E-1,1.839802E3,-9.337856E-1,-3.0389724E0],"split_indices":[24,0,19,0,24,1,13,6,0,0,0,15,14,25,22,0,0,0,0,0,0,23,23,0,2,0,0,0,22,0,0],"split_type":[0,0,0,0,0,0,0,0,0,0,0,0,0,0,0,0,0,0,0,0,0,0,0,0,0,0,0,0,0,0,0],"sum_hessian":[2.27E2,1.36E2,9.1E1,1.4E1,1.22E2,2.4E1,6.7E1,1.11E2,1.1E1,