{"learner":{"attributes":{},"feature_names":["usuarios_registro_base","tasa_basic_a_risk","tasa_risk_a_fulldata","tasa_fulldata_a_video","tasa_video_a_review","tasa_review_a_aprobado","tasa_registro_a_aprobado","mediana_dias_registro_a_full","pct_perfil_conservador","pct_perfil_arriesgado","push_mail_delivered_pre_deposito","cx_friccion_kyc","cx_bloqueos","Tasa_Intervencion_Mensual","TRM","Variacion_COLCAP","semana_del_mes","dias_habiles_semana","mes_prima","registros_ponderados","aprobados_ponderados","lag_1_target","tasa_registro_a_aprobado_ewma_4","tasa_rechazo_implicita_kyc_ewma_4"],"feature_types":[],"gradient_booster":{"model":{"cats":{"enc":[],"feature_segments":[],"sorted_idx":[]},"gbtree_model_param":{"num_parallel_tree":"1","num_trees":"269"},"iteration_indptr":[0,1,2,3,4,5,6,7,8,9,10,11,12,13,14,15,16,17,18,19,20,21,22,23,24,25,26,27,28,29,30,31,32,33,34,35,36,37,38,39,40,41,42,43,44,45,46,47,48,49,50,51,52,53,54,55,56,57,58,59,60,61,62,63,64,65,66,67,68,69,70,71,72,73,74,75,76,77,78,79,80,81,82,83,84,85,86,87,88,89,90,91,92,93,94,95,96,97,98,99,100,101,102,103,104,105,106,107,108,109,110,111,112,113,114,115,116,117,118,119,120,121,122,123,124,125,126,127,128,129,130,131,132,133,134,135,136,137,138,139,140,141,142,143,144,145,146,147,148,149,150,151,152,153,154,155,156,157,158,159,160,161,162,163,164,165,166,167,168,169,170,171,172,173,174,175,176,177,178,179,180,181,182,183,184,185,186,187,188,189,190,191,192,193,194,195,196,197,198,199,200,201,202,203,204,205,206,207,208,209,210,211,212,213,214,215,216,217,218,219,220,221,222,223,224,225,226,227,228,229,230,231,232,233,234,235,236,237,238,239,240,241,242,243,244,245,246,247,248,249,250,251,252,253,254,255,256,257,258,259,260,261,262,263,264,265,266,267,268,269],"tree_info":[0,0,0,0,0,0,0,0,0,0,0,0,0,0,0,0,0,0,0,0,0,0,0,0,0,0,0,0,0,0,0,0,0,0,0,0,0,0,0,0,0,0,0,0,0,0,0,0,0,0,0,0,0,0,0,0,0,0,0,0,0,0,0,0,0,0,0,0,0,0,0,0,0,0,0,0,0,0,0,0,0,0,0,0,0,0,0,0,0,0,0,0,0,0,0,0,0,0,0,0,0,0,0,0,0,0,0,0,0,0,0,0,0,0,0,0,0,0,0,0,0,0,0,0,0,0,0,0,0,0,0,0,0,0,0,0,0,0,0,0,0,0,0,0,0,0,0,0,0,0,0,0,0,0,0,0,0,0,0,0,0,0,0,0,0,0,0,0,0,0,0,0,0,0,0,0,0,0,0,0,0,0,0,0,0,0,0,0,0,0,0,0,0,0,0,0,0,0,0,0,0,0,0,0,0,0,0,0,0,0,0,0,0,0,0,0,0,0,0,0,0,0,0,0,0,0,0,0,0,0,0,0,0,0,0,0,0,0,0,0,0,0,0,0,0,0,0,0,0,0,0,0,0,0,0,0,0,0,0,0,0,0,0,0,0,0,0,0,0],"trees":[{"base_weights":[4.1890492E0,-3.248435E2,6.164036E2,-4.0876526E2,-1.955163E1,-2.6043165E0,3.4225906E1,-2.8012686E1,-2.8323953E2,-7.5343413E0,8.221694E1,-2.983159E2,-3.2860188E0,-6.2271404E-1,6.612969E0,-1.5618806E1,-3.3271058E0],"categories":[],"categories_nodes":[],"categories_segments":[],"categories_sizes":[],"default_left":[0,0,0,0,0,0,0,0,0,0,0,0,0,0,0,0,0],"id":0,"left_children":[1,3,5,7,9,-1,-1,-1,11,-1,13,15,-1,-1,-1,-1,-1],"loss_changes":[5.81979E7,4.741432E6,5.094248E6,1.39694E6,7.8186344E5,0E0,0E0,0E0,1.45094E5,0E0,1.7831462E5,1.260415E5,0E0,0E0,0E0,0E0,0E0],"parents":[2147483647,0,0,1,1,2,2,3,3,4,4,8,8,10,10,11,11],"right_children":[2,4,6,8,10,-1,-1,-1,12,-1,14,16,-1,-1,-1,-1,-1],"split_conditions":[1.152E3,3.675337E3,9.95E1,3E0,7.66E2,-2.6043165E0,3.4225906E1,-2.8012686E1,6.64E1,-7.5343413E0,3E0,3.049E3,-3.2860188E0,-6.2271404E-1,6.612969E0,-1.5618806E1,-3.3271058E0],"split_indices":[21,19,2,13,21,0,0,0,6,0,16,0,0,0,0,0,0],"split_type":[0,0,0,0,0,0,0,0,0,0,0,0,0,0,0,0,0],"sum_hessian":[2.71E2,1.79E2,9.2E1,1.38E2,4.1E1,9E0,8.3E1,4.8E1,9E1,1.6E1,2.5E1,8.1E1,9E0,1.1E1,1.4E1,7.3E1,8E0],"tree_param":{"num_deleted":"0","num_feature":"24","num_nodes":"17","size_leaf_vector":"1"}},{"base_weights":[-4.0762777E0,-3.1717734E2,5.764322E2,-4.0403214E2,-1.833386E1,3.2636387E1,1.1033207E0,-5.59207E2,-2.7955566E2,-1.3110815E2,7.585032E1,-2.974212E1,-7.78552E0,-2.9245657E2,-3.0984879E0,-7.775559E0,-1.66727E0,-9.205547E-1,1.1675365E2,-1.5231798E1,-3.6097832E0,1.295679E0,7.2415943E0],"categories":[],"categories_nodes":[],"categories_segments":[],"categories_sizes":[],"default_left":[0,0,0,0,0,0,0,0,0,0,0,0,0,0,0,0,0,0,0,0,0,0,0],"id":1,"left_children":[1,3,5,7,9,-1,-1,11,13,15,17,-1,-1,19,-1,-1,-1,-1,21,-1,-1,-1,-1],"loss_changes":[5.2891252E7,4.835718E6,4.312052E6,1.410462E6,6.4173875E5,0E0,0E0,9.872E3,1.1183E5,1.7585438E4,1.511361E5,0E0,0E0,6.45025E4,0E0,0E0,0E0,0E0,2.9728875E4,0E0,0E0,0E0,0E0],"parents":[2147483647,0,0,1,1,2,2,3,3,4,4,7,7,8,8,9,9,10,10,13,13,18,18],"right_children":[2,4,6,8,10,-1,-1,12,14,16,18,-1,-1,20,-1,-1,-1,-1,22,-1,-1,-1,-1],"split_conditions":[1.152E3,3.941E3,7.43E1,3E0,7.66E2,3.2636387E1,1.1033207E0,1.498665E3,8.25E1,3.5657734E-1,3E0,-2.974212E1,-7.78552E0,9.41E2,-3.0984879E0,-7.775559E0,-1.66727E0,-9.205547E-1,7.51E1,-1.5231798E1,-3.6097832E0,1.295679E0,7.2415943E0],"split_indices":[21,0,3,13,21,0,0,20,3,23,16,0,0,21,0,0,0,0,3,0,0,0,0],"split_type":[0,0,0,0,0,0,0,0,0,0,0,0,0,0,0,0,0,0,0,0,0,0,0],"sum_hessian":[2.73E2,1.8E2,9.3E1,1.37E2,4.3E1,8E1,1.3E1,4.7E1,9E1,1.8E1,2.5E1,3.9E1,8E0,8.2E1,8E0,1E1,8E0,9E0,1.6E1,7.4E1,8E0,8E0,8E0],"tree_param":{"num_deleted":"0","num_feature":"24","num_nodes":"23","size_leaf_vector":"1"}},{"base_weights":[9.484158E0,-2.9281073E2,5.629787E2,-3.73025E2,1.438424E0,-2.6542645E0,3.1278543E1,-2.2797663E1,-1.6718875E2,-5.8441157E0,7.92715E1,-9.40297E0,-2.0976903E0,1.1720105E2,-1.1216768E0,1.1664919E-1,8.626271E0],"categories":[],"categories_nodes":[],"categories_segments":[],"categories_sizes":[],"default_left":[0,0,0,0,0,0,0,0,0,0,0,0,0,0,0,0,0],"id":2,"left_children":[1,3,5,7,9,-1,-1,-1,11,-1,13,-1,-1,15,-1,-1,-1],"loss_changes":[4.8327224E7,4.42058E6,4.380944E6,1.86796E6,5.358952E5,0E0,0E0,0E0,8.0699375E4,0E0,1.5937505E5,0E0,0E0,1.685396E5,0E0,0E0,0E0],"parents":[2147483647,0,0,1,1,2,2,3,3,4,4,8,8,10,10,13,13],"right_children":[2,4,6,8,10,-1,-1,-1,12,-1,14,-1,-1,16,-1,-1,-1],"split_conditions":[1.162E3,3.675337E3,9.95E1,9.07E1,7.66E2,-2.6542645E0,3.1278543E1,-2.2797663E1,1.63581E3,-5.8441157E0,4.16633E3,-9.40297E0,-2.0976903E0,9.95E1,-1.1216768E0,1.1664919E-1,8.626271E0],"split_indices":[21,19,2,1,21,0,0,0,20,0,14,0,0,2,0,0,0],"split_type":[0,0,0,0,0,0,0,0,0,0,0,0,0,0,0,0,0],"sum_hessian":[2.71E2,1.78E2,9.3E1,1.38E2,4E1,9E0,8.4E1,9E1,4.8E1,1.4E1,2.6E1,3.7E1,1.1E1,1.8E1,8E0,9E0,9E0],"tree_param":{"num_deleted":"0","num_feature":"24","num_nodes":"17","size_leaf_vector":"1"}},{"base_weights":[-7.755093E0,-2.9689767E2,5.343498E2,-3.7693765E2,-1.7616339E1,-2.588067E0,2.9701433E1,-2.7737934E1,-2.6396048E2,-6.0577536E0,6.9395645E1,-1.38358345E1,-3.3712952E0,-1.2149513E0,1.1222647E2,1.2050132E0,7.0004478E0],"categories":[],"categories_nodes":[],"categories_segments":[],"categories_sizes":[],"default_left":[0,0,0,0,0,0,0,0,0,0,0,0,0,0,0,0,0],"id":3,"left_children":[1,3,5,7,9,-1,-1,-1,11,-1,13,-1,-1,-1,15,-1,-1],"loss_changes":[4.5934892E7,4.206744E6,3.979252E6,1.681582E6,5.463785E5,0E0,0E0,0E0,1.2064E5,0E0,1.6165188E5,0E0,0E0,0E0,3.0577062E4,0E0,0E0],"parents":[2147483647,0,0,1,1,2,2,3,3,4,4,8,8,10,10,14,14],"right_children":[2,4,6,8,10,-1,-1,-1,12,-1,14,-1,-1,-1,16,-1,-1],"split_conditions":[1.162E3,3.951E3,9.95E1,2E0,7.66E2,-2.588067E0,2.9701433E1,-2.7737934E1,6.474809E1,-6.0577536E0,3E0,-1.38358345E1,-3.3712952E0,-1.2149513E0,7.51E1,1.2050132E0,7.0004478E0],"split_indices":[21,0,2,13,21,0,0,0,22,0,16,0,0,0,3,0,0],"split_type":[0,0,0,0,0,0,0,0,0,0,0,0,0,0,0,0,0],"sum_hessian":[2.75E2,1.82E2,9.3E1,1.39E2,4.3E1,9E0,8.4E1,4E1,9.9E1,1.8E1,2.5E1,8.9E1,1E1,9E0,1.6E1,8E0,8E0],"tree_param":{"num_deleted":"0","num_feature":"24","num_nodes":"17","size_leaf_vector":"1"}},{"base_weights":[-1.87246E0,-2.7555923E2,5.104259E2,-3.431817E2,2.5690825E1,-2.5235195E0,2.8413837E1,-2.4502924E1,-2.3024855E2,-4.1265845E0,8.6489944E1,-2.4734093E2,-1.764795E0,-5.537787E-1,6.1527023E0,-1.2954512E1,-2.5468168E0],"categories":[],"categories_nodes":[],"categories_segments":[],"categories_sizes":[],"default_left":[0,0,0,0,0,0,0,0,0,0,0,0,0,0,0,0,0],"id":4,"left_children":[1,3,5,7,9,-1,-1,-1,11,-1,13,15,-1,-1,-1,-1,-1],"loss_changes":[4.065679E7,3.931032E6,3.657768E6,1.580278E6,3.479127E5,0E0,0E0,0E0,2.68986E5,0E0,1.2861392E5,1.15081E5,0E0,0E0,0E0,0E0,0E0],"parents":[2147483647,0,0,1,1,2,2,3,3,4,4,8,8,10,10,11,11],"right_children":[2,4,6,8,10,-1,-1,-1,12,-1,14,16,-1,-1,-1,-1,-1],"split_conditions":[1.162E3,2.000775E3,9.95E1,3E0,7.68E2,-2.5235195E0,2.8413837E1,-2.4502924E1,9.94E1,-4.1265845E0,9.95E1,6.64E1,-1.764795E0,-5.537787E-1,6.1527023E0,-1.2954512E1,-2.5468168E0],"split_indices":[21,20,2,13,21,0,0,0,2,0,2,6,0,0,0,0,0],"split_type":[0,0,0,0,0,0,0,0,0,0,0,0,0,0,0,0,0],"sum_hessian":[2.72E2,1.8E2,9.2E1,1.46E2,3.4E1,9E0,8.3E1,5E1,9.6E1,1.1E1,2.3E1,8.6E1,1E1,8E0,1.5E1,7.8E1,8E0],"tree_param":{"num_deleted":"0","num_feature":"24","num_nodes":"17","size_leaf_vector":"1"}},{"base_weights":[-2.0757544E0,-2.4802829E2,5.1095074E2,-3.288806E2,6.278089E1,3.4750829E0,2.71332E1,-3.978409E2,-1.536176E2,1.3199608E2,-2.7717028E0,-5.5473833E0,-2.0774563E1,-8.682163E0,-1.725293E0,1.1738535E1,-2.7678645E0],"categories":[],"categories_nodes":[],"categories_segments":[],"categories_sizes":[],"default_left":[1,0,0,0,0,0,0,0,0,0,0,0,0,0,0,0,0],"id":5,"left_children":[1,3,5,7,9,-1,-1,11,13,15,-1,-1,-1,-1,-1,-1,-1],"loss_changes":[3.658974E7,5.112027E6,1.051576E6,1.344828E6,4.5968597E5,0E0,0E0,1.6684E5,8.935825E4,7.5971506E5,0E0,0E0,0E0,0E0,0E0,0E0,0E0],"parents":[2147483647,0,0,1,1,2,2,3,3,4,4,7,7,8,8,9,9],"right_children":[2,4,6,8,10,-1,-1,12,14,16,-1,-1,-1,-1,-1,-1,-1],"split_conditions":[2E0,2.000775E3,9.68E1,9.07E1,4.02767E3,3.4750829E0,2.71332E1,4.6344353E1,1.63581E3,1.2E0,-2.7717028E0,-5.5473833E0,-2.0774563E1,-8.682163E0,-1.725293E0,1.1738535E1,-2.7678645E0],"split_indices":[12,20,4,1,14,0,0,22,20,9,0,0,0,0,0,0,0],"split_type":[0,0,0,0,0,0,0,0,0,0,0,0,0,0,0,0,0],"sum_hessian":[2.72E2,1.87E2,8.5E1,1.48E2,3.9E1,8E0,7.7E1,9.8E1,5E1,2.4E1,1.5E1,1E1,8.8E1,3.9E1,1.1E1,1.4E1,1E1],"tree_param":{"num_deleted":"0","num_feature":"24","num_nodes":"17","size_leaf_vector":"1"}},{"base_weights":[-9.726851E0,-2.5049663E2,4.5099768E2,-3.2174084E2,-4.270747E0,8.4149796E1,2.5754665E1,-2.4465853E1,-2.254876E2,-6.018929E1,5.5799723E0,9.332212E0,-2.736448E0,-2.4638586E2,-3.6173248E-1,6.063722E-1,-9.061412E1,-1.2994373E1,-4.3638043E0,-5.977138E0,-2.1345292E-1],"categories":[],"categories_nodes":[],"categories_segments":[],"categories_sizes":[],"default_left":[0,0,1,0,0,0,0,0,0,0,0,0,0,0,0,0,0,0,0,0,0],"id":6,"left_children":[1,3,5,7,9,11,-1,-1,13,15,-1,-1,-1,17,-1,-1,19,-1,-1,-1,-1],"loss_changes":[3.2292228E7,3.335602E6,2.024944E6,1.413179E6,3.9812872E5,4.660362E5,0E0,0E0,4.883285E5,1.0065169E5,0E0,0E0,0E0,2.41715E4,0E0,0E0,7.052969E4,0E0,0E0,0E0,0E0],"parents":[2147483647,0,0,1,1,2,2,3,3,4,4,5,5,8,8,9,9,13,13,16,16],"right_children":[2,4,6,8,10,12,-1,-1,14,16,-1,-1,-1,18,-1,-1,20,-1,-1,-1,-1],"split_conditions":[1.162E3,3.951E3,2E0,1.386E3,2.694911E3,1.276E3,2.5754665E1,-2.4465853E1,6.474809E1,5E0,5.5799723E0,9.332212E0,-2.736448E0,1E0,-3.6173248E-1,6.063722E-1,5.197097E3,-1.2994373E1,-4.3638043E0,-5.977138E0,-2.1345292E-1],"split_indices":[21,0,12,0,20,21,0,0,22,17,0,0,0,18,0,0,19,0,0,0,0],"split_type":[0,0,0,0,0,0,0,0,0,0,0,0,0,0,0,0,0,0,0,0,0],"sum_hessian":[2.73E2,1.82E2,9.1E1,1.39E2,4.3E1,1.7E1,7.4E1,3.7E1,1.02E2,3.2E1,1.1E1,8E0,9E0,9.2E1,1E1,1.1E1,2.1E1,7.9E1,1.3E1,1.3E1,8E0],"tree_param":{"num_deleted":"0","num_feature":"24","num_nodes":"21","size_leaf_vector":"1"}},{"base_weights":[-1.5478945E0,-2.9799228E2,3.5606018E2,-2.3588673E1,-2.0692026E2,9.262439E1,4.9351483E2,-2.1954301E2,-6.8979174E-1,-3.1901112E1,1.7577052E2,2.668922E1,2.1539524E0,-2.3318681E2,-9.7090274E-1,-3.7594752E0,1.42921E0,2.1564355E0,1.2222404E1,-1.2195549E1,-2.1836262E0],"categories":[],"categories_nodes":[],"categories_segments":[],"categories_sizes":[],"default_left":[0,0,1,0,0,0,0,0,0,0,0,0,0,0,0,0,0,0,0,0,0],"id":7,"left_children":[1,3,5,-1,7,9,11,13,-1,15,17,-1,-1,19,-1,-1,-1,-1,-1,-1,-1],"loss_changes":[3.0632838E7,1.640741E6,4.328382E6,0E0,2.63519E5,6.309031E5,1.384324E6,2.631205E5,0E0,9.887788E4,2.2506838E5,0E0,0E0,1.30332E5,0E0,0E0,0E0,0E0,0E0,0E0,0E0],"parents":[2147483647,0,0,1,1,2,2,4,4,5,5,6,6,7,7,9,9,10,10,13,13],"right_children":[2,4,6,-1,8,10,12,14,-1,16,18,-1,-1,20,-1,-1,-1,-1,-1,-1,-1],"split_conditions":[2.098973E3,1.386E3,6E0,-2.3588673E1,4.36E0,9.95E1,1.075E1,6.5076294E1,-6.8979174E-1,3.360287E-1,2E0,2.668922E1,2.1539524E0,9.97E1,-9.7090274E-1,-3.7594752E0,1.42921E0,2.1564355E0,1.2222404E1,-1.2195549E1,-2.1836262E0],"split_indices":[20,0,12,0,15,2,13,22,0,23,7,0,0,2,0,0,0,0,0,0,0],"split_type":[0,0,0,0,0,0,0,0,0,0,0,0,0,0,0,0,0,0,0,0,0],"sum_hessian":[2.71E2,1.49E2,1.22E2,3.8E1,1.11E2,4.7E1,7.5E1,1.03E2,8E0,2.1E1,2.6E1,6.7E1,8E0,9.5E1,8E0,1.1E1,1E1,1.4E1,1.2E1,8.7E1,8E0],"tree_param":{"num_deleted":"0","num_feature":"24","num_nodes":"21","size_leaf_vector":"1"}},{"base_weights":[-1.7619503E0,-2.3121213E2,4.3662463E2,-2.9524988E2,-8.833541E0,4.9322098E2,6.019353E-1,-2.2173065E1,-2.0923157E2,-9.90206E1,6.490659E1,2.5618269E1,6.6276197E0,-2.2502248E2,-2.2347553E0,-1.3223316E-1,-6.876394E0,-2.2238067E-1,6.088254E0,-1.164672E1,-2.9237707E0],"categories":[],"categories_nodes":[],"categories_segments":[],"categories_sizes":[],"default_left":[0,0,0,0,0,0,0,0,0,0,0,0,0,0,0,0,0,0,0,0,0],"id":8,"left_children":[1,3,5,7,9,11,-1,-1,13,15,17,-1,-1,19,-1,-1,-1,-1,-1,-1,-1],"loss_changes":[2.9268444E7,2.694152E6,2.345266E6,1.06661E6,4.0360488E5,4.7192E4,0E0,0E0,1.95593E5,9.7161625E4,1.4076345E5,0E0,0E0,1.90495E4,0E0,0E0,0E0,0E0,0E0,0E0,0E0],"parents":[2147483647,0,0,1,1,2,2,3,3,4,4,5,5,8,8,9,9,10,10,13,13],"right_children":[2,4,6,8,10,12,-1,-1,14,16,18,-1,-1,20,-1,-1,-1,-1,-1,-1,-1],"split_conditions":[1.162E3,3.951E3,7.43E1,3.88E2,7.68E2,3.0978024E0,6.019353E-1,-2.2173065E1,6.474809E1,9.97E1,7.64E1,2.5618269E1,6.6276197E0,9.6E1,-2.2347553E0,-1.3223316E-1,-6.876394E0,-2.2238067E-1,6.088254E0,-1.164672E1,-2.9237707E0],"split_indices":[21,0,3,21,21,23,0,0,22,4,3,0,0,1,0,0,0,0,0,0,0],"split_type":[0,0,0,0,0,0,0,0,0,0,0,0,0,0,0,0,0,0,0,0,0],"sum_hessian":[2.73E2,1.82E2,9.1E1,1.39E2,4.3E1,7.9E1,1.2E1,3.7E1,1.02E2,1.8E1,2.5E1,7.1E1,8E0,9E1,1.2E1,8E0,1E1,1.5E1,1E1,8.2E1,8E0],"tree_param":{"num_deleted":"0","num_feature":"24","num_nodes":"21","size_leaf_vector":"1"}},{"base_weights":[-1.4373989E0,-2.2095276E2,4.1378934E2,-3.3491605E2,-9.1941124E1,-2.5065062E0,2.3125134E1,-2.092671E1,-9.082305E0,-1.26504265E2,5.3023963E0,-1.420944E2,8.062945E-1,-6.902927E-1,-1.5786864E2,-1.7257434E2,-8.820304E-1,-1.0341803E1,-3.4522996E0],"categories":[],"categories_nodes":[],"categories_segments":[],"categories_sizes":[],"default_left":[0,0,0,0,0,0,0,0,0,0,0,0,0,0,0,0,0,0,0],"id":9,"left_children":[1,3,5,7,9,-1,-1,-1,-1,11,-1,13,-1,-1,15,17,-1,-1,-1],"loss_changes":[2.6612514E7,2.52851E6,2.574306E6,5.81451E5,8.202212E5,0E0,0E0,0E0,0E0,2.2388825E5,0E0,1.470425E5,0E0,0E0,1.21693625E5,1.03938625E5,0E0,0E0,0E0],"parents":[2147483647,0,0,1,1,2,2,3,3,4,4,9,9,11,11,14,14,15,15],"right_children":[2,4,6,8,10,-1,-1,-1,-1,12,-1,14,-1,-1,16,18,-1,-1,-1],"split_conditions":[1.162E3,1.29545E3,9.95E1,8.68E1,2.694911E3,-2.5065062E0,2.3125134E1,-2.092671E1,-9.082305E0,1E0,5.3023963E0,4.34E1,8.062945E-1,-6.902927E-1,6.5031334E1,9.1E1,-8.820304E-1,-1.0341803E1,-3.4522996E0],"split_indices":[21,20,2,1,20,0,0,0,0,18,0,6,0,0,22,1,0,0,0],"split_type":[0,0,0,0,0,0,0,0,0,0,0,0,0,0,0,0,0,0,0],"sum_hessian":[2.74E2,1.82E2,9.2E1,8.9E1,9.3E1,9E0,8.3E1,4.7E1,4.2E1,8.2E1,1.1E1,7.4E1,8E0,1E1,6.4E1,5.6E1,8E0,3.5E1,2.1E1],"tree_param":{"num_deleted":"0","num_feature":"24","num_nodes":"19","size_leaf_vector":"1"}},{"base_weights":[-4.3689537E0,-2.143199E2,3.9302936E2,-3.810448E2,-1.2543509E2,2.2526443E1,-1.9672863E-1,-2.1295557E1,-6.723004E0,-1.8482925E2,1.2210319E1,-1.9474316E2,-2.1737947E0,-4.087958E1,5.91003E0,-1.0299303E1,-2.6393824E0,-7.623899E1,1.6915591E0,1.9828515E-1,-5.3493E0],"categories":[],"categories_nodes":[],"categories_segments":[],"categories_sizes":[],"default_left":[0,0,0,0,0,0,0,0,0,0,0,0,0,0,0,0,0,0,0,0,0],"id":10,"left_children":[1,3,5,7,9,-1,-1,-1,-1,11,13,15,-1,17,-1,-1,-1,19,-1,-1,-1],"loss_changes":[2.4364994E7,2.397604E6,2.389767E6,1.86255E5,1.1494515E6,0E0,0E0,0E0,0E0,5.783525E4,3.2643475E5,4.94735E4,0E0,1.2931245E5,0E0,0E0,0E0,7.9418625E4,0E0,0E0,0E0],"parents":[2147483647,0,0,1,1,2,2,3,3,4,4,9,9,10,10,11,11,13,13,17,17],"right_children":[2,4,6,8,10,-1,-1,-1,-1,12,14,16,-1,18,-1,-1,-1,20,-1,-1,-1],"split_conditions":[1.162E3,3E0,7.43E1,1.475082E3,9.92E1,2.2526443E1,-1.9672863E-1,-2.1295557E1,-6.723004E0,6.64E1,2.38E0,3.146E3,-2.1737947E0,7.61E1,5.91003E0,-1.0299303E1,-2.6393824E0,9.74E1,1.6915591E0,1.9828515E-1,-5.3493E0],"split_indices":[21,13,3,20,2,0,0,0,0,6,15,0,0,3,0,0,0,4,0,0,0],"split_type":[0,0,0,0,0,0,0,0,0,0,0,0,0,0,0,0,0,0,0,0,0],"sum_hessian":[2.74E2,1.82E2,9.2E1,5.3E1,1.29E2,7.9E1,1.3E1,3.9E1,1.4E1,8.8E1,4.1E1,7.9E1,9E0,3.1E1,1E1,6.9E1,1E1,2.1E1,1E1,8E0,1.3E1],"tree_param":{"num_deleted":"0","num_feature":"24","num_nodes":"21","size_leaf_vector":"1"}},{"base_weights":[-4.1449943E0,-2.034598E2,3.7689087E2,-2.0233454E1,-1.310319E2,-2.502056E0,4.2417432E2,-1.6311824E2,6.55706E1,1.011325E1,2.371938E1,-1.809264E2,-5.0677116E1,6.1314588E0,-1.8117607E0,-1.9287157E2,-2.2753425E0,-3.7140691E0,1.7123896E-1,-1.0306197E1,-2.8755739E0],"categories":[],"categories_nodes":[],"categories_segments":[],"categories_sizes":[],"default_left":[0,0,0,0,0,0,0,0,0,0,0,0,0,0,0,0,0,0,0,0,0],"id":11,"left_children":[1,3,5,-1,7,-1,9,11,13,-1,-1,15,17,-1,-1,19,-1,-1,-1,-1,-1],"loss_changes":[2.2102334E7,2.322097E6,2.212895E6,0E0,1.0680178E6,0E0,1.728E5,1.86381E5,2.0477756E5,0E0,0E0,1.018195E5,4.2807703E4,0E0,0E0,8.20935E4,0E0,0E0,0E0,0E0,0E0],"parents":[2147483647,0,0,1,1,2,2,4,4,6,6,7,7,8,8,11,11,12,12,15,15],"right_children":[2,4,6,-1,8,-1,10,12,14,-1,-1,16,18,-1,-1,20,-1,-1,-1,-1,-1],"split_conditions":[1.162E3,1.386E3,9.95E1,-2.0233454E1,5.22145E3,-2.502056E0,5.292E3,9.95E1,4.16633E3,1.011325E1,2.371938E1,6.64E1,3.592688E3,6.1314588E0,-1.8117607E0,4.26E3,-2.2753425E0,-3.7140691E0,1.7123896E-1,-1.0306197E1,-2.8755739E0],"split_indices":[21,0,2,0,19,0,0,2,14,0,0,6,19,0,0,0,0,0,0,0,0],"split_type":[0,0,0,0,0,0,0,0,0,0,0,0,0,0,0,0,0,0,0,0,0],"sum_hessian":[2.73E2,1.82E2,9.1E1,3.7E1,1.45E2,9E0,8.2E1,1.26E2,1.9E1,2.4E1,5.8E1,1.04E2,2.2E1,1.1E1,8E0,9.2E1,1.2E1,1.3E1,9E0,7.9E1,1.3E1],"tree_param":{"num_deleted":"0","num_feature":"24","num_nodes":"21","size_leaf_vector":"1"}},{"base_weights":[-5.921478E0,-1.9575119E2,3.569879E2,-3.4964124E2,-1.1607046E2,4.1253784E2,-2.910231E-1,-1.9549068E1,-6.3352532E0,-1.6627727E2,1.2815838E1,4.3233017E2,5.135506E0,-1.7429315E2,-1.719876E0,-6.784347E1,1.01728546E2,9.147225E0,2.413172E1,-1.8285213E2,-1.9623946E0,-5.872998E0,4.90313E-1,7.383368E0,-4.3681037E-2,-9.853642E0,-3.2690346E0],"categories":[],"categories_nodes":[],"categories_segments":[],"categories_sizes":[],"default_left":[0,0,0,0,0,0,0,0,0,0,0,0,0,0,0,0,0,0,0,0,0,0,0,0,0,0,0],"id":12,"left_children":[1,3,5,7,9,11,-1,-1,-1,13,15,17,-1,19,-1,21,23,-1,-1,25,-1,-1,-1,-1,-1,-1,-1],"loss_changes":[1.9845306E7,1.949741E6,2.019319E6,1.19085E5,9.130266E5,1.22844E5,0E0,0E0,0E0,5.014575E4,3.9909756E5,2.06691E5,0E0,4.00205E4,0E0,1.2769744E5,1.2605209E5,0E0,0E0,2.875175E4,0E0,0E0,0E0,0E0,0E0,0E0,0E0],"parents":[2147483647,0,0,1,1,2,2,3,3,4,4,5,5,9,9,10,10,11,11,13,13,15,15,16,16,19,19],"right_children":[2,4,6,8,10,12,-1,-1,-1,14,16,18,-1,20,-1,22,24,-1,-1,26,-1,-1,-1,-1,-1,-1,-1],"split_conditions":[1.162E3,3E0,7.43E1,2.430531E3,3.462E3,3.89E1,-2.910231E-1,-1.9549068E1,-6.3352532E0,8.25E1,4.73E1,5.292E3,5.135506E0,9.41E2,-1.719876E0,3.8218266E-1,1.1E1,9.147225E0,2.413172E1,6.332272E1,-1.9623946E0,-5.872998E0,4.90313E-1,7.383368E0,-4.3681037E-2,-9.853642E0,-3.2690346E0],"split_indices":[21,13,3,19,0,8,0,0,0,3,6,0,0,21,0,23,13,0,0,22,0,0,0,0,0,0,0],"split_type":[0,0,0,0,0,0,0,0,0,0,0,0,0,0,0,0,0,0,0,0,0,0,0,0,0,0,0],"sum_hessian":[2.7E2,1.8E2,9E1,5.1E1,1.29E2,7.7E1,1.3E1,3.7E1,1.4E1,9.1E1,3.8E1,6.9E1,8E0,8.3E1,8E0,2.1E1,1.7E1,1.9E1,5E1,7.5E1,8E0,1E1,1.1E1,9E0,8E0,6.1E1,1.4E1],"tree_param":{"num_deleted":"0","num_feature":"24","num_nodes":"27","size_leaf_vector":"1"}},{"base_weights":[-3.1550348E0,-1.7786479E2,3.715085E2,-2.3710197E2,3.6454754E1,4.042763E2,1.8027135E0,-1.9001646E1,-1.6581087E2,1.00338356E2,-3.4923298E0,1.4065405E2,2.2366768E1,-1.7582878E2,-6.1005753E-1,-2.7179152E1,1.1013157E1,8.751979E0,1.5370407E0,-1.8398958E2,-1.6415693E0,-3.4618833E0,1.449808E0,-3.059998E0,-9.593989E0],"categories":[],"categories_nodes":[],"categories_segments":[],"categories_sizes":[],"default_left":[1,0,0,0,0,0,0,0,0,0,0,0,0,0,0,0,0,0,0,0,0,0,0,0,0],"id":13,"left_children":[1,3,5,7,9,11,-1,-1,13,15,-1,17,-1,19,-1,21,-1,-1,-1,23,-1,-1,-1,-1,-1],"loss_changes":[1.872213E7,2.554342E6,8.65304E5,1.012672E6,4.035587E5,3.94809E5,0E0,0E0,1.6242225E5,5.93736E5,0E0,4.5984188E4,0E0,7.3492E4,0E0,7.790938E4,0E0,0E0,0E0,4.79E2,0E0,0E0,0E0,0E0,0E0],"parents":[2147483647,0,0,1,1,2,2,3,3,4,4,5,5,8,8,9,9,11,11,13,13,15,15,19,19],"right_children":[2,4,6,8,10,12,-1,-1,14,16,-1,18,-1,20,-1,22,-1,-1,-1,24,-1,-1,-1,-1,-1],"split_conditions":[2E0,2.000775E3,1.075E1,1.378E3,7.5E0,4.748037E1,1.8027135E0,-1.9001646E1,6.5076294E1,9.95E1,-3.4923298E0,4.19E1,2.2366768E1,4.29E0,-6.1005753E-1,3.1297034E-1,1.1013157E1,8.751979E0,1.5370407E0,1.484E3,-1.6415693E0,-3.4618833E0,1.449808E0,-3.059998E0,-9.593989E0],"split_indices":[12,20,13,0,13,22,0,0,22,2,0,6,0,15,0,23,0,0,0,0,0,0,0,0,0],"split_type":[0,0,0,0,0,0,0,0,0,0,0,0,0,0,0,0,0,0,0,0,0,0,0,0,0],"sum_hessian":[2.68E2,1.86E2,8.2E1,1.45E2,4.1E1,7.3E1,9E0,3.5E1,1.1E2,2.6E1,1.5E1,1.6E1,5.7E1,1.02E2,8E0,1.6E1,1E1,8E0,8E0,9.4E1,8E0,8E0,8E0,1.1E1,8.3E1],"tree_param":{"num_deleted":"0","num_feature":"24","num_nodes":"25","size_leaf_vector":"1"}},{"base_weights":[1.4949894E0,-2.2586494E2,2.64179E2,-3.4581592E2,-1.455813E2,2.6756823E1,3.416746E2,-1.8550152E1,-5.1510973E0,-8.599335E0,-5.0855034E1,-2.6264393E1,5.310374E0,3.835037E2,8.820615E-1,1.450754E0,-4.0946774E0,1.1405678E0,-3.2137113E0,2.625977E2,2.57623E1,1.4275835E1,3.961337E0],"categories":[],"categories_nodes":[],"categories_segments":[],"categories_sizes":[],"default_left":[0,0,0,0,0,0,0,0,0,0,0,0,0,0,0,0,0,0,0,0,0,0,0],"id":14,"left_children":[1,3,5,7,9,11,13,-1,-1,-1,15,17,-1,19,-1,-1,-1,-1,-1,21,-1,-1,-1],"loss_changes":[1.7376722E7,1.0467565E6,2.398889E6,1.1235E4,1.987165E5,2.0760945E5,1.304685E6,0E0,0E0,0E0,1.14522234E5,7.554139E4,0E0,2.13023E5,0E0,0E0,0E0,0E0,0E0,7.79605E4,0E0,0E0,0E0],"parents":[2147483647,0,0,1,1,2,2,3,3,4,4,5,5,6,6,10,10,11,11,13,13,19,19],"right_children":[2,4,6,8,10,12,14,-1,-1,-1,16,18,-1,20,-1,-1,-1,-1,-1,22,-1,-1,-1],"split_conditions":[2.000775E3,3.85904E3,1.164E3,2.480951E3,9.26E1,2.726682E3,7.43E1,-1.8550152E1,-5.1510973E0,-8.599335E0,9.43E1,2.346966E3,5.310374E0,6.63E3,8.820615E-1,1.450754E0,-4.0946774E0,1.1405678E0,-3.2137113E0,4.21646E3,2.57623E1,1.4275835E1,3.961337E0],"split_indices":[20,14,21,19,1,20,3,0,0,0,1,20,0,0,0,0,0,0,0,14,0,0,0],"split_type":[0,0,0,0,0,0,0,0,0,0,0,0,0,0,0,0,0,0,0,0,0,0,0],"sum_hessian":[2.73E2,1.47E2,1.26E2,4.7E1,1E2,3.4E1,9.2E1,3.8E1,9E0,7.2E1,2.8E1,2.4E1,1E1,8E1,1.2E1,8E0,2E1,1.2E1,1.2E1,5.6E1,2.4E1,4.5E1,1.1E1],"tree_param":{"num_deleted":"0","num_feature":"24","num_nodes":"23","size_leaf_vector":"1"}},{"base_weights":[-4.489077E0,-2.0178069E2,2.7036856E2,-1.7290554E1,-1.3800562E2,-4.8504025E1,3.2368997E2,-1.5675507E2,-1.3307768E1,-4.1865335E0,6.114819E-1,3.5192456E2,6.2276965E-1,-1.6464275E2,-1.2300547E0,-3.5408401E0,2.5270607E0,2.0686629E2,4.6046158E2,-8.712636E0,-2.413763E0,2.4004959E2,6.710639E-2,2.6256142E1,5.607459E0,2.5491612E0,1.3496365E1],"categories":[],"categories_nodes":[],"categories_segments":[],"categories_sizes":[],"default_left":[0,0,0,0,0,0,0,0,0,0,0,0,0,0,0,0,0,0,0,0,0,0,0,0,0,0,0],"id":15,"left_children":[1,3,5,-1,7,9,11,13,15,-1,-1,17,-1,19,-1,-1,-1,21,23,-1,-1,25,-1,-1,-1,-1,-1],"loss_changes":[1.5563228E7,1.113874E6,2.182774E6,0E0,2.8633975E5,6.3689848E4,8.71597E5,7.989975E4,1.3229548E5,0E0,0E0,6.35641E5,0E0,4.736175E4,0E0,0E0,0E0,3.840265E5,5.51124E5,0E0,0E0,1.5884225E5,0E0,0E0,0E0,0E0,0E0],"parents":[2147483647,0,0,1,1,2,2,4,4,5,5,6,6,7,7,8,8,11,11,13,13,17,17,18,18,21,21],"right_children":[2,4,6,-1,8,10,12,14,16,-1,-1,18,-1,20,-1,-1,-1,22,24,-1,-1,26,-1,-1,-1,-1,-1],"split_conditions":[9.55E2,1.386E3,9.95E1,-1.7290554E1,4.998E3,3.1380787E-1,1.075E1,6.66E1,4.49E1,-4.1865335E0,6.114819E-1,3.042933E3,6.2276965E-1,9.95E1,-1.2300547E0,-3.5408401E0,2.5270607E0,4.3029E3,1E2,-8.712636E0,-2.413763E0,2E0,6.710639E-2,2.6256142E1,5.607459E0,2.5491612E0,1.3496365E1],"split_indices":[21,0,2,0,0,23,13,6,6,0,0,20,0,2,0,0,0,14,4,0,0,16,0,0,0,0,0],"split_type":[0,0,0,0,0,0,0,0,0,0,0,0,0,0,0,0,0,0,0,0,0,0,0,0,0,0,0],"sum_hessian":[2.69E2,1.58E2,1.11E2,3.6E1,1.22E2,1.6E1,9.5E1,1.04E2,1.8E1,8E0,8E0,8.6E1,9E0,9.6E1,8E0,9E0,9E0,4.8E1,3.8E1,8.4E1,1.2E1,4E1,8E0,2.8E1,1E1,9E0,3.1E1],"tree_param":{"num_deleted":"0","num_feature":"24","num_nodes":"27","size_leaf_vector":"1"}},{"base_weights":[-1.192259E1,-1.5251299E2,3.2641632E2,-2.1057976E2,3.384099E1,3.6020605E2,1.1950338E0,-1.7291515E1,-1.4361198E2,1.00980385E2,-5.7448967E1,5.6779876E0,1.9492119E1,-1.5517091E2,-1.1673181E0,-1.1674473E0,1.0226168E1,2.0646285E-1,-4.136783E0,-1.635322E2,-1.2187215E0,-8.607048E0,-2.1420465E0],"categories":[],"categories_nodes":[],"categories_segments":[],"categories_sizes":[],"default_left":[1,0,0,0,0,0,0,0,0,0,0,0,0,0,0,0,0,0,0,0,0,0,0],"id":16,"left_children":[1,3,5,7,9,11,-1,-1,13,15,17,-1,-1,19,-1,-1,-1,-1,-1,21,-1,-1,-1],"loss_changes":[1.3430525E7,2.2183135E6,7.67753E5,9.47636E5,3.8934425E5,1.61916E5,0E0,0E0,1.3002975E5,4.9825528E5,4.9297688E4,0E0,0E0,7.862375E4,0E0,0E0,0E0,0E0,0E0,4.09075E4,0E0,0E0,0E0],"parents":[2147483647,0,0,1,1,2,2,3,3,4,4,5,5,8,8,9,9,10,10,13,13,19,19],"right_children":[2,4,6,8,10,12,-1,-1,14,16,18,-1,-1,20,-1,-1,-1,-1,-1,22,-1,-1,-1],"split_conditions":[4E0,2.000775E3,1.075E1,1.378E3,4.02937E3,4.752186E1,1.1950338E0,-1.7291515E1,6.474809E1,9.95E1,4.748E3,5.6779876E0,1.9492119E1,4.27E0,-1.1673181E0,-1.1674473E0,1.0226168E1,2.0646285E-1,-4.136783E0,9.96E1,-1.2187215E0,-8.607048E0,-2.1420465E0],"split_indices":[12,20,13,0,14,22,0,0,22,2,0,0,0,15,0,0,0,0,0,2,0,0,0],"split_type":[0,0,0,0,0,0,0,0,0,0,0,0,0,0,0,0,0,0,0,0,0,0,0],"sum_hessian":[2.64E2,1.9E2,7.4E1,1.44E2,4.6E1,6.5E1,9E0,3.5E1,1.09E2,2.6E1,2E1,1.2E1,5.3E1,9.7E1,1.2E1,1.5E1,1.1E1,8E0,1.2E1,8.9E1,8E0,7.9E1,1E1],"tree_param":{"num_deleted":"0","num_feature":"24","num_nodes":"23","size_leaf_vector":"1"}},{"base_weights":[-2.398693E0,-1.5158107E2,3.1912128E2,-2.9624286E2,-7.930786E1,1.07719154E2,3.724279E2,-1.6505169E1,-5.7961326E0,9.326602E1,-1.3062296E2,7.843393E0,1.1326745E0,4.0083485E0,2.0130829E1,-9.309744E0,9.002301E0,-1.6162997E2,-7.976419E1,-3.0229204E0,2.4712927E0,-8.644611E0,-1.8906989E0,6.8906415E-1,-5.016435E0],"categories":[],"categories_nodes":[],"categories_segments":[],"categories_sizes":[],"default_left":[1,0,0,0,0,0,0,0,0,0,0,0,0,0,0,0,0,0,0,0,0,0,0,0,0],"id":17,"left_children":[1,3,5,7,9,11,13,-1,-1,15,17,-1,-1,-1,-1,19,-1,21,23,-1,-1,-1,-1,-1,-1],"loss_changes":[1.3766355E7,1.835494E6,6.61803E5,4.18335E4,1.3757849E6,9.752656E4,3.42318E5,0E0,0E0,3.5688456E5,6.2351625E4,0E0,0E0,0E0,0E0,1.0571744E5,0E0,3.0589625E4,1.325476E5,0E0,0E0,0E0,0E0,0E0,0E0],"parents":[2147483647,0,0,1,1,2,2,3,3,4,4,5,5,6,6,9,9,10,10,15,15,17,17,18,18],"right_children":[2,4,6,8,10,12,14,-1,-1,16,18,-1,-1,-1,-1,20,-1,22,24,-1,-1,-1,-1,-1,-1],"split_conditions":[2E0,3E0,4.7597553E1,2.451805E3,7.5E0,4.19E1,1.369E3,-1.6505169E1,-5.7961326E0,9.95E1,9.09E1,7.843393E0,1.1326745E0,4.0083485E0,2.0130829E1,3.360287E-1,9.002301E0,6.2252846E1,8.39E1,-3.0229204E0,2.4712927E0,-8.644611E0,-1.8906989E0,6.8906415E-1,-5.016435E0],"split_indices":[12,13,22,19,13,6,21,0,0,2,1,0,0,0,0,23,0,22,2,0,0,0,0,0,0],"split_type":[0,0,0,0,0,0,0,0,0,0,0,0,0,0,0,0,0,0,0,0,0,0,0,0,0],"sum_hessian":[2.69E2,1.87E2,8.2E1,5.3E1,1.34E2,2.2E1,6E1,3.8E1,1.5E1,2.9E1,1.05E2,9E0,1.3E1,9E0,5.1E1,1.7E1,1.2E1,5.3E1,5.2E1,9E0,8E0,4.5E1,8E0,1E1,4.2E1],"tree_param":{"num_deleted":"0","num_feature":"24","num_nodes":"25","size_leaf_vector":"1"}},{"base_weights":[-5.3670177E0,-1.7893936E2,2.4088538E2,-2.8375797E2,-1.0961262E2,6.520425E1,3.2134595E2,-1.5831955E1,-5.507415E0,-4.9845135E1,-7.824052E0,-3.527715E0,1.4416121E2,1.3300375E2,3.8981915E2,-7.319203E1,2.7133164E0,1.8729703E2,7.600711E-2,2.141115E0,8.388871E0,2.1933434E1,6.785948E0,-9.7521286E1,-1.4497139E-1,1.7283643E0,1.1831968E1,-5.700295E0,-5.843392E-1],"categories":[],"categories_nodes":[],"categories_segments":[],"categories_sizes":[],"default_left":[0,0,1,0,0,0,0,0,0,0,0,0,0,0,0,0,0,0,0,0,0,0,0,0,0,0,0,0,0],"id":18,"left_children":[1,3,5,7,9,11,13,-1,-1,15,-1,-1,17,19,21,23,-1,25,-1,-1,-1,-1,-1,27,-1,-1,-1,-1,-1],"loss_changes":[1.2396262E7,9.53264E5,1.5051855E6,4.7036E4,2.5997188E5,6.181344E5,5.623905E5,0E0,0E0,1.9415495E5,0E0,0E0,2.052005E5,4.5008438E4,1.482475E5,9.419372E4,0E0,1.23193375E5,0E0,0E0,0E0,0E0,0E0,4.7952375E4,0E0,0E0,0E0,0E0,0E0],"parents":[2147483647,0,0,1,1,2,2,3,3,4,4,5,5,6,6,9,9,12,12,13,13,14,14,15,15,17,17,23,23],"right_children":[2,4,6,8,10,12,14,-1,-1,16,-1,-1,18,20,22,24,-1,26,-1,-1,-1,-1,-1,28,-1,-1,-1,-1,-1],"split_conditions":[9.55E2,3E0,6E0,1.360991E3,4.13913E3,2E0,5.35E1,-1.5831955E1,-5.507415E0,2.187084E3,-7.824052E0,-3.527715E0,1E1,3E0,1E2,4E0,2.7133164E0,1.14E0,7.600711E-2,2.141115E0,8.388871E0,2.1933434E1,6.785948E0,6.25E1,-1.4497139E-1,1.7283643E0,1.1831968E1,-5.700295E0,-5.843392E-1],"split_indices":[21,13,12,20,14,16,3,0,0,20,0,0,13,16,4,16,0,15,0,0,0,0,0,6,0,0,0,0,0],"split_type":[0,0,0,0,0,0,0,0,0,0,0,0,0,0,0,0,0,0,0,0,0,0,0,0,0,0,0,0,0],"sum_hessian":[2.72E2,1.61E2,1.11E2,5.3E1,1.08E2,4E1,7.1E1,3.8E1,1.5E1,5.6E1,5.2E1,1.5E1,2.5E1,2.6E1,4.5E1,4.8E1,8E0,1.7E1,8E0,1.3E1,1.3E1,3.2E1,1.3E1,3.3E1,1.5E1,8E0,9E0,2.5E1,8E0],"tree_param":{"num_deleted":"0","num_feature":"24","num_nodes":"29","size_leaf_vector":"1"}},{"base_weights":[-2.7919283E0,-1.471269E2,2.954232E2,-2.7964682E2,-7.991317E1,3.2593018E2,1.0920842E0,-1.5313325E1,-5.2089376E0,9.663556E1,-1.184238E2,4.1390524E0,3.48893E2,-2.1035247E0,8.207096E0,-1.2648628E2,-1.3443072E-1,3.396599E0,3.7392932E2,-1.2397541E0,-1.3647823E2,9.922982E0,2.2463217E1,-7.6674213E0,-5.3396286E1,-6.491292E-1,-3.0918748E0],"categories":[],"categories_nodes":[],"categories_segments":[],"categories_sizes":[],"default_left":[1,0,0,0,0,0,0,0,0,0,0,0,0,0,0,0,0,0,0,0,0,0,0,0,0,0,0],"id":19,"left_children":[1,3,5,7,9,11,-1,-1,-1,13,15,-1,17,-1,-1,19,-1,-1,21,-1,23,-1,-1,-1,25,-1,-1],"loss_changes":[1.2268066E7,1.5068952E6,7.09263E5,4.767E3,1.0545959E6,1.99542E5,0E0,0E0,0E0,3.4677772E5,1.0706475E5,0E0,2.80996E5,0E0,0E0,8.1071875E4,0E0,0E0,6.325E4,0E0,6.812675E4,0E0,0E0,0E0,3.0647188E3,0E0,0E0],"parents":[2147483647,0,0,1,1,2,2,3,3,4,4,5,5,9,9,10,10,12,12,15,15,18,18,20,20,24,24],"right_children":[2,4,6,8,10,12,-1,-1,-1,14,16,-1,18,-1,-1,20,-1,-1,22,-1,24,-1,-1,-1,26,-1,-1],"split_conditions":[2E0,3E0,1.075E1,2.451805E3,6E0,1.369E3,1.0920842E0,-1.5313325E1,-5.2089376E0,5.48E1,9.6E1,4.1390524E0,2.2230193E-1,-2.1035247E0,8.207096E0,9E0,-1.3443072E-1,3.396599E0,5.1428715E1,-1.2397541E0,6.330597E1,9.922982E0,2.2463217E1,-7.6674213E0,2.87E1,-6.491292E-1,-3.0918748E0],"split_indices":[12,13,13,19,13,21,0,0,0,1,1,0,23,0,0,13,0,0,22,0,22,0,0,0,8,0,0],"split_type":[0,0,0,0,0,0,0,0,0,0,0,0,0,0,0,0,0,0,0,0,0,0,0,0,0,0,0],"sum_hessian":[2.67E2,1.83E2,8.4E1,5.2E1,1.31E2,7.4E1,1E1,3.9E1,1.3E1,2.1E1,1.1E2,1E1,6.4E1,8E0,1.3E1,1.02E2,8E0,8E0,5.6E1,1.2E1,9E1,2.7E1,2.9E1,6.8E1,2.2E1,8E0,1.4E1],"tree_param":{"num_deleted":"0","num_feature":"24","num_nodes":"27","size_leaf_vector":"1"}},{"base_weights":[-4.32134E0,-1.6390395E2,2.245175E2,-1.4555466E1,-1.09403366E2,-4.3327454E1,2.7042285E2,-1.2433721E2,-9.095725E0,-3.8136892E0,6.180474E-1,1.5171907E2,3.70926E2,-1.3390112E2,-6.1048245E-1,-3.1427157E0,2.443824E0,-1.1682019E-1,1.8189578E2,4.6354423E0,2.0157824E1,-1.4686179E2,-5.7265945E1,2.433115E0,1.0496615E1,-1.5340697E2,-1.9683291E0,-4.1526194E0,3.1814733E-1,-8.151908E0,-2.5342927E0],"categories":[],"categories_nodes":[],"categories_segments":[],"categories_sizes":[],"default_left":[0,0,0,0,0,0,0,0,0,0,0,0,0,0,0,0,0,0,0,0,0,0,0,0,0,0,0,0,0,0,0],"id":20,"left_children":[1,3,5,-1,7,9,11,13,15,-1,-1,17,19,21,-1,-1,-1,-1,23,-1,-1,25,27,-1,-1,29,-1,-1,-1,-1,-1],"loss_changes":[1.0481336E7,8.915415E5,1.557333E6,0E0,1.8813412E5,5.5214375E4,7.07809E5,1.0752275E5,1.1256996E5,0E0,0E0,2.9319712E5,1.17239E5,2.737225E4,0E0,0E0,0E0,0E0,1.050325E5,0E0,0E0,3.27575E3,5.5085062E4,0E0,0E0,3.463125E3,0E0,0E0,0E0,0E0,0E0],"parents":[2147483647,0,0,1,1,2,2,4,4,5,5,6,6,7,7,8,8,11,11,12,12,13,13,18,18,21,21,22,22,25,25],"right_children":[2,4,6,-1,8,10,12,14,16,-1,-1,18,20,22,-1,-1,-1,-1,24,-1,-1,26,28,-1,-1,30,-1,-1,-1,-1,-1],"split_conditions":[9.55E2,1.386E3,9.95E1,-1.4555466E1,4.998E3,3.1380787E-1,3.054355E3,6.474809E1,4.49E1,-3.8136892E0,6.180474E-1,1.162E3,5.980751E3,9.26E1,-6.1048245E-1,-3.1427157E0,2.443824E0,-1.1682019E-1,2E0,4.6354423E0,2.0157824E1,4.26E3,3.93047E3,2.433115E0,1.0496615E1,6.330597E1,-1.9683291E0,-4.1526194E0,3.1814733E-1,-8.151908E0,-2.5342927E0],"split_indices":[21,0,2,0,0,23,20,22,6,0,0,21,19,1,0,0,0,0,16,0,0,0,14,0,0,22,0,0,0,0,0],"split_type":[0,0,0,0,0,0,0,0,0,0,0,0,0,0,0,0,0,0,0,0,0,0,0,0,0,0,0,0,0,0,0],"sum_hessian":[2.69E2,1.6E2,1.09E2,3.6E1,1.24E2,1.6E1,9.3E1,1.06E2,1.8E1,8E0,8E0,5.3E1,4E1,9.6E1,1E1,9E0,9E0,1E1,4.3E1,8E0,3.2E1,7.5E1,2.1E1,1.2E1,3.1E1,6.7E1,8E0,1.3E1,8E0,5.6E1,1.1E1],"tree_param":{"num_deleted":"0","num_feature":"24","num_nodes":"31","size_leaf_vector":"1"}},{"base_weights":[-3.391489E0,-1.3205966E2,2.653008E2,-1.72038E2,2.1647566E1,2.9689566E2,2.0745857E0,-1.3158361E1,-1.1134607E2,-7.112897E1,9.339588E1,1.1743865E2,3.591989E2,-1.2782805E2,-4.3471817E1,-4.953815E0,-1.5639694E-1,7.6855226E0,-1.3592082E0,1.290381E0,1.3641423E2,8.2984915E0,2.1623178E1,-1.2533811E0,-1.3567926E2,3.0593246E-3,-3.3143234E0,8.30715E0,1.5821072E0,-1.484651E2,-2.1864812E0,-8.01857E0,-2.4677188E0],"categories":[],"categories_nodes":[],"categories_segments":[],"categories_sizes":[],"default_left":[1,0,0,0,0,0,0,0,0,0,0,0,0,0,0,0,0,0,0,0,0,0,0,0,0,0,0,0,0,0,0,0,0],"id":21,"left_children":[1,3,5,7,9,11,-1,-1,13,15,17,19,21,23,25,-1,-1,-1,-1,-1,27,-1,-1,-1,29,-1,-1,-1,-1,31,-1,-1,-1],"loss_changes":[9.92391E6,1.2264442E6,5.437155E5,5.995775E5,3.7915738E5,5.122485E5,0E0,0E0,7.0857E4,4.6495688E4,2.66222E5,2.6189719E4,1.393775E5,3.5143625E4,3.5597227E4,0E0,0E0,0E0,0E0,0E0,3.3574438E4,0E0,0E0,0E0,2.818525E4,0E0,0E0,0E0,0E0,3.5715E3,0E0,0E0,0E0],"parents":[2147483647,0,0,1,1,2,2,3,3,4,4,5,5,8,8,9,9,10,10,11,11,12,12,13,13,14,14,20,20,24,24,29,29],"right_children":[2,4,6,8,10,12,-1,-1,14,16,18,20,22,24,26,-1,-1,-1,-1,-1,28,-1,-1,-1,30,-1,-1,-1,-1,32,-1,-1,-1],"split_conditions":[2E0,2.000775E3,3.1088703E0,3.85904E3,3E0,5.605E3,2.0745857E0,-1.3158361E1,9.26E1,3.360287E-1,4.02767E3,5.33E1,3.282608E3,4.3E-1,1.337772E3,-4.953815E0,-1.5639694E-1,7.6855226E0,-1.3592082E0,1.290381E0,9.54E1,8.2984915E0,2.1623178E1,-1.2533811E0,6.330597E1,3.0593246E-3,-3.3143234E0,8.30715E0,1.5821072E0,3.236E3,-2.1864812E0,-8.01857E0,-2.4677188E0],"split_indices":[12,20,23,14,16,0,0,0,1,23,14,3,20,15,20,0,0,0,0,0,1,0,0,0,22,0,0,0,0,0,0,0,0],"split_type":[0,0,0,0,0,0,0,0,0,0,0,0,0,0,0,0,0,0,0,0,0,0,0,0,0,0,0,0,0,0,0,0,0],"sum_hessian":[2.69E2,1.85E2,8.4E1,1.46E2,3.9E1,7.1E1,1.3E1,4.6E1,1E2,1.7E1,2.2E1,2.5E1,4.6E1,7.4E1,2.6E1,9E0,8E0,1.3E1,9E0,8E0,1.7E1,2.1E1,2.5E1,8E0,6.6E1,1.2E1,1.4E1,9E0,8E0,5.3E1,1.3E1,4.2E1,1.1E1],"tree_param":{"num_deleted":"0","num_feature":"24","num_nodes":"33","size_leaf_vector":"1"}},{"base_weights":[7.0657814E-1,-1.2453758E2,2.6322415E2,-1.323444E1,-7.694967E1,2.911891E2,7.2713727E-1,-9.472331E1,4.4752507E0,2.8554254E0,3.0895212E2,-1.0549731E2,1.0917302E0,9.158335E0,2.0337658E1,-1.1174501E2,-7.3636904E-2,-1.2295582E2,-5.1582943E1,-1.5851936E0,-6.4570923E0,4.0958172E-1,-4.2283955E0],"categories":[],"categories_nodes":[],"categories_segments":[],"categories_sizes":[],"default_left":[1,0,0,0,0,0,0,0,0,0,0,0,0,0,0,0,0,0,0,0,0,0,0],"id":22,"left_children":[1,3,5,-1,7,9,-1,11,-1,-1,13,15,-1,-1,-1,17,-1,19,21,-1,-1,-1,-1],"loss_changes":[9.566326E6,1.1369202E6,6.131735E5,0E0,5.50646E5,1.87393E5,0E0,2.0853812E5,0E0,0E0,2.660125E5,8.7414E4,0E0,0E0,0E0,2.9534875E4,0E0,2.43425E4,7.842117E4,0E0,0E0,0E0,0E0],"parents":[2147483647,0,0,1,1,2,2,4,4,5,5,7,7,10,10,11,11,15,15,17,17,18,18],"right_children":[2,4,6,-1,8,10,-1,12,-1,-1,14,16,-1,-1,-1,18,-1,20,22,-1,-1,-1,-1],"split_conditions":[2E0,1.386E3,1.075E1,-1.323444E1,2.861717E3,2.2230193E-1,7.2713727E-1,5.06E0,4.4752507E0,2.8554254E0,3.282608E3,6.5076294E1,1.0917302E0,9.158335E0,2.0337658E1,1.936532E3,-7.3636904E-2,1E0,2.234365E3,-1.5851936E0,-6.4570923E0,4.0958172E-1,-4.2283955E0],"split_indices":[12,0,13,0,20,23,0,15,0,0,20,22,0,0,0,20,0,7,20,0,0,0,0],"split_type":[0,0,0,0,0,0,0,0,0,0,0,0,0,0,0,0,0,0,0,0,0,0,0],"sum_hessian":[2.73E2,1.88E2,8.5E1,3.7E1,1.51E2,7.5E1,1E1,1.4E2,1.1E1,8E0,6.7E1,1.29E2,1.1E1,4.1E1,2.6E1,1.21E2,8E0,9.4E1,2.7E1,1E1,8.4E1,1.2E1,1.5E1],"tree_param":{"num_deleted":"0","num_feature":"24","num_nodes":"23","size_leaf_vector":"1"}},{"base_weights":[1.1733643E0,-1.4640381E2,2.1001276E2,-1.3603463E1,-1.00718025E2,-3.9696423E1,2.52753E2,-1.1288198E2,-9.469003E0,-3.5720992E0,6.4258814E-1,2.747592E2,1.3037167E0,-1.3425735E2,-5.553942E1,-3.1759112E0,2.2986946E0,1.8011203E2,2.1147728E1,-6.9622406E1,-7.716014E0,-7.076146E1,2.400975E-1,1.5099381E0,1.9448431E2,-5.404153E0,1.5353981E0,-4.218599E0,-5.897305E-1,2.136655E2,1.9093251E0,3.5893443E0,1.166875E1],"categories":[],"categories_nodes":[],"categories_segments":[],"categories_sizes":[],"default_left":[0,0,0,0,0,0,0,0,0,0,0,0,0,0,0,0,0,0,0,0,0,0,0,0,0,0,0,0,0,0,0,0,0],"id":23,"left_children":[1,3,5,-1,7,9,11,13,15,-1,-1,17,-1,19,21,-1,-1,23,-1,25,-1,27,-1,-1,29,-1,-1,-1,-1,31,-1,-1,-1],"loss_changes":[8.782076E6,7.167435E5,1.350661E6,0E0,1.4160762E5,5.0749906E4,4.418815E5,7.88215E4,1.0494245E5,0E0,0E0,6.129875E5,0E0,9.6105E3,4.7592594E4,0E0,0E0,1.0051625E5,0E0,1.7095017E5,0E0,2.2307469E4,0E0,0E0,1.1639725E5,0E0,0E0,0E0,0E0,6.4785E3,0E0,0E0,0E0],"parents":[2147483647,0,0,1,1,2,2,4,4,5,5,6,6,7,7,8,8,11,11,13,13,14,14,17,17,19,19,21,21,24,24,29,29],"right_children":[2,4,6,-1,8,10,12,14,16,-1,-1,18,-1,20,22,-1,-1,24,-1,26,-1,28,-1,-1,30,-1,-1,-1,-1,32,-1,-1,-1],"split_conditions":[9.55E2,1.411819E3,9.95E1,-1.3603463E1,4.998E3,3.1380787E-1,3.1088703E0,9.07E1,4.49E1,-3.5720992E0,6.4258814E-1,6.746744E3,1.3037167E0,2.5E0,9.98E1,-3.1759112E0,2.2986946E0,1.166E3,2.1147728E1,2.4E0,-7.716014E0,5.254695E-1,2.400975E-1,1.5099381E0,6.21E1,-5.404153E0,1.5353981E0,-4.218599E0,-5.897305E-1,4.752186E1,1.9093251E0,3.5893443E0,1.166875E1],"split_indices":[21,19,2,0,0,23,23,1,6,0,0,19,0,8,4,0,0,21,0,8,0,23,0,0,3,0,0,0,0,22,0,0,0],"split_type":[0,0,0,0,0,0,0,0,0,0,0,0,0,0,0,0,0,0,0,0,0,0,0,0,0,0,0,0,0,0,0,0,0],"sum_hessian":[2.67E2,1.58E2,1.09E2,3E1,1.28E2,1.6E1,9.3E1,1.11E2,1.7E1,8E0,8E0,8.3E1,1E1,7.2E1,3.9E1,8E0,9E0,6.3E1,2E1,2.7E1,4.5E1,3E1,9E0,8E0,5.5E1,1.9E1,8E0,2.1E1,9E0,4.6E1,9E0,1.1E1,3.5E1],"tree_param":{"num_deleted":"0","num_feature":"24","num_nodes":"33","size_leaf_vector":"1"}},{"base_weights":[-3.132383E0,-1.4109111E2,1.958138E2,-1.3377758E1,-1.0011682E2,-3.2679734E0,2.2554073E2,-1.1246255E2,-9.353728E0,1.3941412E2,3.2226437E2,-8.601506E-1,-1.1845461E2,-2.9595437E0,2.241364E0,1.7971866E2,-4.9600554E-1,1.8481817E1,3.296342E0,-1.2723443E2,-1.4257286E0,1.3126291E0,2.1045052E2,-1.336491E2,-1.1790409E0,1.1482486E1,2.628759E0,-1.9207708E0,-7.0087814E0],"categories":[],"categories_nodes":[],"categories_segments":[],"categories_sizes":[],"default_left":[0,0,0,0,0,0,0,0,0,0,0,0,0,0,0,0,0,0,0,0,0,0,0,0,0,0,0,0,0],"id":24,"left_children":[1,3,5,-1,7,-1,9,11,13,15,17,-1,19,-1,-1,21,-1,-1,-1,23,-1,-1,25,27,-1,-1,-1,-1,-1],"loss_changes":[7.9045765E6,6.4369925E5,1.0507125E6,0E0,1.4993675E5,0E0,4.93008E5,5.20035E4,9.747411E4,4.5656938E5,3.25334E5,0E0,5.7724E4,0E0,0E0,2.2187312E5,0E0,0E0,0E0,3.894375E4,0E0,0E0,3.7296875E4,1.3636875E4,0E0,0E0,0E0,0E0,0E0],"parents":[2147483647,0,0,1,1,2,2,4,4,6,6,7,7,8,8,9,9,10,10,12,12,15,15,19,19,22,22,23,23],"right_children":[2,4,6,-1,8,-1,10,12,14,16,18,-1,20,-1,-1,22,-1,-1,-1,24,-1,-1,26,28,-1,-1,-1,-1,-1],"split_conditions":[9.55E2,1.340215E3,3.386E3,-1.3377758E1,4.998E3,-3.2679734E0,5.156248E1,6.77E1,4.49E1,4.1095E3,1E2,-8.601506E-1,6.474809E1,-2.9595437E0,2.241364E0,2E0,-4.9600554E-1,1.8481817E1,3.296342E0,3.25E1,-1.4257286E0,1.3126291E0,5.0341934E-1,1.506457E3,-1.1790409E0,1.1482486E1,2.628759E0,-1.9207708E0,-7.0087814E0],"split_indices":[21,19,0,0,0,0,22,3,6,14,4,0,22,0,0,16,0,0,0,8,0,0,23,19,0,0,0,0,0],"split_type":[0,0,0,0,0,0,0,0,0,0,0,0,0,0,0,0,0,0,0,0,0,0,0,0,0,0,0,0,0],"sum_hessian":[2.7E2,1.61E2,1.09E2,2.7E1,1.34E2,1E1,9.9E1,1.16E2,1.8E1,6.4E1,3.5E1,9E0,1.07E2,9E0,9E0,4.9E1,1.5E1,2.6E1,9E0,9.4E1,1.3E1,1.1E1,3.8E1,8.6E1,8E0,3E1,8E0,1E1,7.6E1],"tree_param":{"num_deleted":"0","num_feature":"24","num_nodes":"29","size_leaf_vector":"1"}},{"base_weights":[1.7321432E0,-1.3294197E2,1.8976843E2,-1.2295204E1,-9.2372734E1,-1.9735197E0,2.2565526E2,-1.0265707E2,-1.1897032E1,2.4611119E2,1.1170091E-1,-1.1026032E2,-9.235165E-1,-2.5963006E0,1.8223209E0,1.4101843E2,3.350001E2,-1.15981E0,-1.15875336E2,1.6508719E2,-3.4058297E-1,1.991561E1,2.6597328E0,-1.7381234E0,-1.2628214E2,8.976609E0,2.3002105E0,-1.1832224E0,-6.674662E0],"categories":[],"categories_nodes":[],"categories_segments":[],"categories_sizes":[],"default_left":[0,0,0,0,0,0,0,0,0,0,0,0,0,0,0,0,0,0,0,0,0,0,0,0,0,0,0,0,0],"id":25,"left_children":[1,3,5,-1,7,-1,9,11,13,15,-1,17,-1,-1,-1,19,21,-1,23,25,-1,-1,-1,-1,27,-1,-1,-1,-1],"loss_changes":[7.342247E6,5.7354475E5,1.0773865E6,0E0,1.03277375E5,0E0,4.776825E5,5.8786125E4,6.786659E4,4.785635E5,0E0,2.854425E4,0E0,0E0,0E0,2.2465312E5,6.438345E5,0E0,4.445125E4,1.709075E4,0E0,0E0,0E0,0E0,3.8209875E4,0E0,0E0,0E0,0E0],"parents":[2147483647,0,0,1,1,2,2,4,4,6,6,7,7,8,8,9,9,11,11,15,15,16,16,18,18,19,19,24,24],"right_children":[2,4,6,-1,8,-1,10,12,14,16,-1,18,-1,-1,-1,20,22,-1,24,26,-1,-1,-1,-1,28,-1,-1,-1,-1],"split_conditions":[9.55E2,1.411819E3,9.95E1,-1.2295204E1,4.998E3,-1.9735197E0,1.075E1,6.474809E1,4.6373608E1,3.042933E3,1.1170091E-1,1E0,-9.235165E-1,-2.5963006E0,1.8223209E0,4.3029E3,1E2,-1.15981E0,7.15E1,9.57E1,-3.4058297E-1,1.991561E1,2.6597328E0,-1.7381234E0,1.506457E3,8.976609E0,2.3002105E0,-1.1832224E0,-6.674662E0],"split_indices":[21,19,2,0,0,0,13,22,22,20,0,7,0,0,0,14,4,0,3,1,0,0,0,0,19,0,0,0,0],"split_type":[0,0,0,0,0,0,0,0,0,0,0,0,0,0,0,0,0,0,0,0,0,0,0,0,0,0,0,0,0],"sum_hessian":[2.72E2,1.6E2,1.12E2,3E1,1.3E2,1.5E1,9.7E1,1.13E2,1.7E1,8.8E1,9E0,1.01E2,1.2E1,9E0,8E0,5.1E1,3.7E1,9E0,9.2E1,4.3E1,8E0,2.7E1,1E1,1.5E1,7.7E1,3.4E1,9E0,8E0,6.9E1],"tree_param":{"num_deleted":"0","num_feature":"24","num_nodes":"29","size_leaf_vector":"1"}},{"base_weights":[1.5167228E0,-1.3105185E2,1.8469554E2,-2.1296275E2,-7.868525E1,-3.901447E1,2.214924E2,-9.980429E1,-1.2839311E1,-3.2949726E1,-1.164744E2,-3.4569418E0,5.7741374E-1,1.2712042E2,3.0264117E2,-6.407687E0,-1.2132773E0,-5.506394E1,1.4772072E0,-6.5499873E0,-2.1826854E0,-1.9197015E-1,1.5169687E2,3.5225372E2,2.58991E0,-7.8805984E1,2.6873836E-1,2.3085852E0,1.7425172E2,1.9639826E1,4.187459E0,-5.2517986E0,-3.5436743E-1,9.593816E0,2.2436545E0],"categories":[],"categories_nodes":[],"categories_segments":[],"categories_sizes":[],"default_left":[0,0,0,0,0,0,0,0,0,0,0,0,0,0,0,0,0,0,0,0,0,0,0,0,0,0,0,0,0,0,0,0,0,0,0],"id":26,"left_children":[1,3,5,7,9,11,13,15,-1,17,19,-1,-1,21,23,-1,-1,25,-1,-1,-1,-1,27,29,-1,31,-1,-1,33,-1,-1,-1,-1,-1,-1],"loss_changes":[7.1137085E6,5.7667375E5,1.091154E6,7.548075E4,1.6842794E5,4.600964E4,4.70935E5,4.0360094E4,0E0,1.06169664E5,1.35614375E4,0E0,0E0,2.15411E5,4.667765E5,0E0,0E0,7.892608E4,0E0,0E0,0E0,0E0,5.6646875E4,1.605425E5,0E0,6.495864E4,0E0,0E0,1.9905E4,0E0,0E0,0E0,0E0,0E0,0E0],"parents":[2147483647,0,0,1,1,2,2,3,3,4,4,5,5,6,6,7,7,9,9,10,10,13,13,14,14,17,17,22,22,23,23,25,25,28,28],"right_children":[2,4,6,8,10,12,14,16,-1,18,20,-1,-1,22,24,-1,-1,26,-1,-1,-1,-1,28,30,-1,32,-1,-1,34,-1,-1,-1,-1,-1,-1],"split_conditions":[9.55E2,3E0,9.95E1,4E0,4.13913E3,3.1380787E-1,3.054355E3,9.28E1,-1.2839311E1,1.899108E3,6.3137478E1,-3.4569418E0,5.7741374E-1,1.162E3,1E2,-6.407687E0,-1.2132773E0,4E0,1.4772072E0,-6.5499873E0,-2.1826854E0,-1.9197015E-1,2E0,9.75E0,2.58991E0,5.9674297E1,2.6873836E-1,2.3085852E0,5.489985E-1,1.9639826E1,4.187459E0,-5.2517986E0,-3.5436743E-1,9.593816E0,2.2436545E0],"split_indices":[21,13,2,7,14,23,20,2,0,20,22,0,0,21,4,0,0,16,0,0,0,0,16,13,0,22,0,0,23,0,0,0,0,0,0],"split_type":[0,0,0,0,0,0,0,0,0,0,0,0,0,0,0,0,0,0,0,0,0,0,0,0,0,0,0,0,0,0,0,0,0,0,0],"sum_hessian":[2.75E2,1.61E2,1.14E2,5.2E1,1.09E2,1.6E1,9.8E1,2.3E1,2.9E1,5.7E1,5.2E1,8E0,8E0,5.6E1,4.2E1,1.2E1,1.1E1,4.3E1,1.4E1,3.7E1,1.5E1,1E1,4.6E1,3.2E1,1E1,2.9E1,1.4E1,1.3E1,3.3E1,2.4E1,8E0,1.8E1,1.1E1,2.5E1,8E0],"tree_param":{"num_deleted":"0","num_feature":"24","num_nodes":"35","size_leaf_vector":"1"}},{"base_weights":[3.5576293E0,-1.2481296E2,1.7869737E2,-1.145022E1,-8.697365E1,-3.809218E1,2.1438177E2,-9.831167E1,-7.354067E0,-3.3757896E0,5.638595E-1,1.2578617E2,2.862719E2,-1.05338615E2,-7.701262E-1,2.2266598E0,-2.530719E0,-1.8693028E-1,1.5053517E2,1.6510885E1,2.5219202E0,-1.0672088E0,-1.1090097E2,2.5216877E0,1.6811044E2,-1.1999664E0,-1.18070305E2,9.242147E0,2.1909847E0,-1.0996022E0,-6.224244E0],"categories":[],"categories_nodes":[],"categories_segments":[],"categories_sizes":[],"default_left":[0,0,0,0,0,0,0,0,0,0,0,0,0,0,0,0,0,0,0,0,0,0,0,0,0,0,0,0,0,0,0],"id":27,"left_children":[1,3,5,-1,7,9,11,13,15,-1,-1,17,19,21,-1,-1,-1,-1,23,-1,-1,-1,25,-1,27,-1,29,-1,-1,-1,-1],"loss_changes":[6.540246E6,4.859345E5,1.02587175E6,0E0,1.1734469E5,4.388706E4,3.5527E5,5.4408375E4,8.142855E4,0E0,0E0,2.1118112E5,3.997725E5,2.8637E4,0E0,0E0,0E0,0E0,1.6903625E4,0E0,0E0,0E0,3.572475E4,0E0,1.5882875E4,0E0,3.3562125E4,0E0,0E0,0E0,0E0],"parents":[2147483647,0,0,1,1,2,2,4,4,5,5,6,6,7,7,8,8,11,11,12,12,13,13,18,18,22,22,24,24,26,26],"right_children":[2,4,6,-1,8,10,12,14,16,-1,-1,18,20,22,-1,-1,-1,-1,24,-1,-1,-1,26,-1,28,-1,30,-1,-1,-1,-1],"split_conditions":[9.55E2,1.411819E3,9.95E1,-1.145022E1,4.998E3,3.1380787E-1,3.054355E3,6.474809E1,3.99353E3,-3.3757896E0,5.638595E-1,1.162E3,1E2,1E0,-7.701262E-1,2.2266598E0,-2.530719E0,-1.8693028E-1,2E0,1.6510885E1,2.5219202E0,-1.0672088E0,6.77E1,2.5216877E0,5.489985E-1,-1.1999664E0,1.506457E3,9.242147E0,2.1909847E0,-1.0996022E0,-6.224244E0],"split_indices":[21,19,2,0,0,23,20,22,14,0,0,21,4,7,0,0,0,0,16,0,0,0,3,0,23,0,19,0,0,0,0],"split_type":[0,0,0,0,0,0,0,0,0,0,0,0,0,0,0,0,0,0,0,0,0,0,0,0,0,0,0,0,0,0,0],"sum_hessian":[2.73E2,1.59E2,1.14E2,3E1,1.29E2,1.6E1,9.8E1,1.11E2,1.8E1,8E0,8E0,5.5E1,4.3E1,1E2,1.1E1,8E0,1E1,1E1,4.5E1,3.3E1,1E1,9E0,9.1E1,1.2E1,3.3E1,1E1,8.1E1,2.5E1,8E0,8E0,7.3E1],"tree_param":{"num_deleted":"0","num_feature":"24","num_nodes":"31","size_leaf_vector":"1"}},{"base_weights":[6.758406E-1,-1.1989281E2,1.6786597E2,-1.1927074E1,-8.201908E1,-3.719155E1,2.0303511E2,-9.258815E1,-7.0762935E0,4.7293123E-2,-2.7932131E0,2.2290472E2,-9.189356E-2,-1.02796455E2,2.4287209E-1,-2.1122673E0,1.780903E0,1.474143E2,1.6324081E1,-7.108271E-1,-1.0935074E2,4.8216324E1,1.8873317E2,-5.6885257E0,-1.2281146E0,4.5950403E0,-1.7034351E0,2.6494775E0,1.1537672E1],"categories":[],"categories_nodes":[],"categories_segments":[],"categories_sizes":[],"default_left":[0,0,0,0,0,0,0,0,0,0,0,0,0,0,0,0,0,0,0,0,0,0,0,0,0,0,0,0,0],"id":28,"left_children":[1,3,5,-1,7,9,11,13,15,-1,-1,17,-1,19,-1,-1,-1,21,-1,-1,23,25,27,-1,-1,-1,-1,-1,-1],"loss_changes":[5.723978E6,5.6830275E5,9.2695375E5,0E0,1.0351881E5,1.883652E4,4.244085E5,1.25532E5,5.4460688E4,0E0,0E0,3.06361E5,0E0,4.8962625E4,0E0,0E0,0E0,2.076065E5,0E0,0E0,1.5126125E4,1.4833811E5,1.6041125E5,0E0,0E0,0E0,0E0,0E0,0E0],"parents":[2147483647,0,0,1,1,2,2,4,4,5,5,6,6,7,7,8,8,11,11,13,13,17,17,20,20,21,21,22,22],"right_children":[2,4,6,-1,8,10,12,14,16,-1,-1,18,-1,20,-1,-1,-1,22,-1,-1,24,26,28,-1,-1,-1,-1,-1,-1],"split_conditions":[9.55E2,1.19E3,9.95E1,-1.1927074E1,4.998E3,6.36E1,1.075E1,6.4621414E1,4.6373608E1,4.7293123E-2,-2.7932131E0,6.738332E3,-9.189356E-2,6.77E1,2.4287209E-1,-2.1122673E0,1.780903E0,3.6E1,1.6324081E1,-7.108271E-1,4.26E3,1.691E3,5.35E1,-5.6885257E0,-1.2281146E0,4.5950403E0,-1.7034351E0,2.6494775E0,1.1537672E1],"split_indices":[21,0,2,0,0,1,13,22,22,0,0,19,0,3,0,0,0,8,0,0,0,21,3,0,0,0,0,0,0],"split_type":[0,0,0,0,0,0,0,0,0,0,0,0,0,0,0,0,0,0,0,0,0,0,0,0,0,0,0,0,0],"sum_hessian":[2.66E2,1.56E2,1.1E2,2.6E1,1.3E2,1.6E1,9.4E1,1.12E2,1.8E1,8E0,8E0,8.5E1,9E0,1.01E2,1.1E1,1E1,8E0,6.2E1,2.3E1,9E0,9.2E1,2.4E1,3.8E1,8.4E1,8E0,1.5E1,9E0,1.4E1,2.4E1],"tree_param":{"num_deleted":"0","num_feature":"24","num_nodes":"29","size_leaf_vector":"1"}},{"base_weights":[2.1787987E0,-9.987143E1,1.8916464E2,-1.85858E2,-5.7192585E1,2.2090271E2,-8.1154495E-1,-5.112561E0,-1.1813354E1,-7.6325424E1,4.667664E1,1.1481619E2,2.82926E2,-9.68783E1,-3.257287E1,4.5037165E0,-1.3192153E0,2.925807E-1,7.0709753E0,1.6313208E1,3.4160054E0,-1.1300954E2,-2.5541124E-1,2.6342836E1,-3.2649593E0,-7.1511464E0,-6.1509342E1,2.4043736E0,-4.5359477E-1,-4.05474E0,4.0154424E-1],"categories":[],"categories_nodes":[],"categories_segments":[],"categories_sizes":[],"default_left":[0,0,0,0,0,0,0,0,0,0,0,1,0,0,0,0,0,0,0,0,0,0,0,0,0,0,0,0,0,0,0],"id":29,"left_children":[1,3,5,7,9,11,-1,-1,-1,13,15,17,19,21,23,-1,-1,-1,-1,-1,-1,25,-1,27,-1,-1,29,-1,-1,-1,-1],"loss_changes":[5.512733E6,5.890845E5,6.98671E5,2.662575E4,3.0639084E5,2.911115E5,0E0,0E0,0E0,7.867581E4,1.082245E5,1.3325081E5,2.7273475E5,1.0792444E5,1.1671244E5,0E0,0E0,0E0,0E0,0E0,0E0,2.1513625E4,0E0,2.3619875E4,0E0,0E0,6.1682438E4,0E0,0E0,0E0,0E0],"parents":[2147483647,0,0,1,1,2,2,3,3,4,4,5,5,9,9,10,10,11,11,12,12,13,13,14,14,21,21,23,23,26,26],"right_children":[2,4,6,8,10,12,-1,-1,-1,14,16,18,20,22,24,-1,-1,-1,-1,-1,-1,26,-1,28,-1,-1,30,-1,-1,-1,-1],"split_conditions":[1.152E3,9.9806E2,7.43E1,6E0,5.22145E3,5.69E1,-8.1154495E-1,-5.112561E0,-1.1813354E1,9.07E1,4.09107E3,4.666E3,1E2,5.42E1,9.4E1,4.5037165E0,-1.3192153E0,2.925807E-1,7.0709753E0,1.6313208E1,3.4160054E0,2E0,-2.5541124E-1,7.78E2,-3.2649593E0,-7.1511464E0,3.675337E3,2.4043736E0,-4.5359477E-1,-4.05474E0,4.0154424E-1],"split_indices":[21,20,3,7,19,3,0,0,0,1,14,10,4,9,1,0,0,0,0,0,0,7,0,21,0,0,19,0,0,0,0],"split_type":[0,0,0,0,0,0,0,0,0,0,0,0,0,0,0,0,0,0,0,0,0,0,0,0,0,0,0,0,0,0,0],"sum_hessian":[2.71E2,1.78E2,9.3E1,4.9E1,1.29E2,8E1,1.3E1,2.9E1,2E1,1.11E2,1.8E1,3.9E1,4.1E1,6.8E1,4.3E1,1E1,8E0,1E1,2.9E1,3E1,1.1E1,5.6E1,1.2E1,1.6E1,2.7E1,2.5E1,3.1E1,8E0,8E0,2.3E1,8E0],"tree_param":{"num_deleted":"0","num_feature":"24","num_nodes":"31","size_leaf_vector":"1"}},{"base_weights":[2.5193384E0,-1.10872246E2,1.6715115E2,-1.8749803E2,-6.586583E1,7.712654E1,2.3323962E2,-7.543141E1,-1.1002253E1,-2.7436098E1,-9.95282E1,-2.6021421E1,1.2049433E2,2.6983463E2,3.2429156E-1,-5.088137E0,-2.6377594E-1,2.729277E0,-4.640072E1,-1.1657343E0,-5.327108E0,-3.836165E0,1.73065E0,8.9753895E0,1.0499525E1,5.302061E0,1.6183191E1,-6.950319E1,2.9077208E0,2.889442E0,-1.821045E0,-8.0293335E1,-5.3575784E-1,-1.6705922E0,2.007859E0,-4.7510905E0,-7.157703E-1],"categories":[],"categories_nodes":[],"categories_segments":[],"categories_sizes":[],"default_left":[0,0,0,0,0,0,0,0,0,0,0,0,0,0,0,0,0,0,0,0,0,0,0,0,0,0,0,0,0,0,0,0,0,0,0,0,0],"id":30,"left_children":[1,3,5,7,9,11,13,15,-1,17,19,21,23,25,-1,-1,-1,-1,27,-1,-1,-1,-1,29,-1,-1,-1,31,33,-1,-1,35,-1,-1,-1,-1,-1],"loss_changes":[5.3560085E6,4.7359425E5,5.3235375E5,6.5098375E4,1.3112006E5,3.1051088E5,5.0488275E5,4.493547E4,0E0,1.3031947E5,1.10084375E4,1.0477278E5,4.4431956E5,1.7186975E5,0E0,0E0,0E0,0E0,7.173109E4,0E0,0E0,0E0,0E0,8.608964E4,0E0,0E0,0E0,1.8236875E4,5.030588E4,0E0,0E0,2.0717078E4,0E0,0E0,0E0,0E0,0E0],"parents":[2147483647,0,0,1,1,2,2,3,3,4,4,5,5,6,6,7,7,9,9,10,10,11,11,12,12,13,13,18,18,23,23,27,27,28,28,31,31],"right_children":[2,4,6,8,10,12,14,16,-1,18,20,22,24,26,-1,-1,-1,-1,28,-1,-1,-1,-1,30,-1,-1,-1,32,34,-1,-1,36,-1,-1,-1,-1,-1],"split_conditions":[9.55E2,3.85278E3,5.798E3,3E0,4.13913E3,2E0,3.1088703E0,2E0,-1.1002253E1,3.120735E-1,4.57E2,9.12E1,1.99E0,3.282608E3,3.2429156E-1,-5.088137E0,-2.6377594E-1,2.729277E0,4E0,-1.1657343E0,-5.327108E0,-3.836165E0,1.73065E0,4E1,1.0499525E1,5.302061E0,1.6183191E1,5.85E1,2.614479E3,2.889442E0,-1.821045E0,1.807614E3,-5.3575784E-1,-1.6705922E0,2.007859E0,-4.7510905E0,-7.157703E-1],"split_indices":[21,14,0,7,14,16,23,7,0,23,21,1,15,20,0,0,0,0,16,0,0,0,0,12,0,0,0,6,19,0,0,20,0,0,0,0,0],"split_type":[0,0,0,0,0,0,0,0,0,0,0,0,0,0,0,0,0,0,0,0,0,0,0,0,0,0,0,0,0,0,0,0,0,0,0,0,0],"sum_hessian":[2.69E2,1.61E2,1.08E2,4.9E1,1.12E2,5.4E1,5.4E1,1.8E1,3.1E1,6E1,5.2E1,1.7E1,3.7E1,4.5E1,9E0,1E1,8E0,8E0,5.2E1,8E0,4.4E1,8E0,9E0,2.1E1,1.6E1,1.8E1,2.7E1,3.3E1,1.9E1,9E0,1.2E1,2.5E1,8E0,1E1,9E0,1.7E1,8E0],"tree_param":{"num_deleted":"0","num_feature":"24","num_nodes":"37","size_leaf_vector":"1"}},{"base_weights":[1.6865389E0,-1.0404911E2,1.4809569E2,-1.7399469E2,-5.9544445E1,-3.6459373E1,1.7911186E2,-8.2107155E1,-1.0637E1,-2.4174301E1,-9.05328E1,-3.2303097E0,5.380535E-1,1.9641039E2,-1.6277753E-1,-5.5720406E0,-8.4212476E-1,-4.3334385E1,1.4522035E0,-4.863013E0,-1.0459212E0,1.2809773E2,1.49003105E1,-6.544656E1,5.385142E-1,4.6443142E1,1.6351526E2,-4.021259E0,-7.1278363E-1,-2.6759167E0,9.427128E1,2.122824E0,1.0057012E1,6.9702263E0,5.84891E-2],"categories":[],"categories_nodes":[],"categories_segments":[],"categories_sizes":[],"default_left":[0,0,0,0,0,0,0,0,0,0,0,0,0,0,0,0,0,0,0,0,0,0,0,0,0,0,0,0,0,0,0,0,0,0,0],"id":31,"left_children":[1,3,5,7,9,11,13,15,-1,17,19,-1,-1,21,-1,-1,-1,23,-1,-1,-1,25,-1,27,-1,29,31,-1,-1,-1,33,-1,-1,-1,-1],"loss_changes":[4.5038395E6,4.3140625E5,7.578235E5,6.20295E4,1.07784125E5,4.015883E4,3.4142675E5,4.609547E4,0E0,7.986786E4,9.835344E3,0E0,0E0,3.333675E5,0E0,0E0,0E0,7.015077E4,0E0,0E0,0E0,1.4433388E5,0E0,1.9423906E4,0E0,2.1328878E5,1.4360588E5,0E0,0E0,0E0,1.1219164E5,0E0,0E0,0E0,0E0],"parents":[2147483647,0,0,1,1,2,2,3,3,4,4,5,5,6,6,7,7,9,9,10,10,13,13,17,17,21,21,23,23,25,25,26,26,30,30],"right_children":[2,4,6,8,10,12,14,16,-1,18,20,-1,-1,22,-1,-1,-1,24,-1,-1,-1,26,-1,28,-1,30,32,-1,-1,-1,34,-1,-1,-1,-1],"split_conditions":[9.55E2,3E0,9.95E1,4E0,4.13913E3,3.1380787E-1,1.075E1,9.28E1,-1.0637E1,1.899108E3,8.11E1,-3.2303097E0,5.380535E-1,6.738332E3,-1.6277753E-1,-5.5720406E0,-8.4212476E-1,4E0,1.4522035E0,-4.863013E0,-1.0459212E0,3.6E1,1.49003105E1,7.92E1,5.385142E-1,3.1542072E-1,5.35E1,-4.021259E0,-7.1278363E-1,-2.6759167E0,2.563269E3,2.122824E0,1.0057012E1,6.9702263E0,5.84891E-2],"split_indices":[21,13,2,7,14,23,13,2,0,20,3,0,0,19,0,0,0,16,0,0,0,8,0,3,0,23,3,0,0,0,20,0,0,0,0],"split_type":[0,0,0,0,0,0,0,0,0,0,0,0,0,0,0,0,0,0,0,0,0,0,0,0,0,0,0,0,0,0,0,0,0,0,0],"sum_hessian":[2.73E2,1.6E2,1.13E2,5.2E1,1.08E2,1.6E1,9.7E1,2.4E1,2.8E1,5.8E1,5E1,8E0,8E0,8.8E1,9E0,1.2E1,1.2E1,4.4E1,1.4E1,4.2E1,8E0,6.5E1,2.3E1,3E1,1.4E1,2.6E1,3.9E1,1.9E1,1.1E1,8E0,1.8E1,1.4E1,2.5E1,9E0,9E0],"tree_param":{"num_deleted":"0","num_feature":"24","num_nodes":"35","size_leaf_vector":"1"}},{"base_weights":[2.208905E0,-1.0396851E2,1.4626962E2,-1.0292057E1,-7.08753E1,-3.559708E1,1.7652144E2,-7.902194E1,-7.928406E-2,-3.1544785E0,5.254232E-1,1.9339049E2,-1.587189E-1,-9.054095E1,-9.787756E0,1.2514427E2,1.4890765E1,-1.0010466E2,1.4886209E-2,1.3754858E0,-2.039774E0,4.9766705E1,1.5810936E2,-1.22728195E2,-4.2684944E1,-2.6130998E0,9.607052E1,2.038201E0,9.733957E0,-1.4604982E0,-6.538916E0,-2.9418888E0,3.5633128E-2,6.7963862E0,5.997049E-1],"categories":[],"categories_nodes":[],"categories_segments":[],"categories_sizes":[],"default_left":[0,0,0,0,0,0,0,0,0,0,0,0,0,0,0,0,0,0,0,0,0,0,0,0,0,0,0,0,0,0,0,0,0,0,0],"id":32,"left_children":[1,3,5,-1,7,9,11,13,-1,-1,-1,15,-1,17,19,21,-1,23,-1,-1,-1,25,27,29,31,-1,33,-1,-1,-1,-1,-1,-1,-1,-1],"loss_changes":[4.434647E6,4.337275E5,7.3397125E5,0E0,7.732869E4,3.8306938E4,3.31131E5,9.103044E4,0E0,0E0,0E0,3.667925E5,0E0,9.301906E4,4.2838484E4,1.1424725E5,0E0,7.65195E4,0E0,0E0,0E0,2.158235E5,1.3623412E5,1.53151875E4,2.988496E4,0E0,7.911325E4,0E0,0E0,0E0,0E0,0E0,0E0,0E0,0E0],"parents":[2147483647,0,0,1,1,2,2,4,4,5,5,6,6,7,7,11,11,13,13,14,14,15,15,17,17,21,21,22,22,23,23,24,24,26,26],"right_children":[2,4,6,-1,8,10,12,14,-1,-1,-1,16,-1,18,20,22,-1,24,-1,-1,-1,26,28,30,32,-1,34,-1,-1,-1,-1,-1,-1,-1,-1],"split_conditions":[9.55E2,1.19E3,9.95E1,-1.0292057E1,5.42E1,3.1380787E-1,1.075E1,1E0,-7.928406E-2,-3.1544785E0,5.254232E-1,6.746744E3,-1.587189E-1,5.22145E3,2.8E0,3.6E1,1.4890765E1,9.07E1,1.4886209E-2,1.3754858E0,-2.039774E0,3.1542072E-1,4.96E1,1.766344E3,2.614479E3,-2.6130998E0,2.563269E3,2.038201E0,9.733957E0,-1.4604982E0,-6.538916E0,-2.9418888E0,3.5633128E-2,6.7963862E0,5.997049E-1],"split_indices":[21,0,2,0,9,23,13,18,0,0,0,19,0,19,9,8,0,1,0,0,0,23,6,19,19,0,20,0,0,0,0,0,0,0,0],"split_type":[0,0,0,0,0,0,0,0,0,0,0,0,0,0,0,0,0,0,0,0,0,0,0,0,0,0,0,0,0,0,0,0,0,0,0],"sum_hessian":[2.72E2,1.58E2,1.14E2,2.7E1,1.31E2,1.6E1,9.8E1,1.16E2,1.5E1,8E0,8E0,8.9E1,9E0,9.7E1,1.9E1,6.6E1,2.3E1,8.7E1,1E1,9E0,1E1,2.7E1,3.9E1,5.5E1,3.2E1,8E0,1.9E1,1.4E1,2.5E1,8E0,4.7E1,2.1E1,1.1E1,9E0,1E1],"tree_param":{"num_deleted":"0","num_feature":"24","num_nodes":"35","size_leaf_vector":"1"}},{"base_weights":[2.549114E0,-1.0576141E2,1.3289612E2,-1.8000578E2,-6.116775E1,3.142597E1,1.8561758E2,-9.778248E0,-2.397367E0,-6.892616E1,9.339971E-1,-3.2518597E0,7.1292305E1,6.743381E1,2.3009587E2,-8.061548E1,1.987691E-1,-1.1398227E0,1.2736323E2,-1.320536E0,1.03045E2,1.3155848E1,3.7296302E0,-8.933442E1,-6.458697E-1,7.7285457E-1,8.897739E0,3.049686E-1,6.9130983E0,-8.900182E-1,-4.904127E0],"categories":[],"categories_nodes":[],"categories_segments":[],"categories_sizes":[],"default_left":[0,0,1,0,0,0,0,0,0,0,0,0,0,0,0,0,0,0,0,0,0,0,0,0,0,0,0,0,0,0,0],"id":33,"left_children":[1,3,5,7,9,11,13,-1,-1,15,-1,-1,17,19,21,23,-1,-1,25,-1,27,-1,-1,29,-1,-1,-1,-1,-1,-1,-1],"loss_changes":[4.1073142E6,4.2585388E5,6.5218575E5,3.15145E4,8.199172E4,2.5761648E5,3.05366E5,0E0,0E0,9.288666E4,0E0,0E0,2.5908845E5,1.4540095E5,1.26013E5,4.256725E4,0E0,0E0,1.3987575E5,0E0,8.824791E4,0E0,0E0,3.4812438E4,0E0,0E0,0E0,0E0,0E0,0E0,0E0],"parents":[2147483647,0,0,1,1,2,2,3,3,4,4,5,5,6,6,9,9,12,12,13,13,14,14,15,15,18,18,20,20,23,23],"right_children":[2,4,6,8,10,12,14,-1,-1,16,-1,-1,18,20,22,24,-1,-1,26,-1,28,-1,-1,30,-1,-1,-1,-1,-1,-1,-1],"split_conditions":[2.098973E3,3.85904E3,6E0,2.480951E3,4.64E0,2E0,5.35E1,-9.778248E0,-2.397367E0,9.99E1,9.339971E-1,-3.2518597E0,2E0,1.467E3,1E2,6.52E1,1.987691E-1,-1.1398227E0,9.95E1,-1.320536E0,5.647E3,1.3155848E1,3.7296302E0,6.77E1,-6.458697E-1,7.7285457E-1,8.897739E0,3.049686E-1,6.9130983E0,-8.900182E-1,-4.904127E0],"split_indices":[20,14,12,19,15,16,3,0,0,4,0,0,7,21,4,6,0,0,2,0,0,0,0,3,0,0,0,0,0,0,0],"split_type":[0,0,0,0,0,0,0,0,0,0,0,0,0,0,0,0,0,0,0,0,0,0,0,0,0,0,0,0,0,0,0],"sum_hessian":[2.73E2,1.5E2,1.23E2,4.6E1,1.04E2,4.7E1,7.6E1,3.7E1,9E0,9.6E1,8E0,1.2E1,3.5E1,2.7E1,4.9E1,8.2E1,1.4E1,1.5E1,2E1,8E0,1.9E1,3.5E1,1.4E1,7E1,1.2E1,1E1,1E1,8E0,1.1E1,1.1E1,5.9E1],"tree_param":{"num_deleted":"0","num_feature":"24","num_nodes":"31","size_leaf_vector":"1"}},{"base_weights":[1.7888256E0,-7.106437E1,1.7725508E2,-1.0790917E2,1.4632353E1,9.0690926E1,2.3871861E2,-1.7264183E2,-6.471248E1,-2.9330246E1,5.925389E0,-5.6715834E-1,1.1639796E2,1.361365E1,3.2581148E0,-3.2095854E0,-1.0038157E1,-7.179092E1,-3.6587363E-1,-5.522328E1,2.5486395E0,1.2264423E0,1.3223416E2,-3.1849816E-1,-7.760225E1,-1.3840147E1,-4.3704243E0,7.8479447E0,1.3043518E0,-8.573488E1,-5.466327E-1,-2.600042E0,1.9715571E0,-4.921454E0,-8.547575E-1],"categories":[],"categories_nodes":[],"categories_segments":[],"categories_sizes":[],"default_left":[1,0,0,0,0,0,0,0,0,0,0,0,0,0,0,0,0,0,0,0,0,0,0,0,0,0,0,0,0,0,0,0,0,0,0],"id":34,"left_children":[1,3,5,7,9,11,13,15,17,19,-1,-1,21,-1,-1,-1,-1,23,-1,25,-1,-1,27,-1,29,31,-1,-1,-1,33,-1,-1,-1,-1,-1],"loss_changes":[3.6161425E6,6.462366E5,2.4487675E5,2.92289E5,3.4364825E5,1.4113288E5,9.457325E4,4.08115E4,3.4919438E4,1.3996925E5,0E0,0E0,2.7809812E4,0E0,0E0,0E0,0E0,2.8028656E4,0E0,5.0251203E4,0E0,0E0,4.7505875E4,0E0,3.3690844E4,8.208498E4,0E0,0E0,0E0,4.5735375E4,0E0,0E0,0E0,0E0,0E0],"parents":[2147483647,0,0,1,1,2,2,3,3,4,4,5,5,6,6,7,7,8,8,9,9,12,12,17,17,19,19,22,22,24,24,25,25,29,29],"right_children":[2,4,6,8,10,12,14,16,18,20,-1,-1,22,-1,-1,-1,-1,24,-1,26,-1,-1,28,-1,30,32,-1,-1,-1,34,-1,-1,-1,-1,-1],"split_conditions":[6E0,3.462E3,5.69E1,3.85904E3,2.85E0,2.6E1,1E2,3E0,9.99E1,7.446E3,5.925389E0,-5.6715834E-1,5.167E3,1.361365E1,3.2581148E0,-3.2095854E0,-1.0038157E1,6.84E1,-3.6587363E-1,5.286E3,2.5486395E0,1.2264423E0,9.57E1,-3.1849816E-1,3.126953E3,4.0255E3,-4.3704243E0,7.8479447E0,1.3043518E0,6.52E1,-5.466327E-1,-2.600042E0,1.9715571E0,-4.921454E0,-8.547575E-1],"split_indices":[12,0,3,14,15,12,4,7,4,0,0,0,0,0,0,0,0,3,0,0,0,0,1,0,19,14,0,0,0,6,0,0,0,0,0],"split_type":[0,0,0,0,0,0,0,0,0,0,0,0,0,0,0,0,0,0,0,0,0,0,0,0,0,0,0,0,0,0,0,0,0,0,0],"sum_hessian":[2.65E2,1.91E2,7.4E1,1.32E2,5.9E1,4E1,3.4E1,4.2E1,9E1,4.6E1,1.3E1,9E0,3.1E1,2.4E1,1E1,1.5E1,2.7E1,7.8E1,1.2E1,3.7E1,9E0,8E0,2.3E1,8E0,7E1,2.2E1,1.5E1,1.5E1,8E0,6E1,1E1,1.3E1,9E0,4.7E1,1.3E1],"tree_param":{"num_deleted":"0","num_feature":"24","num_nodes":"35","size_leaf_vector":"1"}},{"base_weights":[1.3004456E0,-9.242483E1,1.3004437E2,-9.072574E0,-6.1251644E1,-3.2552498E1,1.571586E2,-6.977356E1,-4.808149E0,-2.8856876E0,4.7978052E-1,1.7242624E2,-2.0683306E-1,-7.7768555E1,-1.01889655E-1,-2.0629966E0,1.5832479E0,1.12104294E2,1.3213943E1,-8.59952E1,3.4896377E-2,2.3179132E1,1.3642503E2,-1.0644747E2,-3.2759274E1,-2.1834307E0,4.2955756E0,7.244847E1,1.6890508E2,-6.033332E-1,-5.8522677E0,4.3267095E-1,-2.4616785E0,5.798721E-1,4.302062E0,9.809319E0,2.4886186E0],"categories":[],"categories_nodes":[],"categories_segments":[],"categories_sizes":[],"default_left":[0,0,0,0,0,0,0,0,0,0,0,0,0,0,0,0,0,0,0,0,0,1,0,0,0,0,0,1,0,0,0,0,0,0,0,0,0],"id":35,"left_children":[1,3,5,-1,7,9,11,13,15,-1,-1,17,-1,19,-1,-1,-1,21,-1,23,-1,25,27,29,31,-1,-1,33,35,-1,-1,-1,-1,-1,-1,-1,-1],"loss_changes":[3.5227275E6,3.7063175E5,5.8894875E5,0E0,6.332853E4,3.2069629E4,2.7104225E5,6.2994E4,4.934834E4,0E0,0E0,2.7903425E5,0E0,7.0180625E4,0E0,0E0,0E0,1.3267812E5,0E0,7.3332875E4,0E0,1.4818133E5,6.8925E3,5.4959125E4,3.172284E4,0E0,0E0,1.9885172E4,1.317225E4,0E0,0E0,0E0,0E0,0E0,0E0,0E0,0E0],"parents":[2147483647,0,0,1,1,2,2,4,4,5,5,6,6,7,7,8,8,11,11,13,13,17,17,19,19,21,21,22,22,23,23,24,24,27,27,28,28],"right_children":[2,4,6,-1,8,10,12,14,16,-1,-1,18,-1,20,-1,-1,-1,22,-1,24,-1,26,28,30,32,-1,-1,34,36,-1,-1,-1,-1,-1,-1,-1,-1],"split_conditions":[9.55E2,1.404835E3,9.95E1,-9.072574E0,1E0,3.94621E3,1.075E1,5.42E1,3E0,-2.8856876E0,4.7978052E-1,6.738332E3,-2.0683306E-1,5.22145E3,-1.01889655E-1,-2.0629966E0,1.5832479E0,2E0,1.3213943E1,9.1E1,3.4896377E-2,5.043E3,9.99E1,1.890467E3,3.01E1,-2.1834307E0,4.2955756E0,4.671E3,1E2,-6.033332E-1,-5.8522677E0,4.3267095E-1,-2.4616785E0,5.798721E-1,4.302062E0,9.809319E0,2.4886186E0],"split_indices":[21,19,2,0,18,14,13,9,16,0,0,19,0,19,0,0,0,16,0,1,0,10,5,19,8,0,0,10,4,0,0,0,0,0,0,0,0],"split_type":[0,0,0,0,0,0,0,0,0,0,0,0,0,0,0,0,0,0,0,0,0,0,0,0,0,0,0,0,0,0,0,0,0,0,0,0,0],"sum_hessian":[2.74E2,1.6E2,1.14E2,3E1,1.3E2,1.6E1,9.8E1,1.11E2,1.9E1,8E0,8E0,8.9E1,9E0,9.8E1,1.3E1,9E0,1E1,6.6E1,2.3E1,8.8E1,1E1,1.8E1,4.8E1,5.7E1,3.1E1,1E1,8E0,2.6E1,2.2E1,8E0,4.9E1,1E1,2.1E1,8E0,1.8E1,1.3E1,9E0],"tree_param":{"num_deleted":"0","num_feature":"24","num_nodes":"37","size_leaf_vector":"1"}},{"base_weights":[4.16912E0,-9.097258E1,1.2550082E2,-1.5701671E2,-5.3133877E1,9.684164E0,1.6902603E2,-8.805616E0,-2.490909E0,-2.657707E0,-6.3971355E1,-2.2056718E0,4.2575798E1,5.7589443E1,2.0113586E2,-2.4894845E0,2.1491797E0,-7.43477E1,2.054873E-1,4.3835106E0,-1.4845164E0,4.267746E0,2.262717E-1,2.5244083E0,1.0932175E1,-8.582311E1,-5.2577204E-1,-9.472975E1,-1.3834352E0,-1.5687443E0,-5.72337E0],"categories":[],"categories_nodes":[],"categories_segments":[],"categories_sizes":[],"default_left":[0,0,0,0,0,0,0,0,0,0,0,0,0,0,0,0,0,0,0,0,0,0,0,0,0,0,0,0,0,0,0],"id":36,"left_children":[1,3,5,7,9,11,13,-1,-1,15,17,-1,19,21,23,-1,-1,25,-1,-1,-1,-1,-1,-1,-1,27,-1,29,-1,-1,-1],"loss_changes":[3.3116252E6,3.25954E5,6.191314E5,3.3123E4,6.1462844E4,9.496156E4,2.1978175E5,0E0,0E0,8.435693E4,7.034228E4,0E0,1.2903906E5,4.50076E4,8.279125E4,0E0,0E0,5.195578E4,0E0,0E0,0E0,0E0,0E0,0E0,0E0,1.1213656E4,0E0,3.7871875E4,0E0,0E0,0E0],"parents":[2147483647,0,0,1,1,2,2,3,3,4,4,5,5,6,6,9,9,10,10,12,12,13,13,14,14,17,17,25,25,27,27],"right_children":[2,4,6,8,10,12,14,-1,-1,16,18,-1,20,22,24,-1,-1,26,-1,-1,-1,-1,-1,-1,-1,28,-1,30,-1,-1,-1],"split_conditions":[9.95E1,3E0,1.164E3,2.451805E3,8.39E1,4.72E1,5.35E1,-8.805616E0,-2.490909E0,5.7217083E1,5.197097E3,-2.2056718E0,5.179717E1,9.98E1,5.043E3,-2.4894845E0,2.1491797E0,8.12E1,2.054873E-1,4.3835106E0,-1.4845164E0,4.267746E0,2.262717E-1,2.5244083E0,1.0932175E1,6.330597E1,-5.2577204E-1,5.88E2,-1.3834352E0,-1.5687443E0,-5.72337E0],"split_indices":[2,13,21,19,2,6,3,0,0,22,19,0,22,5,10,0,0,3,0,0,0,0,0,0,0,22,0,21,0,0,0],"split_type":[0,0,0,0,0,0,0,0,0,0,0,0,0,0,0,0,0,0,0,0,0,0,0,0,0,0,0,0,0,0,0],"sum_hessian":[2.69E2,1.52E2,1.17E2,4.5E1,1.07E2,3.5E1,8.2E1,3.3E1,1.2E1,2.1E1,8.6E1,1.2E1,2.3E1,2.4E1,5.8E1,1E1,1.1E1,7.4E1,1.2E1,1.3E1,1E1,1.2E1,1.2E1,1E1,4.8E1,6E1,1.4E1,4.7E1,1.3E1,1.7E1,3E1],"tree_param":{"num_deleted":"0","num_feature":"24","num_nodes":"31","size_leaf_vector":"1"}},{"base_weights":[4.674993E0,-7.284453E1,1.5311084E2,-5.1108654E1,-1.0158227E1,8.6832886E1,1.2791341E1,-6.435866E1,4.2745678E1,1.0733012E2,-1.9099034E0,-7.251762E1,1.5841411E0,-1.2124239E-1,3.53939E0,2.4232029E1,1.3159222E2,-9.5836E1,-2.8085691E1,-1.3551763E0,1.4127386E0,-7.472075E-1,2.468959E0,2.2029167E-1,1.5528426E2,-5.2715654E0,-1.1126077E0,1.3119619E0,-4.2188488E1,9.680993E0,6.015728E1,-2.5741081E0,2.1311533E-1,3.7840037E0,6.0511976E-1],"categories":[],"categories_nodes":[],"categories_segments":[],"categories_sizes":[],"default_left":[0,0,0,0,0,0,0,0,0,0,0,0,0,0,0,1,0,0,0,0,0,0,0,0,0,0,0,0,0,0,0,0,0,0,0],"id":37,"left_children":[1,3,5,7,-1,9,-1,11,13,15,-1,17,19,-1,-1,21,23,25,27,-1,-1,-1,-1,-1,29,-1,-1,-1,31,-1,33,-1,-1,-1,-1],"loss_changes":[3.3222892E6,4.458912E5,4.774305E5,2.4244231E5,0E0,2.2721094E5,0E0,8.5973E4,3.6513074E4,1.03329375E5,0E0,1.2001844E5,2.6954379E4,0E0,0E0,3.2720076E4,1.4031181E5,4.2441438E4,5.6881645E4,0E0,0E0,0E0,0E0,0E0,4.5498375E4,0E0,0E0,0E0,2.5206547E4,0E0,1.0061617E4,0E0,0E0,0E0,0E0],"parents":[2147483647,0,0,1,1,2,2,3,3,5,5,7,7,8,8,9,9,11,11,12,12,15,15,16,16,17,17,18,18,24,24,28,28,30,30],"right_children":[2,4,6,8,-1,10,-1,12,14,16,-1,18,20,-1,-1,22,24,26,28,-1,-1,-1,-1,-1,30,-1,-1,-1,32,-1,34,-1,-1,-1,-1],"split_conditions":[1.152E3,1E1,6.641E3,5.22145E3,-1.0158227E1,3.510779E3,1.2791341E1,5.42E1,1.74E0,5.8E-1,-1.9099034E0,9.07E1,3E0,-1.2124239E-1,3.53939E0,4.501E3,2E0,1E0,8.39E1,-1.3551763E0,1.4127386E0,-7.472075E-1,2.468959E0,2.2029167E-1,3.446693E-1,-5.2715654E0,-1.1126077E0,1.3119619E0,1E2,9.680993E0,2.468953E3,-2.5741081E0,2.1311533E-1,3.7840037E0,6.0511976E-1],"split_indices":[21,7,0,19,0,20,0,9,15,15,0,1,16,0,0,10,16,18,2,0,0,0,0,0,23,0,0,0,2,0,20,0,0,0,0],"split_type":[0,0,0,0,0,0,0,0,0,0,0,0,0,0,0,0,0,0,0,0,0,0,0,0,0,0,0,0,0,0,0,0,0,0,0],"sum_hessian":[2.71E2,1.81E2,9E1,1.66E2,1.5E1,6.5E1,2.5E1,1.48E2,1.8E1,5.7E1,8E0,1.31E2,1.7E1,1E1,8E0,1.7E1,4E1,7.9E1,5.2E1,8E0,9E0,8E0,9E0,8E0,3.2E1,6.6E1,1.3E1,9E0,4.3E1,1.6E1,1.6E1,3.5E1,8E0,8E0,8E0],"tree_param":{"num_deleted":"0","num_feature":"24","num_nodes":"35","size_leaf_vector":"1"}},{"base_weights":[4.1049914E0,-8.079007E1,1.2383891E2,-5.814749E1,-9.841639E0,-2.4904017E0,1.4360768E2,-6.516877E1,-2.6338034E0,1.589159E2,1.056931E-1,-7.235562E1,-8.915316E0,-2.268925E0,2.05312E0,7.96865E1,2.1305566E2,-5.4245048E0,-5.0767887E1,-2.2454903E0,1.6781379E0,1.1668988E2,-8.5397923E-1,2.8226333E0,1.201082E1,-5.927012E1,2.9884174E-2,4.4034428E1,7.5440555E0,-3.2459447E0,-3.0176362E-1,3.4101412E0,-2.3433007E-1],"categories":[],"categories_nodes":[],"categories_segments":[],"categories_sizes":[],"default_left":[0,0,0,0,0,0,0,0,0,0,0,0,0,0,0,0,0,0,0,0,0,0,0,0,0,0,0,0,0,0,0,0,0],"id":38,"left_children":[1,3,5,7,-1,-1,9,11,13,15,-1,17,19,-1,-1,21,23,-1,25,-1,-1,27,-1,-1,-1,29,-1,31,-1,-1,-1,-1,-1],"loss_changes":[2.9665302E6,3.4714912E5,4.8081162E5,5.8792938E4,0E0,0E0,2.36241E5,4.9436688E4,6.763615E4,2.7443425E5,0E0,4.4685438E4,5.3722734E4,0E0,0E0,2.1562012E5,1.120105E5,0E0,4.132653E4,0E0,0E0,4.223375E4,0E0,0E0,0E0,2.1017344E4,0E0,3.4239414E4,0E0,0E0,0E0,0E0,0E0],"parents":[2147483647,0,0,1,1,2,2,3,3,6,6,7,7,8,8,9,9,11,11,12,12,15,15,16,16,18,18,21,21,25,25,27,27],"right_children":[2,4,6,8,-1,-1,10,12,14,16,-1,18,20,-1,-1,22,24,-1,26,-1,-1,28,-1,-1,-1,30,-1,32,-1,-1,-1,-1,-1],"split_conditions":[9.55E2,1E1,3.386E3,4.998E3,-9.841639E0,-2.4904017E0,3.1088703E0,5.42E1,4.49E1,5.863E3,1.056931E-1,3.85904E3,6.3141014E1,-2.268925E0,2.05312E0,4.1095E3,5.145E3,-5.4245048E0,9.99E1,-2.2454903E0,1.6781379E0,3E0,-8.5397923E-1,2.8226333E0,1.201082E1,6.54E1,2.9884174E-2,2.689874E3,7.5440555E0,-3.2459447E0,-3.0176362E-1,3.4101412E0,-2.3433007E-1],"split_indices":[21,7,0,0,0,0,23,9,6,0,0,14,22,0,0,14,10,0,4,0,0,16,0,0,0,6,0,20,0,0,0,0,0],"split_type":[0,0,0,0,0,0,0,0,0,0,0,0,0,0,0,0,0,0,0,0,0,0,0,0,0,0,0,0,0,0,0,0,0],"sum_hessian":[2.74E2,1.62E2,1.12E2,1.47E2,1.5E1,1E1,1.02E2,1.29E2,1.8E1,9.1E1,1.1E1,1.12E2,1.7E1,9E0,9E0,4.6E1,4.5E1,2.8E1,8.4E1,9E0,8E0,3.2E1,1.4E1,1.1E1,3.4E1,7.1E1,1.3E1,1.7E1,1.5E1,6.2E1,9E0,9E0,8E0],"tree_param":{"num_deleted":"0","num_feature":"24","num_nodes":"33","size_leaf_vector":"1"}},{"base_weights":[7.1835285E-1,-6.770161E1,1.4420163E2,-1.370431E2,-3.3102905E1,7.178316E1,9.891549E0,-6.461854E1,-8.475904E0,4.589305E1,-5.7087433E1,-6.2479764E-1,1.01448975E2,-4.968049E0,-0E0,-1.9445966E0,9.887595E1,-8.142996E0,-6.804453E1,5.9014835E0,7.154159E-1,-5.82858E-1,7.6872015E0,-2.262923E0,1.4319191E0,-8.604999E1,-2.5580175E1,-1.032413E0,-1.0174682E2,-1.9422343E0,2.500413E-1,-5.947215E0,-1.4607567E0],"categories":[],"categories_nodes":[],"categories_segments":[],"categories_sizes":[],"default_left":[1,0,0,0,0,0,0,0,0,0,0,0,0,0,0,0,0,0,0,0,0,0,0,0,0,0,0,0,0,0,0,0,0],"id":39,"left_children":[1,3,5,7,9,11,-1,13,-1,15,17,-1,19,-1,-1,-1,21,23,25,-1,-1,-1,-1,-1,-1,27,29,-1,31,-1,-1,-1,-1],"loss_changes":[2.826924E6,4.25888E5,2.3615362E5,4.8240625E4,2.925992E5,1.47057E5,0E0,7.668378E4,0E0,2.0594339E5,5.509453E4,0E0,4.452678E4,0E0,0E0,0E0,1.7639605E5,5.4432348E4,4.903778E4,0E0,0E0,0E0,0E0,0E0,0E0,4.173703E4,1.838767E4,0E0,2.6269812E4,0E0,0E0,0E0,0E0],"parents":[2147483647,0,0,1,1,2,2,3,3,4,4,5,5,7,7,9,9,10,10,12,12,16,16,17,17,18,18,25,25,26,26,28,28],"right_children":[2,4,6,8,10,12,-1,14,-1,16,18,-1,20,-1,-1,-1,22,24,26,-1,-1,-1,-1,-1,-1,28,30,-1,32,-1,-1,-1,-1],"split_conditions":[2E0,3E0,5.69E1,4E0,7.5E0,2.2E1,9.891549E0,9.28E1,-8.475904E0,3.2161722E-1,8.39E1,-6.2479764E-1,9.57E1,-4.968049E0,-0E0,-1.9445966E0,1.51E0,5.7217083E1,6.2252846E1,5.9014835E0,7.154159E-1,-5.82858E-1,7.6872015E0,-2.262923E0,1.4319191E0,5.88E2,8.87E1,-1.032413E0,9.48E1,-1.9422343E0,2.500413E-1,-5.947215E0,-1.4607567E0],"split_indices":[12,13,3,7,13,12,0,2,0,23,2,0,1,0,0,0,15,22,22,0,0,0,0,0,0,21,2,0,1,0,0,0,0],"split_type":[0,0,0,0,0,0,0,0,0,0,0,0,0,0,0,0,0,0,0,0,0,0,0,0,0,0,0,0,0,0,0,0,0],"sum_hessian":[2.7E2,1.86E2,8.4E1,5.3E1,1.33E2,4.5E1,3.9E1,2.5E1,2.8E1,2.9E1,1.04E2,1.3E1,3.2E1,1.3E1,1.2E1,1.2E1,1.7E1,2.2E1,8.2E1,2.4E1,8E0,8E0,9E0,1E1,1.2E1,5.1E1,3.1E1,1.4E1,3.7E1,2E1,1.1E1,2.5E1,1.2E1],"tree_param":{"num_deleted":"0","num_feature":"24","num_nodes":"33","size_leaf_vector":"1"}},{"base_weights":[-4.702725E0,-6.714971E1,1.2670172E2,-7.939582E0,-4.348673E1,1.4628008E2,2.1318872E-1,3.876395E1,-5.5889565E1,4.415877E1,1.835252E2,-2.1270025E0,4.666E0,-6.1360313E1,9.1506577E-1,4.5547833E0,-5.89733E-1,3.1762161E0,1.0659985E1,-8.130165E1,-2.3443405E1,-1.156172E0,-9.029398E1,-4.1565907E1,1.7918729E0,-5.1044974E0,-1.9847301E0,-3.534638E0,-7.251483E-1],"categories":[],"categories_nodes":[],"categories_segments":[],"categories_sizes":[],"default_left":[1,0,0,0,0,0,0,0,0,0,0,0,0,0,0,0,0,0,0,0,0,0,0,0,0,0,0,0,0],"id":40,"left_children":[1,3,5,-1,7,9,-1,11,13,15,17,-1,-1,19,-1,-1,-1,-1,-1,21,23,-1,25,27,-1,-1,-1,-1,-1],"loss_changes":[2.3405952E6,3.575132E5,2.1380762E5,0E0,1.888875E5,2.2608312E5,0E0,1.568846E5,7.052669E4,9.754669E4,7.6138875E4,0E0,0E0,8.801319E4,0E0,0E0,0E0,0E0,0E0,2.6372625E4,7.9113586E4,0E0,7.1850625E3,3.060471E4,0E0,0E0,0E0,0E0,0E0],"parents":[2147483647,0,0,1,1,2,2,4,4,5,5,7,7,8,8,9,9,10,10,13,13,19,19,20,20,22,22,23,23],"right_children":[2,4,6,-1,8,10,-1,12,14,16,18,-1,-1,20,-1,-1,-1,-1,-1,22,24,-1,26,28,-1,-1,-1,-1,-1],"split_conditions":[2E0,1.19E3,3.1088703E0,-7.939582E0,4.481547E1,5.53E3,2.1318872E-1,5.51E1,5.06E0,5.164177E3,2.8257328E-1,-2.1270025E0,4.666E0,5.9012047E1,9.1506577E-1,4.5547833E0,-5.89733E-1,3.1762161E0,1.0659985E1,2.8883284E-1,2E0,-1.156172E0,1E2,3.93203E3,1.7918729E0,-5.1044974E0,-1.9847301E0,-3.534638E0,-7.251483E-1],"split_indices":[12,0,23,0,22,0,0,1,15,19,23,0,0,22,0,0,0,0,0,23,7,0,5,14,0,0,0,0,0],"split_type":[0,0,0,0,0,0,0,0,0,0,0,0,0,0,0,0,0,0,0,0,0,0,0,0,0,0,0,0,0],"sum_hessian":[2.67E2,1.84E2,8.3E1,2.7E1,1.57E2,7E1,1.3E1,1.8E1,1.39E2,2.4E1,4.6E1,8E0,1E1,1.31E2,8E0,1E1,1.4E1,1.5E1,3.1E1,7.9E1,5.2E1,1.5E1,6.4E1,4.2E1,1E1,4.4E1,2E1,1.3E1,2.9E1],"tree_param":{"num_deleted":"0","num_feature":"24","num_nodes":"29","size_leaf_vector":"1"}},{"base_weights":[9.381563E-1,-7.738954E1,1.0084343E2,-8.136161E0,-5.176774E1,4.694562E1,1.7793472E2,-8.2846924E1,-2.8063799E1,-3.2332775E1,6.900254E1,6.3244087E1,1.1260423E1,-4.6100125E0,-5.8918005E-1,-5.4044033E1,-6.587828E-1,1.3441069E0,-3.73391E0,1.16153206E2,2.6392967E1,-1.550499E0,5.883926E0,-3.4116383E0,-5.933992E-1,-3.9366955E1,5.4405094E1,1.3208352E0,7.0603414E0,4.293286E1,-5.5567E-1,4.5621502E-1,-3.0217085E0,4.501078E0,-5.989899E-1,3.0166166E0,2.0401677E-1],"categories":[],"categories_nodes":[],"categories_segments":[],"categories_sizes":[],"default_left":[0,0,0,0,0,0,0,0,0,0,0,0,0,0,0,0,0,0,0,0,0,0,0,0,0,0,0,0,0,0,0,0,0,0,0,0,0],"id":41,"left_children":[1,3,5,-1,7,9,11,13,15,17,19,21,-1,-1,-1,23,25,-1,-1,27,29,-1,-1,-1,-1,31,33,-1,-1,35,-1,-1,-1,-1,-1,-1,-1],"loss_changes":[2.261146E6,2.792387E5,4.5107225E5,0E0,8.001844E4,1.7237188E5,1.398475E5,2.7294281E4,6.479421E4,8.161861E4,1.1410456E5,1.7326338E5,0E0,0E0,0E0,2.0704078E4,1.341744E5,0E0,0E0,3.6117156E4,3.4931984E4,0E0,0E0,0E0,0E0,4.3533996E4,7.231412E4,0E0,0E0,2.1951773E4,0E0,0E0,0E0,0E0,0E0,0E0,0E0],"parents":[2147483647,0,0,1,1,2,2,4,4,5,5,6,6,7,7,8,8,9,9,10,10,11,11,15,15,16,16,19,19,20,20,25,25,26,26,29,29],"right_children":[2,4,6,-1,8,10,12,14,16,18,20,22,-1,-1,-1,24,26,-1,-1,28,30,-1,-1,-1,-1,32,34,-1,-1,36,-1,-1,-1,-1,-1,-1,-1],"split_conditions":[9.95E1,1.139E3,3.100777E3,-8.136161E0,9.2E-1,2.4E0,6.63E3,9.93E1,2.315538E3,2.202574E3,3.446693E-1,7.2E-1,1.1260423E1,-4.6100125E0,-5.8918005E-1,6.35E1,5.35E1,1.3441069E0,-3.73391E0,5.145E3,9.99E1,-1.550499E0,5.883926E0,-3.4116383E0,-5.933992E-1,1.1E0,1.673176E3,1.3208352E0,7.0603414E0,2.563269E3,-5.5567E-1,4.5621502E-1,-3.0217085E0,4.501078E0,-5.989899E-1,3.0166166E0,2.0401677E-1],"split_indices":[2,0,20,0,15,8,0,2,19,20,23,15,0,0,0,6,6,0,0,10,5,0,0,0,0,9,20,0,0,20,0,0,0,0,0,0,0],"split_type":[0,0,0,0,0,0,0,0,0,0,0,0,0,0,0,0,0,0,0,0,0,0,0,0,0,0,0,0,0,0,0,0,0,0,0,0,0],"sum_hessian":[2.71E2,1.53E2,1.18E2,2.4E1,1.29E2,7.8E1,4E1,4.6E1,8.3E1,1.6E1,6.2E1,1.8E1,2.2E1,3.8E1,8E0,3.8E1,4.5E1,8E0,8E0,2.2E1,4E1,8E0,1E1,2.4E1,1.4E1,2.8E1,1.7E1,9E0,1.3E1,2.7E1,1.3E1,1E1,1.8E1,9E0,8E0,1.5E1,1.2E1],"tree_param":{"num_deleted":"0","num_feature":"24","num_nodes":"37","size_leaf_vector":"1"}},{"base_weights":[3.218543E0,-7.830232E1,9.613552E1,-1.3517151E2,-4.1566345E1,6.4988174E1,1.0383595E1,-7.656437E0,-2.4031034E0,-1.6291084E1,-6.4879974E1,1.6172712E1,1.0812642E2,2.1558546E1,-3.344735E1,-7.285816E1,-4.7347894E-1,-3.182445E0,4.677076E1,1.509068E0,6.3497176E0,-9.50497E-1,2.5506182E0,2.3185897E-1,-5.283984E1,-1.3523686E0,-4.37782E0,-2.7559004E1,8.580823E1,-3.3470392E0,-5.416014E-1,-2.8227398E0,7.828237E-1,-1.051793E-1,1.1501197E2,7.6613355E0,8.10487E-1],"categories":[],"categories_nodes":[],"categories_segments":[],"categories_sizes":[],"default_left":[0,0,0,0,0,1,0,0,0,0,0,0,0,0,0,0,0,0,0,0,0,0,0,0,0,0,0,0,0,0,0,0,0,0,0,0,0],"id":42,"left_children":[1,3,5,7,9,11,-1,-1,-1,13,15,17,19,21,23,25,-1,-1,27,-1,-1,-1,-1,-1,29,-1,-1,31,33,-1,-1,-1,-1,-1,35,-1,-1],"loss_changes":[2.173291E6,2.6794525E5,3.4513188E5,2.2168188E4,5.2405406E4,2.3189175E5,0E0,0E0,0E0,4.744968E4,1.6185266E4,1.8831672E5,5.60085E4,3.907372E4,3.724738E4,7.9887188E3,0E0,0E0,1.7534978E5,0E0,0E0,0E0,0E0,0E0,1.21615625E4,0E0,0E0,3.972639E4,9.789306E4,0E0,0E0,0E0,0E0,0E0,8.349222E4,0E0,0E0],"parents":[2147483647,0,0,1,1,2,2,3,3,4,4,5,5,9,9,10,10,11,11,12,12,13,13,14,14,15,15,18,18,24,24,27,27,28,28,34,34],"right_children":[2,4,6,8,10,12,-1,-1,-1,14,16,18,20,22,24,26,-1,-1,28,-1,-1,-1,-1,-1,30,-1,-1,32,34,-1,-1,-1,-1,-1,36,-1,-1],"split_conditions":[2.098973E3,3E0,4.147796E3,6.449077E1,4.15159E3,2.4E1,1.0383595E1,-7.656437E0,-2.4031034E0,5E0,8.1E1,2E0,5.282E3,2.258E3,7.02E2,5.65E2,-4.7347894E-1,-3.182445E0,8.2E-1,1.509068E0,6.3497176E0,-9.50497E-1,2.5506182E0,2.3185897E-1,7.82E1,-1.3523686E0,-4.37782E0,7.36E1,9.55E2,-3.3470392E0,-5.416014E-1,-2.8227398E0,7.828237E-1,-1.051793E-1,9.75E0,7.6613355E0,8.10487E-1],"split_indices":[20,13,20,22,14,12,0,0,0,17,3,16,0,0,21,21,0,0,15,0,0,0,0,0,3,0,0,3,21,0,0,0,0,0,13,0,0],"split_type":[0,0,0,0,0,0,0,0,0,0,0,0,0,0,0,0,0,0,0,0,0,0,0,0,0,0,0,0,0,0,0,0,0,0,0,0,0],"sum_hessian":[2.69E2,1.44E2,1.25E2,4.7E1,9.7E1,1.09E2,1.6E1,3.3E1,1.4E1,5.4E1,4.3E1,5.7E1,5.2E1,1.6E1,3.8E1,3.5E1,8E0,1.3E1,4.4E1,1.5E1,3.7E1,8E0,8E0,1.5E1,2.3E1,1.5E1,2E1,1.6E1,2.8E1,1.3E1,1E1,8E0,8E0,9E0,1.9E1,1E1,9E0],"tree_param":{"num_deleted":"0","num_feature":"24","num_nodes":"37","size_leaf_vector":"1"}},{"base_weights":[-1.1954074E-1,-6.9025986E1,9.6881035E1,-1.4866333E2,-4.6589695E1,-2.6083894E0,1.1478702E2,-8.394123E0,-2.0164065E0,-5.989406E1,-1.6484678E1,7.803317E1,1.0538718E1,-7.006425E1,1.5555413E-1,-3.431771E1,1.0274206E0,-2.6636972E0,9.7689476E1,-8.009952E1,5.725555E-1,-2.164409E0,-2.1921468E-1,2.4677288E1,1.2956123E2,-8.0588555E-1,-4.587582E0,-1.4888014E0,5.837138E1,7.919284E0,1.6597529E-1,3.6623592E0,5.514357E-1],"categories":[],"categories_nodes":[],"categories_segments":[],"categories_sizes":[],"default_left":[0,0,0,0,0,0,0,0,0,0,0,0,0,0,0,0,0,0,0,0,0,0,0,0,0,0,0,0,0,0,0,0,0],"id":43,"left_children":[1,3,5,7,9,-1,11,-1,-1,13,15,17,-1,19,-1,21,-1,-1,23,25,-1,-1,-1,27,29,-1,-1,-1,31,-1,-1,-1,-1],"loss_changes":[1.9312064E6,2.38411E5,3.749935E5,8.1E3,4.8682656E4,0E0,2.4092112E5,0E0,0E0,6.4572594E4,4.4151992E4,2.9010975E5,0E0,7.746378E4,0E0,9.420945E3,0E0,0E0,1.6798956E5,4.4102E4,0E0,0E0,0E0,8.383479E4,2.05599E5,0E0,0E0,0E0,1.0724953E4,0E0,0E0,0E0,0E0],"parents":[2147483647,0,0,1,1,2,2,3,3,4,4,6,6,9,9,10,10,11,11,13,13,15,15,18,18,19,19,23,23,24,24,28,28],"right_children":[2,4,6,8,10,-1,12,-1,-1,14,16,18,-1,20,-1,22,-1,-1,24,26,-1,-1,-1,28,30,-1,-1,-1,32,-1,-1,-1,-1],"split_conditions":[9.55E2,1.188239E3,3.386E3,6.052886E1,9.07E1,-2.6083894E0,3.01E0,-8.394123E0,-2.0164065E0,5.42E1,2.614479E3,9.96E1,1.0538718E1,5.22145E3,1.5555413E-1,8.84E1,1.0274206E0,-2.6636972E0,5.572E3,1.766344E3,5.725555E-1,-2.164409E0,-2.1921468E-1,3.6E1,3.9E1,-8.0588555E-1,-4.587582E0,-1.4888014E0,3.5E1,7.919284E0,1.6597529E-1,3.6623592E0,5.514357E-1],"split_indices":[21,19,0,22,1,0,15,0,0,9,19,2,0,19,0,2,0,0,0,19,0,0,0,8,8,0,0,0,12,0,0,0,0],"split_type":[0,0,0,0,0,0,0,0,0,0,0,0,0,0,0,0,0,0,0,0,0,0,0,0,0,0,0,0,0,0,0,0,0],"sum_hessian":[2.71E2,1.6E2,1.11E2,2.4E1,1.36E2,1E1,1.01E2,1.6E1,8E0,8.8E1,4.8E1,8.5E1,1.6E1,7.5E1,1.3E1,3.3E1,1.5E1,9E0,7.6E1,6.7E1,8E0,2.2E1,1.1E1,2.8E1,4.8E1,1.4E1,5.3E1,1.1E1,1.7E1,3.7E1,1.1E1,9E0,8E0],"tree_param":{"num_deleted":"0","num_feature":"24","num_nodes":"33","size_leaf_vector":"1"}},{"base_weights":[3.0373235E0,-4.8755363E1,1.2711827E2,-7.206544E0,-2.6078087E1,1.4203233E2,-3.6468694E-1,4.2999607E1,-3.8499146E1,5.1693993E1,1.7886981E2,-1.5841084E0,5.2656946E0,-6.1458942E1,-1.3283064E1,4.9155865E0,1.057251E0,2.0643787E0,1.0322842E1,-7.382808E1,8.12614E-1,2.401521E1,-4.1242493E1,-1.6047457E0,1.6104962E0,-4.547464E0,-2.5745237E1,-3.0857624E1,4.607109E0,-6.5919914E1,9.4954145E-1,-2.062394E0,4.3100256E-1,1.0282387E0,-2.9066396E0,-4.160297E0,-8.913401E-1],"categories":[],"categories_nodes":[],"categories_segments":[],"categories_sizes":[],"default_left":[1,0,0,0,0,0,0,0,0,0,0,0,0,0,0,0,0,0,0,0,0,0,0,0,0,0,0,0,0,0,0,0,0,0,0,0,0],"id":44,"left_children":[1,3,5,-1,7,9,-1,11,13,15,17,-1,-1,19,21,-1,23,-1,-1,25,-1,27,29,-1,-1,-1,31,33,-1,35,-1,-1,-1,-1,-1,-1,-1],"loss_changes":[1.8554471E6,4.085705E5,1.8063538E5,0E0,1.6582322E5,1.7158475E5,0E0,1.7595006E5,8.130742E4,8.158425E4,1.19759375E5,0E0,0E0,8.6214375E4,9.762729E4,0E0,3.6374375E4,0E0,0E0,3.5987125E4,0E0,1.837378E5,8.8947836E4,0E0,0E0,0E0,2.0117268E4,5.3501375E4,0E0,1.8821656E4,0E0,0E0,0E0,0E0,0E0,0E0,0E0],"parents":[2147483647,0,0,1,1,2,2,4,4,5,5,7,7,8,8,9,9,10,10,13,13,14,14,16,16,19,19,21,21,22,22,26,26,27,27,29,29],"right_children":[2,4,6,-1,8,10,-1,12,14,16,18,-1,-1,20,22,-1,24,-1,-1,26,-1,28,30,-1,-1,-1,32,34,-1,36,-1,-1,-1,-1,-1,-1,-1],"split_conditions":[6E0,1.19E3,3.0978024E0,-7.206544E0,4.481547E1,5.703E3,-3.6468694E-1,9.94E1,3E0,5.164177E3,5.145E3,-1.5841084E0,5.2656946E0,5.935014E-1,4E0,4.9155865E0,3E0,2.0643787E0,1.0322842E1,5.8530746E1,8.12614E-1,2E0,9.26E1,-1.6047457E0,1.6104962E0,-4.547464E0,1.817E3,1.997753E3,4.607109E0,1E2,9.4954145E-1,-2.062394E0,4.3100256E-1,1.0282387E0,-2.9066396E0,-4.160297E0,-8.913401E-1],"split_indices":[12,0,23,0,22,0,0,2,16,19,10,0,0,23,16,0,16,0,0,22,0,7,1,0,0,0,0,19,0,5,0,0,0,0,0,0,0],"split_type":[0,0,0,0,0,0,0,0,0,0,0,0,0,0,0,0,0,0,0,0,0,0,0,0,0,0,0,0,0,0,0,0,0,0,0,0,0],"sum_hessian":[2.71E2,1.95E2,7.6E1,2.8E1,1.67E2,6.8E1,8E0,2.2E1,1.45E2,2.6E1,4.2E1,1.2E1,1E1,6.9E1,7.6E1,9E0,1.7E1,1.1E1,3.1E1,6E1,9E0,3.3E1,4.3E1,8E0,9E0,3.8E1,2.2E1,2.1E1,1.2E1,3E1,1.3E1,1.4E1,8E0,8E0,1.3E1,1.7E1,1.3E1],"tree_param":{"num_deleted":"0","num_feature":"24","num_nodes":"37","size_leaf_vector":"1"}},{"base_weights":[4.1942735E0,-6.849021E1,8.849718E1,-4.8008102E1,-8.162364E0,6.005494E1,9.560029E0,8.3671707E-1,-5.305395E1,7.3503933E0,9.852526E1,-1.0851302E1,-6.4746216E1,3.7808135E0,-2.5974817E1,-8.505844E-1,1.1661357E2,-3.9858166E1,1.2895834E0,-5.0485694E-1,-7.087462E1,-4.3093557E0,1.9837387E1,7.439439E-2,1.392432E2,-2.7544606E0,-1.0158615E-1,-8.539242E-1,-3.7989545E0,3.486549E1,-6.598611E-1,1.5621086E0,7.6190386E0,2.5923264E0,-6.727457E-2],"categories":[],"categories_nodes":[],"categories_segments":[],"categories_sizes":[],"default_left":[0,0,0,0,0,0,0,0,0,0,0,0,0,0,0,0,0,0,0,0,0,0,0,0,0,0,0,0,0,0,0,0,0,0,0],"id":45,"left_children":[1,3,5,7,-1,9,-1,-1,11,13,15,17,19,-1,21,-1,23,25,-1,-1,27,-1,29,-1,31,-1,-1,-1,-1,33,-1,-1,-1,-1,-1],"loss_changes":[1.7885006E6,2.3451656E5,2.9177775E5,5.4671875E4,0E0,2.340105E5,0E0,0E0,5.928728E4,1.5503569E5,1.6069406E5,5.1958996E4,2.74645E4,0E0,1.4612111E5,0E0,1.534225E5,1.3757527E4,0E0,0E0,1.3934531E4,0E0,2.1186021E4,0E0,2.9519938E4,0E0,0E0,0E0,0E0,1.7130016E4,0E0,0E0,0E0,0E0,0E0],"parents":[2147483647,0,0,1,1,2,2,3,3,5,5,8,8,9,9,10,10,11,11,12,12,14,14,16,16,17,17,20,20,22,22,24,24,29,29],"right_children":[2,4,6,8,-1,10,-1,-1,12,14,16,18,20,-1,22,-1,24,26,-1,-1,28,-1,30,-1,32,-1,-1,-1,-1,34,-1,-1,-1,-1,-1],"split_conditions":[2.098973E3,1E1,4.147796E3,3.70029E3,-8.162364E0,3E0,9.560029E0,8.3671707E-1,5E0,3.82898E3,7.68E2,3E0,1E0,3.7808135E0,9.32E1,-8.505844E-1,4.1E-1,2.258E3,1.2895834E0,-5.0485694E-1,6.77E1,-4.3093557E0,3.84E1,7.439439E-2,2.3E1,-2.7544606E0,-1.0158615E-1,-8.539242E-1,-3.7989545E0,1.808E3,-6.598611E-1,1.5621086E0,7.6190386E0,2.5923264E0,-6.727457E-2],"split_indices":[20,7,20,14,0,16,0,0,17,14,21,16,7,0,1,0,15,0,0,0,3,0,8,0,12,0,0,0,0,21,0,0,0,0,0],"split_type":[0,0,0,0,0,0,0,0,0,0,0,0,0,0,0,0,0,0,0,0,0,0,0,0,0,0,0,0,0,0,0,0,0,0,0],"sum_hessian":[2.74E2,1.48E2,1.26E2,1.33E2,1.5E1,1.1E2,1.6E1,8E0,1.25E2,5.1E1,5.9E1,3.1E1,9.4E1,1.3E1,3.8E1,8E0,5.1E1,1.7E1,1.4E1,1.2E1,8.2E1,1.3E1,2.5E1,1E1,4.1E1,9E0,8E0,1.1E1,7.1E1,1.7E1,8E0,8E0,3.3E1,9E0,8E0],"tree_param":{"num_deleted":"0","num_feature":"24","num_nodes":"35","size_leaf_vector":"1"}},{"base_weights":[2.480896E0,-6.2034275E1,9.152706E1,-4.343543E1,-7.907979E0,3.7676513E0,1.21948326E2,-5.2002106E1,-6.9438925E0,-4.409495E0,5.480171E1,1.3867122E2,-7.386391E-1,-6.099889E1,3.92841E-1,2.45539E0,-3.5061752E1,4.085258E-2,3.9216435E0,6.154075E1,8.698495E0,-6.807373E1,-1.4317396E-1,-2.3457816E0,2.1442952E0,-2.0736783E0,-3.4130043E-1,-0E0,7.714632E1,-7.317063E1,-2.7421112E1,3.598636E-1,5.26586E0,-4.696164E0,-2.3019161E0,-2.213905E0,1.840956E-1],"categories":[],"categories_nodes":[],"categories_segments":[],"categories_sizes":[],"default_left":[0,0,0,0,0,0,0,0,0,0,0,0,0,0,0,0,0,0,0,0,0,0,0,0,0,0,0,0,0,0,0,0,0,0,0,0,0],"id":46,"left_children":[1,3,5,7,-1,9,11,13,15,-1,17,19,-1,21,23,-1,25,-1,-1,27,-1,29,-1,-1,-1,-1,-1,-1,31,33,35,-1,-1,-1,-1,-1,-1],"loss_changes":[1.682577E6,2.4243244E5,3.233372E5,4.4803812E4,0E0,2.362945E5,2.2739362E5,5.9069906E4,7.86248E4,0E0,4.0163094E4,1.291205E5,0E0,4.134028E4,7.279576E4,0E0,3.0296328E3,0E0,0E0,3.8910703E4,0E0,7.7325E2,0E0,0E0,0E0,0E0,0E0,0E0,5.6221547E4,4.2931562E3,1.4979033E4,0E0,0E0,0E0,0E0,0E0,0E0],"parents":[2147483647,0,0,1,1,2,2,3,3,5,5,6,6,7,7,8,8,10,10,11,11,13,13,14,14,16,16,19,19,21,21,28,28,29,29,30,30],"right_children":[2,4,6,8,-1,10,12,14,16,-1,18,20,-1,22,24,-1,26,-1,-1,28,-1,30,-1,-1,-1,-1,-1,-1,32,34,36,-1,-1,-1,-1,-1,-1],"split_conditions":[9.55E2,1E1,2E0,9.26E1,-7.907979E0,2.94E1,1.075E1,5.42E1,9.4E1,-4.409495E0,1.772E3,5.7E1,-7.386391E-1,2.17281E3,8.12E1,2.45539E0,6.25E1,4.085258E-2,3.9216435E0,1.441E3,8.698495E0,9.07E1,-1.4317396E-1,-2.3457816E0,2.1442952E0,-2.0736783E0,-3.4130043E-1,-0E0,5.497E3,2E0,9.47039E2,3.598636E-1,5.26586E0,-4.696164E0,-2.3019161E0,-2.213905E0,1.840956E-1],"split_indices":[21,7,16,1,0,8,13,9,1,0,21,3,0,20,3,0,6,0,0,21,0,1,0,0,0,0,0,0,0,7,20,0,0,0,0,0,0],"split_type":[0,0,0,0,0,0,0,0,0,0,0,0,0,0,0,0,0,0,0,0,0,0,0,0,0,0,0,0,0,0,0,0,0,0,0,0,0],"sum_hessian":[2.75E2,1.61E2,1.14E2,1.46E2,1.5E1,3.2E1,8.2E1,1.15E2,3.1E1,9E0,2.3E1,7.3E1,9E0,9.7E1,1.8E1,8E0,2.3E1,1E1,1.3E1,3.1E1,4.2E1,8.5E1,1.2E1,8E0,1E1,1.5E1,8E0,8E0,2.3E1,6.9E1,1.6E1,1E1,1.3E1,2.6E1,4.3E1,8E0,8E0],"tree_param":{"num_deleted":"0","num_feature":"24","num_nodes":"37","size_leaf_vector":"1"}},{"base_weights":[3.1972997E0,-6.6754234E1,8.633357E1,-4.7652008E1,-7.661521E0,4.720314E1,1.646343E2,-5.8207817E1,-8.973079E0,-1.9600239E1,7.315253E1,1.021669E1,4.9782965E-2,5.5314136E-1,-6.4753716E1,2.1170049E0,-3.323371E1,1.5218906E0,-2.7065966E0,1.6743122E1,1.0044669E2,-7.3968506E1,-2.227406E1,-2.0979493E0,-1.094377E-1,3.6856406E0,-2.342667E0,-7.400754E-1,6.328293E0,-1.2933316E0,-8.062033E1,4.661239E-1,-2.5008242E0,-4.62531E0,-1.606877E0],"categories":[],"categories_nodes":[],"categories_segments":[],"categories_sizes":[],"default_left":[0,0,0,0,0,0,0,0,0,0,0,0,0,0,0,0,0,0,0,0,0,0,0,0,0,0,0,0,0,0,0,0,0,0,0],"id":47,"left_children":[1,3,5,7,-1,9,11,13,15,17,19,-1,-1,-1,21,-1,23,-1,-1,25,27,29,31,-1,-1,-1,-1,-1,-1,-1,33,-1,-1,-1,-1],"loss_changes":[1.6684541E6,1.9215481E5,3.3009506E5,5.241203E4,0E0,1.865493E5,2.6132525E5,5.6263938E4,6.3781266E4,7.597953E4,9.800153E4,0E0,0E0,0E0,2.4078938E4,0E0,7.9541406E3,0E0,0E0,1.5908095E5,1.6474469E5,5.703625E3,3.1856717E4,0E0,0E0,0E0,0E0,0E0,0E0,0E0,1.0674344E4,0E0,0E0,0E0,0E0],"parents":[2147483647,0,0,1,1,2,2,3,3,5,5,6,6,7,7,8,8,9,9,10,10,14,14,16,16,19,19,20,20,21,21,22,22,30,30],"right_children":[2,4,6,8,-1,10,12,14,16,18,20,-1,-1,-1,22,-1,24,-1,-1,26,28,30,32,-1,-1,-1,-1,-1,-1,-1,34,-1,-1,-1,-1],"split_conditions":[2.098973E3,1E1,6.738332E3,9.26E1,-7.661521E0,1.146E3,3.82E1,3.65214E3,9.43E1,2.346966E3,3.6E1,1.021669E1,4.9782965E-2,5.5314136E-1,9.92E1,2.1170049E0,9.6E1,1.5218906E0,-2.7065966E0,1.493E3,4.752186E1,8.39E1,4E0,-2.0979493E0,-1.094377E-1,3.6856406E0,-2.342667E0,-7.400754E-1,6.328293E0,-1.2933316E0,4.66206E3,4.661239E-1,-2.5008242E0,-4.62531E0,-1.606877E0],"split_indices":[20,7,19,1,0,21,8,14,1,20,8,0,0,0,2,0,1,0,0,21,22,2,7,0,0,0,0,0,0,0,14,0,0,0,0],"split_type":[0,0,0,0,0,0,0,0,0,0,0,0,0,0,0,0,0,0,0,0,0,0,0,0,0,0,0,0,0,0,0,0,0,0,0],"sum_hessian":[2.69E2,1.47E2,1.22E2,1.32E2,1.5E1,9.1E1,3.1E1,1E2,3.2E1,2.6E1,6.5E1,2.3E1,8E0,8E0,9.2E1,8E0,2.4E1,1.1E1,1.5E1,2.6E1,3.9E1,7E1,2.2E1,1.6E1,8E0,1.3E1,1.3E1,8E0,3.1E1,1.4E1,5.6E1,1.3E1,9E0,3.8E1,1.8E1],"tree_param":{"num_deleted":"0","num_feature":"24","num_nodes":"35","size_leaf_vector":"1"}},{"base_weights":[4.407011E0,-6.1141983E1,8.762685E1,-6.429494E0,-4.0389645E1,4.1511616E1,1.542615E2,-6.872358E1,-1.889545E1,-1.2918089E1,7.3280525E1,9.577563E0,1.4475556E-1,-7.5314964E1,-6.6530293E-1,-2.7615858E1,1.6597182E0,2.2696636E0,-4.055124E1,8.648216E1,8.2794076E-1,-1.1195734E0,-4.093351E0,9.79445E-1,-3.901826E1,-2.8048348E0,-5.019853E-1,1.0055914E2,5.240173E-1,-4.55809E1,2.5754553E-1,1.0627989E0,5.785125E0,-4.197454E-2,-2.7915888E0],"categories":[],"categories_nodes":[],"categories_segments":[],"categories_sizes":[],"default_left":[0,0,0,0,0,0,0,0,0,0,0,0,0,0,0,0,0,0,0,0,0,0,0,0,0,0,0,0,0,0,0,0,0,0,0],"id":48,"left_children":[1,3,5,-1,7,9,11,13,15,17,19,-1,-1,21,-1,23,-1,-1,25,27,-1,-1,-1,-1,29,-1,-1,31,-1,33,-1,-1,-1,-1,-1],"loss_changes":[1.5864611E6,1.8175081E5,3.344338E5,0E0,7.17747E4,1.6103883E5,2.7525488E5,1.0795031E4,4.9642734E4,8.115116E4,2.9014125E4,0E0,0E0,7.56875E1,0E0,5.1748844E4,0E0,0E0,9.802512E3,3.677325E4,0E0,0E0,0E0,0E0,2.2683922E4,0E0,0E0,2.1186656E4,0E0,2.8175188E4,0E0,0E0,0E0,0E0,0E0],"parents":[2147483647,0,0,1,1,2,2,4,4,5,5,6,6,7,7,8,8,9,9,10,10,13,13,15,15,18,18,19,19,24,24,27,27,29,29],"right_children":[2,4,6,-1,8,10,12,14,16,18,20,-1,-1,22,-1,24,-1,-1,26,28,-1,-1,-1,-1,30,-1,-1,32,-1,34,-1,-1,-1,-1,-1],"split_conditions":[9.95E1,1.139E3,3.100777E3,-6.429494E0,9.2E-1,1.146E3,1E2,9.93E1,8.4E1,5E0,1.749E3,9.577563E0,1.4475556E-1,1.534E3,-6.6530293E-1,8.39E1,1.6597182E0,2.2696636E0,1.2E0,6.184E3,8.2794076E-1,-1.1195734E0,-4.093351E0,9.79445E-1,9.94E1,-2.8048348E0,-5.019853E-1,8.2E-1,5.240173E-1,1.43E0,2.5754553E-1,1.0627989E0,5.785125E0,-4.197454E-2,-2.7915888E0],"split_indices":[2,0,20,0,15,21,4,2,3,17,21,0,0,0,0,2,0,0,9,0,0,0,0,0,2,0,0,15,0,15,0,0,0,0,0],"split_type":[0,0,0,0,0,0,0,0,0,0,0,0,0,0,0,0,0,0,0,0,0,0,0,0,0,0,0,0,0,0,0,0,0,0,0],"sum_hessian":[2.73E2,1.54E2,1.19E2,2.5E1,1.29E2,7.9E1,4E1,4.7E1,8.2E1,3.1E1,4.8E1,3E1,1E1,3.9E1,8E0,7.4E1,8E0,8E0,2.3E1,3.5E1,1.3E1,9E0,3E1,1.3E1,6.1E1,1E1,1.3E1,2.7E1,8E0,5.3E1,8E0,8E0,1.9E1,1.2E1,4.1E1],"tree_param":{"num_deleted":"0","num_feature":"24","num_nodes":"35","size_leaf_vector":"1"}},{"base_weights":[4.028426E0,-5.9863068E1,8.184222E1,-4.1982624E1,-7.237481E0,5.341286E1,1.6512903E2,3.7237394E-1,-4.783345E1,2.211213E0,9.201397E1,9.996361E0,2.5470717E0,5.98742E-1,-5.265981E1,-5.6742844E1,5.0971325E1,4.296201E1,7.120129E0,-1.7210096E1,-6.236283E1,2.1428289E-1,-4.2394886E0,-6.229908E-1,4.369385E0,6.093926E1,-7.0192736E-1,-3.1528074E1,8.7747663E-1,-4.186349E0,-3.7748573E1,4.1867495E0,2.712278E1,-2.1225288E0,-2.9598856E-1,4.285535E-1,-2.4263976E0,-4.832817E-1,2.4677498E0],"categories":[],"categories_nodes":[],"categories_segments":[],"categories_sizes":[],"default_left":[0,0,0,0,0,0,0,0,0,0,0,0,0,0,0,0,0,0,0,0,0,0,0,0,0,0,0,0,0,0,0,0,0,0,0,0,0,0,0],"id":49,"left_children":[1,3,5,7,-1,9,11,-1,13,15,17,-1,-1,-1,19,21,23,25,-1,27,29,-1,-1,-1,-1,31,-1,33,-1,-1,35,-1,37,-1,-1,-1,-1,-1,-1],"loss_changes":[1.4460251E6,1.8829025E5,2.29454E5,4.5436688E4,0E0,2.1687125E5,2.3543062E4,0E0,4.3794125E4,1.897144E5,1.0086875E5,0E0,0E0,0E0,3.2122281E4,5.5726906E4,9.425137E4,5.41584E4,0E0,2.4514688E4,2.0282656E4,0E0,0E0,0E0,0E0,6.883172E3,0E0,6.176166E3,0E0,0E0,3.449297E4,0E0,2.7675314E4,0E0,0E0,0E0,0E0,0E0,0E0],"parents":[2147483647,0,0,1,1,2,2,3,3,5,5,6,6,8,8,9,9,10,10,14,14,15,15,16,16,17,17,19,19,20,20,25,25,27,27,30,30,32,32],"right_children":[2,4,6,8,-1,10,12,-1,14,16,18,-1,-1,-1,20,22,24,26,-1,28,30,-1,-1,-1,-1,32,-1,34,-1,-1,36,-1,38,-1,-1,-1,-1,-1,-1],"split_conditions":[2.098973E3,1E1,3.11E0,1E0,-7.237481E0,4.9061253E1,3.94727E3,3.7237394E-1,3.65214E3,3E0,3.457784E3,9.996361E0,2.5470717E0,5.98742E-1,5E0,5.21E1,6.9E-1,5.6915585E1,7.120129E0,9.92E1,3.93203E3,2.1428289E-1,-4.2394886E0,-6.229908E-1,4.369385E0,5E0,-7.0192736E-1,1.586602E3,8.7747663E-1,-4.186349E0,3.99566E3,4.1867495E0,4.19E2,-2.1225288E0,-2.9598856E-1,4.285535E-1,-2.4263976E0,-4.832817E-1,2.4677498E0],"split_indices":[20,7,15,7,0,22,14,0,14,16,20,0,0,0,17,3,15,22,0,2,14,0,0,0,0,17,0,19,0,0,14,0,11,0,0,0,0,0,0],"split_type":[0,0,0,0,0,0,0,0,0,0,0,0,0,0,0,0,0,0,0,0,0,0,0,0,0,0,0,0,0,0,0,0,0,0,0,0,0,0,0],"sum_hessian":[2.73E2,1.51E2,1.22E2,1.36E2,1.5E1,1.02E2,2E1,1.4E1,1.22E2,4.8E1,5.4E1,1E1,1E1,8E0,1.14E2,2.1E1,2.7E1,3.6E1,1.8E1,3E1,8.4E1,9E0,1.2E1,1.2E1,1.5E1,2.7E1,9E0,2.2E1,8E0,3.3E1,5.1E1,8E0,1.9E1,1.1E1,1.1E1,1E1,4.1E1,9E0,1E1],"tree_param":{"num_deleted":"0","num_feature":"24","num_nodes":"39","size_leaf_vector":"1"}},{"base_weights":[2.077103E0,-5.849442E1,7.700411E1,-1.08595184E2,-3.1256891E1,5.3887553E0,1.05991425E2,-1.6332729E0,-6.1499453E0,-3.707858E1,1.1078912E0,-2.5326244E1,2.5399327E0,4.8784653E1,1.414582E2,-4.3574497E1,5.5302775E-1,-2.5090775E0,7.229381E-1,-1.2728887E0,6.906122E1,4.970053E-1,1.7440097E2,-5.0128864E1,2.0932762E-1,4.561415E0,9.237914E-1,1.9302058E0,1.0037962E1,-5.64147E1,-1.6711135E-1,-6.2509763E-1,-2.980138E0],"categories":[],"categories_nodes":[],"categories_segments":[],"categories_sizes":[],"default_left":[0,0,0,0,0,0,0,0,0,0,0,1,0,1,0,0,0,0,0,0,0,0,0,0,0,0,0,0,0,0,0,0,0],"id":50,"left_children":[1,3,5,7,9,11,13,-1,-1,15,-1,17,-1,19,21,23,-1,-1,-1,-1,25,-1,27,29,-1,-1,-1,-1,-1,31,-1,-1,-1],"loss_changes":[1.3203036E6,1.8824619E5,2.6393775E5,2.2248625E4,4.393468E4,7.755675E4,1.23364875E5,0E0,0E0,3.8670797E4,0E0,4.069711E4,0E0,8.996029E4,2.0825688E5,3.2885312E4,0E0,0E0,0E0,0E0,3.0582516E4,0E0,7.88615E4,2.3466188E4,0E0,0E0,0E0,0E0,0E0,4.1167344E3,0E0,0E0,0E0],"parents":[2147483647,0,0,1,1,2,2,3,3,4,4,5,5,6,6,9,9,11,11,13,13,14,14,15,15,20,20,22,22,23,23,29,29],"right_children":[2,4,6,8,10,12,14,-1,-1,16,-1,18,-1,20,22,24,-1,-1,-1,-1,26,-1,28,30,-1,-1,-1,-1,-1,32,-1,-1,-1],"split_conditions":[9.95E1,3.85102E3,1.164E3,1.9556929E-1,3.27E1,7.43E1,5.7E1,-1.6332729E0,-6.1499453E0,2.151181E3,1.1078912E0,2E0,2.5399327E0,4.666E3,2E0,9.99E1,5.5302775E-1,-2.5090775E0,7.229381E-1,-1.2728887E0,9.52E1,4.970053E-1,4.8E-1,6.52E1,2.0932762E-1,4.561415E0,9.237914E-1,1.9302058E0,1.0037962E1,4.3E-1,-1.6711135E-1,-6.2509763E-1,-2.980138E0],"split_indices":[2,14,21,23,8,3,3,0,0,20,0,12,0,10,16,4,0,0,0,0,1,0,15,6,0,0,0,0,0,15,0,0,0],"split_type":[0,0,0,0,0,0,0,0,0,0,0,0,0,0,0,0,0,0,0,0,0,0,0,0,0,0,0,0,0,0,0,0,0],"sum_hessian":[2.73E2,1.52E2,1.21E2,4.4E1,1.08E2,3.8E1,8.3E1,1.2E1,3.2E1,1E2,8E0,2.5E1,1.3E1,4E1,4.3E1,8.9E1,1.1E1,1.4E1,1.1E1,8E0,3.2E1,1.1E1,3.2E1,7.8E1,1.1E1,1.7E1,1.5E1,9E0,2.3E1,6.7E1,1.1E1,8E0,5.9E1],"tree_param":{"num_deleted":"0","num_feature":"24","num_nodes":"33","size_leaf_vector":"1"}},{"base_weights":[1.9152482E0,-3.869914E1,1.0215035E2,-5.810658E0,-2.0915752E1,5.305705E1,1.6161925E2,-3.4880287E1,2.4471403E1,7.216953E1,-1.3577882E0,9.759652E-1,9.880287E0,-6.535543E1,-1.8639708E1,-1.7483751E1,5.1609187E0,2.2324217E1,4.8653374E0,-5.53811E-1,-3.6852503E0,-5.6140037E0,-3.422104E0,-3.96478E1,1.2091371E0,2.1406205E0,-5.6719685E-1,-2.9718508E1,3.344842E1,-3.147411E0,2.9488736E-1,8.022067E-1,-2.0008695E0,-5.315004E-1,3.3461347E0],"categories":[],"categories_nodes":[],"categories_segments":[],"categories_sizes":[],"default_left":[1,0,0,0,0,0,0,0,0,0,0,0,0,0,0,0,0,0,0,0,0,0,0,0,0,0,0,0,0,0,0,0,0,0,0],"id":51,"left_children":[1,3,5,-1,7,9,11,13,15,17,-1,-1,-1,19,21,23,-1,25,-1,-1,-1,27,-1,29,-1,-1,-1,31,33,-1,-1,-1,-1,-1,-1],"loss_changes":[1.2001338E6,2.6818656E5,1.6964638E5,0E0,1.2307337E5,1.1002794E5,1.4076875E5,5.925486E4,1.7611477E5,4.438222E4,0E0,0E0,0E0,1.35281875E4,6.512387E4,4.481573E4,0E0,2.477289E4,0E0,0E0,0E0,9.738611E4,0E0,3.4816965E4,0E0,0E0,0E0,3.611018E4,6.628684E4,0E0,0E0,0E0,0E0,0E0,0E0],"parents":[2147483647,0,0,1,1,2,2,4,4,5,5,6,6,7,7,8,8,9,9,13,13,14,14,15,15,17,17,21,21,23,23,27,27,28,28],"right_children":[2,4,6,-1,8,10,12,14,16,18,-1,-1,-1,20,22,24,-1,26,-1,-1,-1,28,-1,30,-1,-1,-1,32,34,-1,-1,-1,-1,-1,-1],"split_conditions":[6E0,1.19E3,6.585E3,-5.810658E0,9.55E2,2.0457E4,1.572E3,4.99E1,2.85E0,3E0,-1.3577882E0,9.759652E-1,9.880287E0,4.9E-1,8.28E2,5.798E3,5.1609187E0,5.0246983E1,4.8653374E0,-5.53811E-1,-3.6852503E0,1.263075E3,-3.422104E0,5.55E1,1.2091371E0,2.1406205E0,-5.6719685E-1,2.8685185E-1,1.08E0,-3.147411E0,2.9488736E-1,8.022067E-1,-2.0008695E0,-5.315004E-1,3.3461347E0],"split_indices":[12,0,0,0,21,10,21,6,15,16,0,0,0,15,21,0,0,22,0,0,0,20,0,6,0,0,0,23,15,0,0,0,0,0,0],"split_type":[0,0,0,0,0,0,0,0,0,0,0,0,0,0,0,0,0,0,0,0,0,0,0,0,0,0,0,0,0,0,0,0,0,0,0],"sum_hessian":[2.77E2,2.01E2,7.6E1,2.8E1,1.73E2,5.1E1,2.5E1,1.34E2,3.9E1,4.2E1,9E0,8E0,1.7E1,3.7E1,9.7E1,3E1,9E0,2E1,2.2E1,8E0,2.9E1,8.5E1,1.2E1,2E1,1E1,1.1E1,9E0,5.4E1,3.1E1,1.1E1,9E0,9E0,4.5E1,1.6E1,1.5E1],"tree_param":{"num_deleted":"0","num_feature":"24","num_nodes":"35","size_leaf_vector":"1"}},{"base_weights":[2.5697813E0,-5.3927692E1,7.2851715E1,-9.866224E1,-2.6625237E1,3.9281998E1,1.4755916E2,-1.4989092E0,-5.5067897E0,-3.6220203E1,1.0560221E1,-1.5612838E1,6.4204094E1,9.480814E0,-1.5090449E-1,2.0625429E-1,-4.1127953E1,-1.5176442E0,2.0686133E0,-2.9319024E0,1.7306078E1,1.23659115E1,8.767917E1,-1.2534935E1,-5.6735207E1,2.0010138E0,-9.80889E-1,3.3537855E0,-2.9722483E0,4.6857727E-1,5.687373E0,-3.3858517E1,1.3870695E0,-3.3896663E0,-4.1226214E-1,-2.336171E0,-3.1662636E-2],"categories":[],"categories_nodes":[],"categories_segments":[],"categories_sizes":[],"default_left":[0,0,0,0,0,0,0,0,0,0,0,0,0,0,0,0,0,0,0,0,0,0,0,0,0,0,0,0,0,0,0,0,0,0,0,0,0],"id":52,"left_children":[1,3,5,7,9,11,13,-1,-1,15,17,19,21,-1,-1,-1,23,-1,-1,-1,25,27,29,31,33,-1,-1,-1,-1,-1,-1,35,-1,-1,-1,-1,-1],"loss_changes":[1.1590334E6,1.7339544E5,2.726592E5,1.6394312E4,4.391858E4,1.4884572E5,2.4448794E5,0E0,0E0,1.9999734E4,4.9509098E4,6.490665E4,7.7173625E4,0E0,0E0,0E0,3.0172297E4,0E0,0E0,0E0,3.1746145E4,1.6664164E5,8.896875E4,4.378554E4,2.2351969E4,0E0,0E0,0E0,0E0,0E0,0E0,1.282343E4,0E0,0E0,0E0,0E0,0E0],"parents":[2147483647,0,0,1,1,2,2,3,3,4,4,5,5,6,6,9,9,10,10,11,11,12,12,16,16,20,20,21,21,22,22,23,23,24,24,31,31],"right_children":[2,4,6,8,10,12,14,-1,-1,16,18,20,22,-1,-1,-1,24,-1,-1,-1,26,28,30,32,34,-1,-1,-1,-1,-1,-1,36,-1,-1,-1,-1,-1],"split_conditions":[9.95E1,4E0,6.738332E3,1.9556929E-1,4.26E3,1.146E3,3.82E1,-1.4989092E0,-5.5067897E0,1E0,3E0,1.1E0,3.62E1,9.480814E0,-1.5090449E-1,2.0625429E-1,6.22E2,-1.5176442E0,2.0686133E0,-2.9319024E0,1.7970482E0,1.668E3,4.9E1,5.52E2,3.11E1,2.0010138E0,-9.80889E-1,3.3537855E0,-2.9722483E0,4.6857727E-1,5.687373E0,3.9126667E-1,1.3870695E0,-3.3896663E0,-4.1226214E-1,-2.336171E0,-3.1662636E-2],"split_indices":[2,13,19,23,0,21,8,0,0,7,16,9,8,0,0,0,21,0,0,0,23,21,6,21,8,0,0,0,0,0,0,23,0,0,0,0,0],"split_type":[0,0,0,0,0,0,0,0,0,0,0,0,0,0,0,0,0,0,0,0,0,0,0,0,0,0,0,0,0,0,0,0,0,0,0,0,0],"sum_hessian":[2.74E2,1.53E2,1.21E2,4.9E1,1.04E2,9.3E1,2.8E1,1.2E1,3.7E1,8.3E1,2.1E1,3E1,6.3E1,2E1,8E0,9E0,7.4E1,9E0,1.2E1,1E1,2E1,2.4E1,3.9E1,3.2E1,4.2E1,1.2E1,8E0,1.4E1,1E1,1.3E1,2.6E1,2.2E1,1E1,3.1E1,1.1E1,1.3E1,9E0],"tree_param":{"num_deleted":"0","num_feature":"24","num_nodes":"37","size_leaf_vector":"1"}},{"base_weights":[3.0221105E0,-3.5249634E1,9.35837E1,-1.0530831E2,-1.5633907E1,2.8285286E1,1.256603E2,-9.791583E-1,-6.1078815E0,4.076323E1,-2.6995586E1,3.286741E0,-1.4563637E1,5.486369E1,8.774765E0,-1.3081734E0,4.6412606E0,-3.518401E0,-1.551074E1,1.0250134E0,-2.035306E0,-3.0830544E-1,4.589287E0,-2.6974072E1,2.5151494E0,-4.1813362E1,-5.1605034E0,-2.7303948E0,1.0258296E0,-1.5982517E0,9.869695E-1],"categories":[],"categories_nodes":[],"categories_segments":[],"categories_sizes":[],"default_left":[1,0,0,0,0,0,0,0,0,0,0,0,0,0,0,0,0,0,0,0,0,0,0,0,0,0,0,0,0,0,0],"id":53,"left_children":[1,3,5,7,9,11,13,-1,-1,15,17,-1,19,21,-1,-1,-1,-1,23,-1,-1,-1,-1,25,-1,27,29,-1,-1,-1,-1],"loss_changes":[1.00386756E6,2.6471103E5,1.4712481E5,4.105928E4,1.187012E5,7.353758E4,1.0812644E5,0E0,0E0,1.3472252E5,6.3223844E4,0E0,3.1683258E4,8.753816E4,0E0,0E0,0E0,0E0,1.08886195E5,0E0,0E0,0E0,0E0,3.4960383E4,0E0,6.467361E4,4.409357E4,0E0,0E0,0E0,0E0],"parents":[2147483647,0,0,1,1,2,2,3,3,4,4,5,5,6,6,9,9,10,10,12,12,13,13,18,18,23,23,25,25,26,26],"right_children":[2,4,6,8,10,12,14,-1,-1,16,18,-1,20,22,-1,-1,-1,-1,24,-1,-1,-1,-1,26,-1,28,30,-1,-1,-1,