{"learner":{"attributes":{},"feature_names":["usuarios_registro_base","tasa_basic_a_risk","tasa_risk_a_fulldata","tasa_fulldata_a_video","tasa_video_a_review","tasa_review_a_aprobado","tasa_registro_a_aprobado","mediana_dias_registro_a_full","pct_perfil_conservador","pct_perfil_arriesgado","push_mail_delivered_pre_deposito","cx_friccion_kyc","cx_bloqueos","Tasa_Intervencion_Mensual","TRM","Variacion_COLCAP","semana_del_mes","semana_del_mes_proyeccion","dias_habiles_semana","mes_prima","dias_habiles_proyeccion","registros_ponderados","aprobados_ponderados","lag_1_target","full_users_aprobados_lag1","tendencia_registros_4w","tendencia_aprobados_4w","tendencia_depositos_4w","tasa_registro_a_aprobado_ewma_4","tasa_rechazo_implicita_kyc_ewma_4"],"feature_types":[],"gradient_booster":{"model":{"cats":{"enc":[],"feature_segments":[],"sorted_idx":[]},"gbtree_model_param":{"num_parallel_tree":"1","num_trees":"269"},"iteration_indptr":[0,1,2,3,4,5,6,7,8,9,10,11,12,13,14,15,16,17,18,19,20,21,22,23,24,25,26,27,28,29,30,31,32,33,34,35,36,37,38,39,40,41,42,43,44,45,46,47,48,49,50,51,52,53,54,55,56,57,58,59,60,61,62,63,64,65,66,67,68,69,70,71,72,73,74,75,76,77,78,79,80,81,82,83,84,85,86,87,88,89,90,91,92,93,94,95,96,97,98,99,100,101,102,103,104,105,106,107,108,109,110,111,112,113,114,115,116,117,118,119,120,121,122,123,124,125,126,127,128,129,130,131,132,133,134,135,136,137,138,139,140,141,142,143,144,145,146,147,148,149,150,151,152,153,154,155,156,157,158,159,160,161,162,163,164,165,166,167,168,169,170,171,172,173,174,175,176,177,178,179,180,181,182,183,184,185,186,187,188,189,190,191,192,193,194,195,196,197,198,199,200,201,202,203,204,205,206,207,208,209,210,211,212,213,214,215,216,217,218,219,220,221,222,223,224,225,226,227,228,229,230,231,232,233,234,235,236,237,238,239,240,241,242,243,244,245,246,247,248,249,250,251,252,253,254,255,256,257,258,259,260,261,262,263,264,265,266,267,268,269],"tree_info":[0,0,0,0,0,0,0,0,0,0,0,0,0,0,0,0,0,0,0,0,0,0,0,0,0,0,0,0,0,0,0,0,0,0,0,0,0,0,0,0,0,0,0,0,0,0,0,0,0,0,0,0,0,0,0,0,0,0,0,0,0,0,0,0,0,0,0,0,0,0,0,0,0,0,0,0,0,0,0,0,0,0,0,0,0,0,0,0,0,0,0,0,0,0,0,0,0,0,0,0,0,0,0,0,0,0,0,0,0,0,0,0,0,0,0,0,0,0,0,0,0,0,0,0,0,0,0,0,0,0,0,0,0,0,0,0,0,0,0,0,0,0,0,0,0,0,0,0,0,0,0,0,0,0,0,0,0,0,0,0,0,0,0,0,0,0,0,0,0,0,0,0,0,0,0,0,0,0,0,0,0,0,0,0,0,0,0,0,0,0,0,0,0,0,0,0,0,0,0,0,0,0,0,0,0,0,0,0,0,0,0,0,0,0,0,0,0,0,0,0,0,0,0,0,0,0,0,0,0,0,0,0,0,0,0,0,0,0,0,0,0,0,0,0,0,0,0,0,0,0,0,0,0,0,0,0,0,0,0,0,0,0,0,0,0,0,0,0,0],"trees":[{"base_weights":[2.433442E1,-3.24212E2,6.1064636E2,-1.0729006E1,-5.226555E1,1.7718317E1,1.4004105E0,-4.033962E0,5.934318E1,-9.587031E-1,3.1021805E0],"categories":[],"categories_nodes":[],"categories_segments":[],"categories_sizes":[],"default_left":[0,0,0,0,0,0,0,0,0,0,0],"id":0,"left_children":[1,3,5,-1,7,-1,-1,-1,9,-1,-1],"loss_changes":[4.225658E7,2.728282E6,2.292572E6,0E0,4.8881216E5,0E0,0E0,0E0,1.5743688E5,0E0,0E0],"parents":[2147483647,0,0,1,1,2,2,4,4,8,8],"right_children":[2,4,6,-1,8,-1,-1,-1,10,-1,-1],"split_conditions":[1.146E3,3.924E3,7.43E1,-1.0729006E1,7.66E2,1.7718317E1,1.4004105E0,-4.033962E0,4.55E1,-9.587031E-1,3.1021805E0],"split_indices":[23,0,3,0,23,0,0,0,6,0,0],"split_type":[0,0,0,0,0,0,0,0,0,0,0],"sum_hessian":[1.93E2,1.23E2,7E1,9.2E1,3.1E1,6.2E1,8E0,1.5E1,1.6E1,7E0,9E0],"tree_param":{"num_deleted":"0","num_feature":"30","num_nodes":"11","size_leaf_vector":"1"}},{"base_weights":[-4.6733165E0,5.7680554E2,-3.2403757E2,1.702889E1,5.6763834E-1,-3.9679065E2,1.0380672E-1,-3.8631167E0,-1.0972344E1,-1.0562539E2,4.803864E0,-8.529562E-1,-3.7463844E0],"categories":[],"categories_nodes":[],"categories_segments":[],"categories_sizes":[],"default_left":[0,0,0,0,0,0,0,0,0,0,0,0,0],"id":1,"left_children":[1,3,5,-1,-1,7,9,-1,-1,11,-1,-1,-1],"loss_changes":[3.77035E7,2.579912E6,3.091097E6,0E0,0E0,5.795E4,7.2936944E5,0E0,0E0,3.0742844E4,0E0,0E0,0E0],"parents":[2147483647,0,0,1,1,2,2,5,5,6,6,9,9],"right_children":[2,4,6,-1,-1,8,10,-1,-1,12,-1,-1,-1],"split_conditions":[1.654E3,1.075E1,2.098973E3,1.702889E1,5.6763834E-1,1E0,4E0,-3.8631167E0,-1.0972344E1,7.5E0,4.803864E0,-8.529562E-1,-3.7463844E0],"split_indices":[11,13,22,0,0,7,7,0,0,13,0,0,0],"split_type":[0,0,0,0,0,0,0,0,0,0,0,0,0],"sum_hessian":[1.89E2,6.5E1,1.24E2,5.7E1,8E0,1E2,2.4E1,1.1E1,8.9E1,1.7E1,7E0,1E1,7E0],"tree_param":{"num_deleted":"0","num_feature":"30","num_nodes":"13","size_leaf_vector":"1"}},{"base_weights":[3.0290515E0,-3.1621985E2,5.5008405E2,-3.724318E2,1.4912245E0,3.9669728E0,1.605059E1,-1.0327904E1,-2.2572112E0,2.2947192E0,-2.8723202E0],"categories":[],"categories_nodes":[],"categories_segments":[],"categories_sizes":[],"default_left":[0,0,0,0,0,0,0,0,0,0,0],"id":2,"left_children":[1,3,5,7,9,-1,-1,-1,-1,-1,-1],"loss_changes":[3.3177354E7,2.148434E6,9.49424E5,2.93163E5,3.0043956E5,0E0,0E0,0E0,0E0,0E0,0E0],"parents":[2147483647,0,0,1,1,2,2,3,3,4,4],"right_children":[2,4,6,8,10,-1,-1,-1,-1,-1,-1],"split_conditions":[1.162E3,4.998E3,1.8E0,9.53E2,4.09086E3,3.9669728E0,1.605059E1,-1.0327904E1,-2.2572112E0,2.2947192E0,-2.8723202E0],"split_indices":[23,0,9,23,14,0,0,0,0,0,0],"split_type":[0,0,0,0,0,0,0,0,0,0,0],"sum_hessian":[1.76E2,1.13E2,6.3E1,9.5E1,1.8E1,1.1E1,5.2E1,8.7E1,8E0,1.1E1,7E0],"tree_param":{"num_deleted":"0","num_feature":"30","num_nodes":"11","size_leaf_vector":"1"}},{"base_weights":[-3.584545E1,-3.0434625E2,5.343985E2,-3.929455E2,4.5410857E0,1.3933945E0,1.6040655E1,-1.1622756E1,-6.2247477E0,9.621546E1,-9.718246E1,5.472989E0,-2.0658817E0,-3.4671185E0,-3.8118866E-1],"categories":[],"categories_nodes":[],"categories_segments":[],"categories_sizes":[],"default_left":[1,0,0,0,0,0,0,0,0,0,0,0,0,0,0],"id":3,"left_children":[1,3,5,7,9,-1,-1,-1,-1,11,13,-1,-1,-1,-1],"loss_changes":[3.0533406E7,3.708531E6,1.995142E6,4.2928E4,4.104053E5,0E0,0E0,0E0,0E0,5.5735625E5,4.5096094E4,0E0,0E0,0E0,0E0],"parents":[2147483647,0,0,1,1,2,2,3,3,4,4,9,9,10,10],"right_children":[2,4,6,8,10,-1,-1,-1,-1,12,14,-1,-1,-1,-1],"split_conditions":[2E0,3.879651E3,1.198E3,2.96E1,3.94727E3,1.3933945E0,1.6040655E1,-1.1622756E1,-6.2247477E0,7.77E1,2.4210526E-2,5.472989E0,-2.0658817E0,-3.4671185E0,-3.8118866E-1],"split_indices":[12,21,23,8,14,0,0,0,0,3,26,0,0,0,0],"split_type":[0,0,0,0,0,0,0,0,0,0,0,0,0,0,0],"sum_hessian":[1.85E2,1.28E2,5.7E1,9.8E1,3E1,9E0,4.8E1,6.6E1,3.2E1,1.6E1,1.4E1,9E0,7E0,7E0,7E0],"tree_param":{"num_deleted":"0","num_feature":"30","num_nodes":"15","size_leaf_vector":"1"}},{"base_weights":[-2.3351948E1,-2.993074E2,5.3462103E2,-3.848706E2,2.2127364E0,1.5843093E1,1.2447375E0,-1.0719887E1,-3.5534058E0,9.948492E1,-9.5553024E1,3.7185419E0,6.576299E-2,-2.9973528E0,-7.1913654E-1],"categories":[],"categories_nodes":[],"categories_segments":[],"categories_sizes":[],"default_left":[1,0,0,0,0,0,0,0,0,0,0,0,0,0,0],"id":4,"left_children":[1,3,5,7,9,-1,-1,-1,-1,11,13,-1,-1,-1,-1],"loss_changes":[3.3452602E7,3.748278E6,2.059494E6,1.94946E5,4.373577E5,0E0,0E0,0E0,0E0,8.8646375E4,5.800578E3,0E0,0E0,0E0,0E0],"parents":[2147483647,0,0,1,1,2,2,3,3,4,4,9,9,10,10],"right_children":[2,4,6,8,10,-1,-1,-1,-1,12,14,-1,-1,-1,-1],"split_conditions":[2E0,1.99619E3,1.075E1,3.27E1,4.02767E3,1.5843093E1,1.2447375E0,-1.0719887E1,-3.5534058E0,1.3238938E-1,1.1E0,3.7185419E0,6.576299E-2,-2.9973528E0,-7.1913654E-1],"split_indices":[12,22,13,8,14,0,0,0,0,26,9,0,0,0,0],"split_type":[0,0,0,0,0,0,0,0,0,0,0,0,0,0,0],"sum_hessian":[2.03E2,1.38E2,6.5E1,1.06E2,3.2E1,5.6E1,9E0,9.4E1,1.2E1,1.6E1,1.6E1,9E0,7E0,9E0,7E0],"tree_param":{"num_deleted":"0","num_feature":"30","num_nodes":"15","size_leaf_vector":"1"}},{"base_weights":[-4.2141747E1,-2.953508E2,4.9130923E2,-3.7380377E2,-3.3712276E1,-1.0062032E0,1.5014838E1,-4.4798193E2,-5.4805145E0,-4.0429044E0,4.8220245E1,-1.2408611E1,-3.4799693E0,2.7442164E0,-1.3687836E0],"categories":[],"categories_nodes":[],"categories_segments":[],"categories_sizes":[],"default_left":[0,0,0,0,0,0,0,0,0,0,0,0,0,0,0],"id":5,"left_children":[1,3,5,7,9,-1,-1,11,-1,-1,13,-1,-1,-1,-1],"loss_changes":[2.8028594E7,2.783755E6,2.861397E6,6.70209E5,4.4240344E5,0E0,0E0,2.0886E4,0E0,0E0,1.987426E5,0E0,0E0,0E0,0E0],"parents":[2147483647,0,0,1,1,2,2,3,3,4,4,7,7,10,10],"right_children":[2,4,6,8,10,-1,-1,12,-1,-1,14,-1,-1,-1,-1],"split_conditions":[1.146E3,3.951E3,9.96E1,9.07E1,7.54E2,-1.0062032E0,1.5014838E1,3.416918E3,-5.4805145E0,-4.0429044E0,2.474E3,-1.2408611E1,-3.4799693E0,2.7442164E0,-1.3687836E0],"split_indices":[23,0,2,1,23,0,0,21,0,0,24,0,0,0,0],"split_type":[0,0,0,0,0,0,0,0,0,0,0,0,0,0,0],"sum_hessian":[1.93E2,1.33E2,6E1,1E2,3.3E1,8E0,5.2E1,6.1E1,3.9E1,1.1E1,2.2E1,5.4E1,7E0,1.4E1,8E0],"tree_param":{"num_deleted":"0","num_feature":"30","num_nodes":"15","size_leaf_vector":"1"}},{"base_weights":[1.560333E0,-2.7289566E2,5.1902484E2,-3.3373892E2,1.1698683E1,-7.5607616E-1,1.5423292E1,-1.1417119E1,-2.3598515E2,-5.9632545E1,3.262542E0,-7.121165E0,-1.8115155E0,-3.091633E0,6.656109E-1],"categories":[],"categories_nodes":[],"categories_segments":[],"categories_sizes":[],"default_left":[0,0,0,0,0,0,0,0,0,0,0,0,0,0,0],"id":6,"left_children":[1,3,5,7,9,-1,-1,-1,11,13,-1,-1,-1,-1,-1],"loss_changes":[2.868534E7,2.314228E6,2.57547E6,3.27897E5,2.9060516E5,0E0,0E0,0E0,2.59408E5,1.3259847E5,0E0,0E0,0E0,0E0,0E0],"parents":[2147483647,0,0,1,1,2,2,3,3,4,4,8,8,9,9],"right_children":[2,4,6,8,10,-1,-1,-1,12,14,-1,-1,-1,-1,-1],"split_conditions":[1.162E3,4.72E3,9.96E1,5.5E2,2.59E0,-7.5607616E-1,1.5423292E1,-1.1417119E1,9.92E1,5.14116E3,3.262542E0,-7.121165E0,-1.8115155E0,-3.091633E0,6.656109E-1],"split_indices":[23,0,2,23,15,0,0,0,2,21,0,0,0,0,0],"split_type":[0,0,0,0,0,0,0,0,0,0,0,0,0,0,0],"sum_hessian":[1.88E2,1.25E2,6.3E1,1.02E2,2.3E1,7E0,5.6E1,3.9E1,6.3E1,1.6E1,7E0,4.9E1,1.4E1,8E0,8E0],"tree_param":{"num_deleted":"0","num_feature":"30","num_nodes":"15","size_leaf_vector":"1"}},{"base_weights":[8.697965E0,-2.5146617E2,5.281848E2,5.3641458E0,-2.9238535E2,1.5145197E1,2.9023182E0,-4.0891085E0,3.8229997E0,-3.3340836E2,-1.271188E2,-1.5438296E0,-9.3188095E0,-2.5607628E-1,-4.0973153E0],"categories":[],"categories_nodes":[],"categories_segments":[],"categories_sizes":[],"default_left":[1,0,0,0,0,0,0,0,0,0,0,0,0,0,0],"id":7,"left_children":[1,3,5,7,9,-1,-1,-1,-1,11,13,-1,-1,-1,-1],"loss_changes":[2.6743666E7,1.399334E6,7.84246E5,7.127366E5,4.74474E5,0E0,0E0,0E0,0E0,3.0695E5,9.977594E4,0E0,0E0,0E0,0E0],"parents":[2147483647,0,0,1,1,2,2,3,3,4,4,9,9,10,10],"right_children":[2,4,6,8,10,-1,-1,-1,-1,12,14,-1,-1,-1,-1],"split_conditions":[2E0,1E0,3.1088703E0,3E0,9.2E1,1.5145197E1,2.9023182E0,-4.0891085E0,3.8229997E0,5.69E1,9.41E1,-1.5438296E0,-9.3188095E0,-2.5607628E-1,-4.0973153E0],"split_indices":[12,9,29,16,1,0,0,0,0,1,1,0,0,0,0],"split_type":[0,0,0,0,0,0,0,0,0,0,0,0,0,0,0],"sum_hessian":[1.84E2,1.25E2,5.9E1,1.8E1,1.07E2,5.1E1,8E0,8E0,1E1,8E1,2.7E1,7E0,7.3E1,7E0,2E1],"tree_param":{"num_deleted":"0","num_feature":"30","num_nodes":"15","size_leaf_vector":"1"}},{"base_weights":[1.29171505E1,-2.601737E2,5.048141E2,-3.175437E2,1.0319473E2,4.2141867E0,1.451512E1,-3.4738525E2,-1.0417064E2,-7.112509E-1,4.553122E0,-9.821805E0,-4.1569657E0,2.3939243E-1,-4.093697E0],"categories":[],"categories_nodes":[],"categories_segments":[],"categories_sizes":[],"default_left":[1,0,0,0,0,0,0,0,0,0,0,0,0,0,0],"id":8,"left_children":[1,3,5,7,9,-1,-1,11,13,-1,-1,-1,-1,-1,-1],"loss_changes":[2.7114022E7,2.94006E6,4.78984E5,4.70842E5,2.392273E5,0E0,0E0,3.1481E4,1.4787484E5,0E0,0E0,0E0,0E0,0E0,0E0],"parents":[2147483647,0,0,1,1,2,2,3,3,4,4,7,7,8,8],"right_children":[2,4,6,8,10,-1,-1,12,14,-1,-1,-1,-1,-1,-1],"split_conditions":[2E0,5.197097E3,9E0,3.951E3,5.743902E3,4.2141867E0,1.451512E1,9.26E1,5E0,-7.112509E-1,4.553122E0,-9.821805E0,-4.1569657E0,2.3939243E-1,-4.093697E0],"split_indices":[12,21,12,0,21,0,0,1,18,0,0,0,0,0,0],"split_type":[0,0,0,0,0,0,0,0,0,0,0,0,0,0,0],"sum_hessian":[1.88E2,1.23E2,6.5E1,1.07E2,1.6E1,1.1E1,5.4E1,9E1,1.7E1,7E0,9E0,7.4E1,1.6E1,7E0,1E1],"tree_param":{"num_deleted":"0","num_feature":"30","num_nodes":"15","size_leaf_vector":"1"}},{"base_weights":[-1.2112065E1,-2.5283075E2,5.2613666E2,-3.3916974E2,5.2647614E1,5.7695636E2,1.3824906E0,-1.0889927E1,-2.4522089E2,7.137509E0,-5.7175514E1,6.1293607E0,1.6943174E1,-7.065339E0,-1.1739621E0,8.941061E-1,-3.1543663E0],"categories":[],"categories_nodes":[],"categories_segments":[],"categories_sizes":[],"default_left":[1,0,0,0,0,0,0,0,0,0,0,0,0,0,0,0,0],"id":9,"left_children":[1,3,5,7,9,11,-1,-1,13,-1,15,-1,-1,-1,-1,-1,-1],"loss_changes":[2.7230844E7,3.950308E6,1.351654E6,6.8005E4,1.01514975E6,2.31736E5,0E0,0E0,2.10459E5,0E0,2.0362447E5,0E0,0E0,0E0,0E0,0E0,0E0],"parents":[2147483647,0,0,1,1,2,2,3,3,4,4,5,5,8,8,10,10],"right_children":[2,4,6,8,10,12,-1,-1,14,-1,16,-1,-1,-1,-1,-1,-1],"split_conditions":[2E0,2.000775E3,1.075E1,1.125E1,3.82339E3,5.497E3,1.3824906E0,-1.0889927E1,2.972E3,7.137509E0,4.02767E3,6.1293607E0,1.6943174E1,-7.065339E0,-1.1739621E0,8.941061E-1,-3.1543663E0],"split_indices":[12,22,13,13,14,0,0,0,0,0,14,0,0,0,0,0,0],"split_type":[0,0,0,0,0,0,0,0,0,0,0,0,0,0,0,0,0],"sum_hessian":[1.96E2,1.38E2,5.8E1,1.07E2,3.1E1,5.1E1,7E0,4.7E1,6E1,7E0,2.4E1,1.3E1,3.8E1,5.2E1,8E0,1.1E1,1.3E1],"tree_param":{"num_deleted":"0","num_feature":"30","num_nodes":"17","size_leaf_vector":"1"}},{"base_weights":[2.0786528E-1,-2.625337E2,4.2443417E2,-3.2664996E2,-6.5930624E0,-2.321971E0,4.950904E2,-9.226305E0,-2.1467228E0,-7.657922E1,2.7877295E0,1.3788048E1,3.2245886E0,5.2949053E-1,-3.231271E0],"categories":[],"categories_nodes":[],"categories_segments":[],"categories_sizes":[],"default_left":[0,0,0,0,0,0,0,0,0,0,0,0,0,0,0],"id":10,"left_children":[1,3,5,7,9,-1,11,-1,-1,13,-1,-1,-1,-1,-1],"loss_changes":[2.4186644E7,2.182419E6,3.309466E6,3.82564E5,3.2279006E5,0E0,2.76238E5,0E0,0E0,1.27599266E5,0E0,0E0,0E0,0E0,0E0],"parents":[2147483647,0,0,1,1,2,2,3,3,4,4,6,6,9,9],"right_children":[2,4,6,8,10,-1,12,-1,-1,14,-1,-1,-1,-1,-1],"split_conditions":[1.162E3,2.098973E3,9.95E1,3.31E1,2.694911E3,-2.321971E0,3.1088703E0,-9.226305E0,-2.1467228E0,5.8834963E-3,2.7877295E0,1.3788048E1,3.2245886E0,5.2949053E-1,-3.231271E0],"split_indices":[23,22,2,8,22,0,29,0,0,25,0,0,0,0,0],"split_type":[0,0,0,0,0,0,0,0,0,0,0,0,0,0,0],"sum_hessian":[2.03E2,1.27E2,7.6E1,1E2,2.7E1,9E0,6.7E1,8.9E1,1.1E1,1.8E1,9E0,6E1,7E0,7E0,1.1E1],"tree_param":{"num_deleted":"0","num_feature":"30","num_nodes":"15","size_leaf_vector":"1"}},{"base_weights":[-2.862618E1,-2.8813727E2,3.097914E2,-3.391685E2,-9.813366E1,4.333756E2,-3.0107151E1,-1.3816794E0,-9.829681E0,6.961942E-1,-3.633651E0,4.875737E2,1.4244115E0,-1.2633052E2,2.885771E0,4.8747582E0,1.4306569E1,-4.230116E0,-7.7475953E-1],"categories":[],"categories_nodes":[],"categories_segments":[],"categories_sizes":[],"default_left":[0,0,0,0,0,0,0,0,0,0,0,0,0,0,0,0,0,0,0],"id":11,"left_children":[1,3,5,7,9,11,13,-1,-1,-1,-1,15,-1,17,-1,-1,-1,-1,-1],"loss_changes":[1.774945E7,8.70671E5,3.789284E6,6.72857E5,1.9179675E5,1.150998E6,4.982884E5,0E0,0E0,0E0,0E0,2.05125E5,0E0,3.4901906E4,0E0,0E0,0E0,0E0,0E0],"parents":[2147483647,0,0,1,1,2,2,3,3,4,4,5,5,6,6,11,11,13,13],"right_children":[2,4,6,8,10,12,14,-1,-1,-1,-1,16,-1,18,-1,-1,-1,-1,-1],"split_conditions":[4.569E3,9.26E1,6.66E1,4.8030758E1,-5.0704226E-2,3.0789993E0,3E0,-1.3816794E0,-9.829681E0,6.961942E-1,-3.633651E0,4.752186E1,1.4244115E0,2E0,2.885771E0,4.8747582E0,1.4306569E1,-4.230116E0,-7.7475953E-1],"split_indices":[0,1,3,28,25,29,7,0,0,0,0,28,0,7,0,0,0,0,0],"split_type":[0,0,0,0,0,0,0,0,0,0,0,0,0,0,0,0,0,0,0],"sum_hessian":[1.88E2,1.07E2,8.1E1,8E1,2.7E1,5.8E1,2.3E1,1E1,7E1,7E0,2E1,4.9E1,9E0,1.4E1,9E0,1.2E1,3.7E1,7E0,7E0],"tree_param":{"num_deleted":"0","num_feature":"30","num_nodes":"19","size_leaf_vector":"1"}},{"base_weights":[-1.8812698E1,-2.4708319E2,4.2916928E2,-2.93402E2,-5.279652E1,2.1560555E0,4.8935654E2,-9.583197E0,-2.0658833E2,-3.4344373E0,3.430889E1,1.39266205E1,3.1644616E0,-5.987559E0,-1.0583591E0,-3.2084668E-1,1.6899953E0],"categories":[],"categories_nodes":[],"categories_segments":[],"categories_sizes":[],"default_left":[0,0,0,0,0,0,0,0,0,0,0,0,0,0,0,0,0],"id":12,"left_children":[1,3,5,7,9,-1,11,-1,13,-1,15,-1,-1,-1,-1,-1,-1],"loss_changes":[1.9658878E7,1.0330545E6,1.078585E6,7.8263E4,2.5300828E5,0E0,2.98741E5,0E0,1.3656325E5,0E0,3.448182E4,0E0,0E0,0E0,0E0,0E0,0E0],"parents":[2147483647,0,0,1,1,2,2,3,3,4,4,6,6,8,8,10,10],"right_children":[2,4,6,8,10,-1,12,-1,14,-1,16,-1,-1,-1,-1,-1,-1],"split_conditions":[1.146E3,3.619527E3,9.97E1,5.52E2,7.65E2,2.1560555E0,3.1088703E0,-9.583197E0,6.474809E1,-3.4344373E0,4.5507343E1,1.39266205E1,3.1644616E0,-5.987559E0,-1.0583591E0,-3.2084668E-1,1.6899953E0],"split_indices":[23,21,2,23,23,0,29,0,28,0,28,0,0,0,0,0,0],"split_type":[0,0,0,0,0,0,0,0,0,0,0,0,0,0,0,0,0],"sum_hessian":[1.78E2,1.2E2,5.8E1,9.4E1,2.6E1,1.1E1,4.7E1,4E1,5.4E1,1.2E1,1.4E1,4E1,7E0,4.6E1,8E0,7E0,7E0],"tree_param":{"num_deleted":"0","num_feature":"30","num_nodes":"17","size_leaf_vector":"1"}},{"base_weights":[-1.9813805E1,-2.6330182E2,4.3030792E2,-3.1277863E2,-5.591039E1,-1.9656225E0,4.9573785E2,-9.534257E0,-1.15698364E2,-3.425664E0,1.5318472E1,3.790971E0,1.3814426E1,-3.7685122E0,-5.8636963E-1,1.2978611E0,-8.0980366E-1],"categories":[],"categories_nodes":[],"categories_segments":[],"categories_sizes":[],"default_left":[0,0,0,0,0,0,0,0,0,0,0,0,0,0,0,0,0],"id":13,"left_children":[1,3,5,7,9,-1,11,-1,13,-1,15,-1,-1,-1,-1,-1,-1],"loss_changes":[2.1505658E7,1.179252E6,2.53751E6,6.55456E5,1.8733894E5,0E0,5.3645E4,0E0,5.2352375E4,0E0,4.6235863E4,0E0,0E0,0E0,0E0,0E0,0E0],"parents":[2147483647,0,0,1,1,2,2,3,3,4,4,6,6,8,8,10,10],"right_children":[2,4,6,8,10,-1,12,-1,14,-1,16,-1,-1,-1,-1,-1,-1],"split_conditions":[1.152E3,3.675337E3,9.95E1,9.26E1,7.66E2,-1.9656225E0,9E0,-9.534257E0,3.93203E3,-3.425664E0,2.474E3,3.790971E0,1.3814426E1,-3.7685122E0,-5.8636963E-1,1.2978611E0,-8.0980366E-1],"split_indices":[23,21,2,1,23,0,12,0,14,0,24,0,0,0,0,0,0],"split_type":[0,0,0,0,0,0,0,0,0,0,0,0,0,0,0,0,0],"sum_hessian":[1.82E2,1.2E2,6.2E1,9.4E1,2.6E1,7E0,5.5E1,7.1E1,2.3E1,1E1,1.6E1,7E0,4.8E1,1.5E1,8E0,9E0,7E0],"tree_param":{"num_deleted":"0","num_feature":"30","num_nodes":"17","size_leaf_vector":"1"}},{"base_weights":[7.948306E0,-2.4415051E2,4.2407535E2,-8.505555E0,-9.595953E0,4.877011E2,-2.5581648E0,-1.0336396E2,3.5593233E0,6.158202E0,1.4462901E1,-4.8674524E-2,-3.8412044E0],"categories":[],"categories_nodes":[],"categories_segments":[],"categories_sizes":[],"default_left":[0,0,0,0,0,0,0,0,0,0,0,0,0],"id":14,"left_children":[1,3,5,-1,7,9,-1,11,-1,-1,-1,-1,-1],"loss_changes":[2.0866346E7,2.2287775E6,2.81662E6,0E0,6.1079844E5,1.30479E5,0E0,1.1225344E5,0E0,0E0,0E0,0E0,0E0],"parents":[2147483647,0,0,1,1,2,2,4,4,5,5,7,7],"right_children":[2,4,6,-1,8,10,-1,12,-1,-1,-1,-1,-1],"split_conditions":[1.152E3,1.93136E3,7.43E1,-8.505555E0,7.68E1,5.33E1,-2.5581648E0,5.56E1,3.5593233E0,6.158202E0,1.4462901E1,-4.8674524E-2,-3.8412044E0],"split_indices":[23,22,3,0,3,3,0,3,0,0,0,0,0],"split_type":[0,0,0,0,0,0,0,0,0,0,0,0,0],"sum_hessian":[1.85E2,1.17E2,6.8E1,8.6E1,3.1E1,6.1E1,7E0,2E1,1.1E1,1.8E1,4.3E1,8E0,1.2E1],"tree_param":{"num_deleted":"0","num_feature":"30","num_nodes":"13","size_leaf_vector":"1"}},{"base_weights":[-1.0639773E1,4.1546198E2,-2.0200337E2,2.1585639E0,1.1885197E1,5.8697525E1,-2.4993443E2,4.9423676E0,-3.232442E0,-2.6243185E2,-8.187745E-1,-7.397002E0,-1.530548E0],"categories":[],"categories_nodes":[],"categories_segments":[],"categories_sizes":[],"default_left":[0,0,0,0,0,0,0,0,0,0,0,0,0],"id":15,"left_children":[1,3,5,-1,-1,7,9,-1,-1,11,-1,-1,-1],"loss_changes":[1.5507722E7,4.08697E5,1.7402925E6,0E0,0E0,7.6272494E5,2.484535E5,0E0,0E0,2.55465E5,0E0,0E0,0E0],"parents":[2147483647,0,0,1,1,2,2,5,5,6,6,9,9],"right_children":[2,4,6,-1,-1,8,10,-1,-1,12,-1,-1,-1],"split_conditions":[2.36E2,5E0,1E0,2.1585639E0,1.1885197E1,7.76E1,5E0,4.9423676E0,-3.232442E0,2.297E3,-8.187745E-1,-7.397002E0,-1.530548E0],"split_indices":[12,12,9,0,0,3,15,0,0,24,0,0,0],"split_type":[0,0,0,0,0,0,0,0,0,0,0,0,0],"sum_hessian":[1.76E2,5.2E1,1.24E2,7E0,4.5E1,1.9E1,1.05E2,1.1E1,8E0,9.8E1,7E0,8.8E1,1E1],"tree_param":{"num_deleted":"0","num_feature":"30","num_nodes":"13","size_leaf_vector":"1"}},{"base_weights":[-3.1556343E1,3.9367496E2,-2.527054E2,1.3729921E-1,1.18361435E1,-3.2321732E2,-5.469157E1,-9.540168E0,-1.1482624E2,-1.2105983E2,2.690598E0,-3.6959338E0,-1.0844381E0,-3.9955368E0,-1.3224843E0],"categories":[],"categories_nodes":[],"categories_segments":[],"categories_sizes":[],"default_left":[0,0,0,0,0,0,0,0,0,0,0,0,0,0,0],"id":16,"left_children":[1,3,5,-1,-1,7,9,-1,11,13,-1,-1,-1,-1,-1],"loss_changes":[1.781011E7,1.340791E6,1.6060455E6,0E0,0E0,4.11061E5,5.1180312E5,0E0,3.2999375E3,1.4543656E4,0E0,0E0,0E0,0E0,0E0],"parents":[2147483647,0,0,1,1,2,2,5,5,6,6,8,8,9,9],"right_children":[2,4,6,-1,-1,8,10,-1,12,14,-1,-1,-1,-1,-1],"split_conditions":[1.654E3,1.162E3,3.951E3,1.3729921E-1,1.18361435E1,9.26E1,4E0,-9.540168E0,7.58E1,7.289048E-2,2.690598E0,-3.6959338E0,-1.0844381E0,-3.9955368E0,-1.3224843E0],"split_indices":[11,23,0,0,0,1,17,0,3,27,0,0,0,0,0],"split_type":[0,0,0,0,0,0,0,0,0,0,0,0,0,0,0],"sum_hessian":[1.75E2,5.8E1,1.17E2,8E0,5E1,8.3E1,3.4E1,6.6E1,1.7E1,2.5E1,9E0,8E0,9E0,1.2E1,1.3E1],"tree_param":{"num_deleted":"0","num_feature":"30","num_nodes":"15","size_leaf_vector":"1"}},{"base_weights":[-1.5795488E1,-2.6903867E2,3.159575E2,-3.2419998E2,-1.2955841E2,-7.299756E-1,3.557659E2,-3.54621E2,-2.870006E0,-1.476297E2,-7.3728764E-1,1.8963588E0,3.778989E2,-9.901249E0,-2.7085416E0,-4.3070235E0,-1.169353E0,1.0637191E1,2.8001225E0],"categories":[],"categories_nodes":[],"categories_segments":[],"categories_sizes":[],"default_left":[0,0,0,0,0,0,0,0,0,0,0,0,0,0,0,0,0,0,0],"id":17,"left_children":[1,3,5,7,9,-1,11,13,-1,15,-1,-1,17,-1,-1,-1,-1,-1,-1],"loss_changes":[1.5884649E7,5.275125E5,1.191444E6,2.013145E5,4.765675E4,0E0,2.73843E5,2.82655E4,0E0,2.2514375E3,0E0,0E0,1.42311E5,0E0,0E0,0E0,0E0,0E0,0E0],"parents":[2147483647,0,0,1,1,2,2,3,3,4,4,6,6,7,7,9,9,12,12],"right_children":[2,4,6,8,10,-1,12,14,-1,16,-1,-1,18,-1,-1,-1,-1,-1,-1],"split_conditions":[4.389582E3,9.07E1,9.95E1,1.546E3,1.59E3,-7.299756E-1,1.896E3,3.416918E3,-2.870006E0,6.834906E-2,-7.3728764E-1,1.8963588E0,3.9E1,-9.901249E0,-2.7085416E0,-4.3070235E0,-1.169353E0,1.0637191E1,2.8001225E0],"split_indices":[21,1,2,24,24,0,24,21,0,27,0,0,8,0,0,0,0,0,0],"split_type":[0,0,0,0,0,0,0,0,0,0,0,0,0,0,0,0,0,0,0],"sum_hessian":[1.75E2,1E2,7.5E1,6.5E1,3.5E1,8E0,6.7E1,5.3E1,1.2E1,2.7E1,8E0,7E0,6E1,4.6E1,7E0,2E1,7E0,5.2E1,8E0],"tree_param":{"num_deleted":"0","num_feature":"30","num_nodes":"19","size_leaf_vector":"1"}},{"base_weights":[-4.991643E0,-2.0977028E2,4.0190308E2,-2.6689746E2,-2.9937933E1,4.6435577E2,1.9170275E-1,-2.7630084E2,-1.9237083E0,-9.738014E1,3.6742282E0,3.552805E0,1.3861411E1,-9.883286E0,-5.582994E0,-3.3279293E0,-3.6097285E-1],"categories":[],"categories_nodes":[],"categories_segments":[],"categories_sizes":[],"default_left":[0,0,0,0,0,0,0,0,0,0,0,0,0,0,0,0,0],"id":18,"left_children":[1,3,5,7,9,11,-1,13,-1,15,-1,-1,-1,-1,-1,-1,-1],"loss_changes":[1.6170059E7,1.2680895E6,1.576471E6,3.50795E4,5.38526E5,6.08276E5,0E0,1.73205E4,0E0,6.360528E4,0E0,0E0,0E0,0E0,0E0,0E0,0E0],"parents":[2147483647,0,0,1,1,2,2,3,3,4,4,5,5,7,7,9,9],"right_children":[2,4,6,8,10,12,-1,14,-1,16,-1,-1,-1,-1,-1,-1,-1],"split_conditions":[1.152E3,3.951E3,7.38E1,2.095E3,2.38E0,5.282E3,1.9170275E-1,3E0,-1.9237083E0,4E0,3.6742282E0,3.552805E0,1.3861411E1,-9.883286E0,-5.582994E0,-3.3279293E0,-3.6097285E-1],"split_indices":[23,0,3,24,15,0,0,13,0,16,0,0,0,0,0,0,0],"split_type":[0,0,0,0,0,0,0,0,0,0,0,0,0,0,0,0,0],"sum_hessian":[1.8E2,1.22E2,5.8E1,9E1,3.2E1,4.9E1,9E0,8.3E1,7E0,2.5E1,7E0,1.1E1,3.8E1,2E1,6.3E1,1.6E1,9E0],"tree_param":{"num_deleted":"0","num_feature":"30","num_nodes":"17","size_leaf_vector":"1"}},{"base_weights":[1.4415294E1,-2.0904826E2,3.9451312E2,-2.53066E2,6.874771E1,2.1437976E0,1.1336588E1,-3.2337997E2,-1.0289815E2,3.5140224E0,-4.536883E-1,-9.728429E0,-3.8066509E0,-3.3324955E0,3.3295712E-1],"categories":[],"categories_nodes":[],"categories_segments":[],"categories_sizes":[],"default_left":[0,0,0,0,0,0,0,0,0,0,0,0,0,0,0],"id":19,"left_children":[1,3,5,7,9,-1,-1,11,13,-1,-1,-1,-1,-1,-1],"loss_changes":[1.7225158E7,1.687587E6,5.56363E5,9.480135E5,1.4305377E5,0E0,0E0,2.09566E5,1.3423953E5,0E0,0E0,0E0,0E0,0E0,0E0],"parents":[2147483647,0,0,1,1,2,2,3,3,4,4,7,7,8,8],"right_children":[2,4,6,8,10,-1,-1,12,14,-1,-1,-1,-1,-1,-1],"split_conditions":[1.162E3,5.22145E3,9.96E1,9.07E1,3.258215E-2,2.1437976E0,1.1336588E1,3.126953E3,1.5654856E-1,3.5140224E0,-4.536883E-1,-9.728429E0,-3.8066509E0,-3.3324955E0,3.3295712E-1],"split_indices":[23,21,2,1,25,0,0,21,25,0,0,0,0,0,0],"split_type":[0,0,0,0,0,0,0,0,0,0,0,0,0,0,0],"sum_hessian":[1.89E2,1.21E2,6.8E1,1.05E2,1.6E1,9E0,5.9E1,6.6E1,3.9E1,7E0,9E0,4.7E1,1.9E1,3.2E1,7E0],"tree_param":{"num_deleted":"0","num_feature":"30","num_nodes":"15","size_leaf_vector":"1"}},{"base_weights":[-1.2578383E1,-2.7045517E2,2.7303546E2,-3.238375E2,-1.4364163E2,-5.1371353E1,3.4745E2,-2.2527497E0,-9.022271E0,-4.1964703E0,-1.0662465E0,-2.5310037E0,5.182345E-1,3.815607E2,-3.6920473E-2,1.7715456E0,1.1082519E1],"categories":[],"categories_nodes":[],"categories_segments":[],"categories_sizes":[],"default_left":[0,0,0,0,0,0,0,0,0,0,0,0,0,0,0,0,0],"id":20,"left_children":[1,3,5,7,9,11,13,-1,-1,-1,-1,-1,-1,15,-1,-1,-1],"loss_changes":[1.4878595E7,3.902125E5,2.44347E6,7.94085E4,2.2700188E4,8.8897766E4,9.45291E5,0E0,0E0,0E0,0E0,0E0,0E0,6.4965E5,0E0,0E0,0E0],"parents":[2147483647,0,0,1,1,2,2,3,3,4,4,5,5,6,6,13,13],"right_children":[2,4,6,8,10,12,14,-1,-1,-1,-1,-1,-1,16,-1,-1,-1],"split_conditions":[2.000775E3,9.07E1,9.95E1,4.6344353E1,6.474809E1,3.360287E-1,3.1386814E0,-2.2527497E0,-9.022271E0,-4.1964703E0,-1.0662465E0,-2.5310037E0,5.182345E-1,2.2230193E-1,-3.6920473E-2,1.7715456E0,1.1082519E1],"split_indices":[22,1,2,28,28,29,29,0,0,0,0,0,0,29,0,0,0],"split_type":[0,0,0,0,0,0,0,0,0,0,0,0,0,0,0,0,0],"sum_hessian":[1.88E2,9.9E1,8.9E1,6.2E1,3.7E1,1.7E1,7.2E1,7E0,5.5E1,2.9E1,8E0,9E0,8E0,6.5E1,7E0,9E0,5.6E1],"tree_param":{"num_deleted":"0","num_feature":"30","num_nodes":"17","size_leaf_vector":"1"}},{"base_weights":[2.0215721E1,-1.9051047E2,4.1687543E2,-2.5253769E2,8.371694E0,4.9377808E2,1.2602498E2,-2.9021478E2,-5.784632E1,3.402029E0,-6.4895836E1,5.7346487E0,1.5393577E1,5.238827E0,-5.0276977E-1,-8.605165E0,-2.3258467E0,2.4508119E-1,-2.7170293E0,-2.7005188E0,5.395746E-1],"categories":[],"categories_nodes":[],"categories_segments":[],"categories_sizes":[],"default_left":[1,0,0,0,0,0,0,0,0,0,0,0,0,0,0,0,0,0,0,0,0],"id":21,"left_children":[1,3,5,7,9,11,13,15,17,-1,19,-1,-1,-1,-1,-1,-1,-1,-1,-1,-1],"loss_changes":[1.5685298E7,1.5330825E6,1.01589E6,5.70619E5,3.7578966E5,3.11056E5,2.6734266E5,3.452125E5,7.931447E4,0E0,1.0057287E5,0E0,0E0,0E0,0E0,0E0,0E0,0E0,0E0,0E0,0E0],"parents":[2147483647,0,0,1,1,2,2,3,3,4,4,5,5,6,6,7,7,8,8,10,10],"right_children":[2,4,6,8,10,12,14,16,18,-1,20,-1,-1,-1,-1,-1,-1,-1,-1,-1,-1],"split_conditions":[4E0,2.000775E3,3.82E1,9.26E1,6.02E1,5.798E3,1.12E0,1.578E3,1.276E3,3.402029E0,2.5678E3,5.7346487E0,1.5393577E1,5.238827E0,-5.0276977E-1,-8.605165E0,-2.3258467E0,2.4508119E-1,-2.7170293E0,-2.7005188E0,5.395746E-1],"split_indices":[12,22,8,1,1,0,15,24,24,0,22,0,0,0,0,0,0,0,0,0,0],"split_type":[0,0,0,0,0,0,0,0,0,0,0,0,0,0,0,0,0,0,0,0,0],"sum_hessian":[1.74E2,1.16E2,5.8E1,8.7E1,2.9E1,4.2E1,1.6E1,7E1,1.7E1,9E0,2E1,1.6E1,2.6E1,9E0,7E0,5.6E1,1.4E1,9E0,8E0,1.3E1,7E0],"tree_param":{"num_deleted":"0","num_feature":"30","num_nodes":"21","size_leaf_vector":"1"}},{"base_weights":[6.8964305E0,-2.1764761E2,2.6680438E2,-2.405395E2,-5.3919667E-1,-1.6391627E0,3.202583E2,-3.0174744E2,-1.2668932E2,3.539011E2,-5.2372396E-1,-8.792079E0,-1.9999886E0,-3.843301E0,-5.3280145E-1,3.6806633E0,1.0579731E1],"categories":[],"categories_nodes":[],"categories_segments":[],"categories_sizes":[],"default_left":[0,0,0,0,0,0,0,0,0,0,0,0,0,0,0,0,0],"id":22,"left_children":[1,3,5,7,-1,-1,9,11,13,15,-1,-1,-1,-1,-1,-1,-1],"loss_changes":[1.184487E7,4.568105E5,1.7918215E6,4.067245E5,0E0,0E0,9.88471E5,2.245605E5,7.0070375E4,3.50689E5,0E0,0E0,0E0,0E0,0E0,0E0,0E0],"parents":[2147483647,0,0,1,1,2,2,3,3,6,6,7,7,8,8,9,9],"right_children":[2,4,6,8,-1,-1,10,12,14,16,-1,-1,-1,-1,-1,-1,-1],"split_conditions":[4.627007E3,3.619527E3,9.95E1,9.06E1,-5.3919667E-1,-1.6391627E0,1.075E1,5.32E1,6.4621414E1,1.8E0,-5.2372396E-1,-8.792079E0,-1.9999886E0,-3.843301E0,-5.3280145E-1,3.6806633E0,1.0579731E1],"split_indices":[21,21,2,1,0,0,13,9,28,9,0,0,0,0,0,0,0],"split_type":[0,0,0,0,0,0,0,0,0,0,0,0,0,0,0,0,0],"sum_hessian":[1.89E2,1.02E2,8.7E1,9E1,1.2E1,1.2E1,7.5E1,5.1E1,3.9E1,6.8E1,7E0,4.2E1,9E0,3.1E1,8E0,1.7E1,5.1E1],"tree_param":{"num_deleted":"0","num_feature":"30","num_nodes":"17","size_leaf_vector":"1"}},{"base_weights":[-9.443703E0,-2.2144765E2,2.9874167E2,-2.3426744E2,-2.8103623E-1,-1.5309001E0,3.555344E2,-2.468084E2,-1.4059445E0,9.910327E0,2.4158256E0,-2.3501627E0,-6.962123E0],"categories":[],"categories_nodes":[],"categories_segments":[],"categories_sizes":[],"default_left":[0,0,0,0,0,0,0,0,0,0,0,0,0],"id":23,"left_children":[1,3,5,7,-1,-1,9,11,-1,-1,-1,-1,-1],"loss_changes":[1.2810771E7,2.950775E5,1.765368E6,1.545505E5,0E0,0E0,1.128E5,9.4151E4,0E0,0E0,0E0,0E0,0E0],"parents":[2147483647,0,0,1,1,2,2,3,3,6,6,7,7],"right_children":[2,4,6,8,-1,-1,10,12,-1,-1,-1,-1,-1],"split_conditions":[9.55E2,5.197097E3,3.386E3,9.96E1,-2.8103623E-1,-1.5309001E0,3.89E1,8.39E1,-1.4059445E0,9.910327E0,2.4158256E0,-2.3501627E0,-6.962123E0],"split_indices":[23,21,0,2,0,0,8,2,0,0,0,0,0],"split_type":[0,0,0,0,0,0,0,0,0,0,0,0,0],"sum_hessian":[1.82E2,1.09E2,7.3E1,1.02E2,7E0,1E1,6.3E1,9.3E1,9E0,5.6E1,7E0,1.3E1,8E1],"tree_param":{"num_deleted":"0","num_feature":"30","num_nodes":"13","size_leaf_vector":"1"}},{"base_weights":[4.0524033E1,-2.0969914E2,3.200317E2,-8.504896E0,-1.4873434E2,3.6882172E2,-6.997488E-1,-1.6458104E2,-3.2011884E-1,1.0645109E2,4.1183032E2,-4.865878E0,-1.481203E0,5.085413E0,-8.5372835E-1,6.385695E0,1.276899E1],"categories":[],"categories_nodes":[],"categories_segments":[],"categories_sizes":[],"default_left":[0,0,0,0,0,0,0,0,0,0,0,0,0,0,0,0,0],"id":24,"left_children":[1,3,5,-1,7,9,-1,11,-1,13,15,-1,-1,-1,-1,-1,-1],"loss_changes":[1.382801E7,3.79447E5,1.64177E6,0E0,1.6070412E5,6.16435E5,0E0,7.848075E4,0E0,2.940237E5,3.545E3,0E0,0E0,0E0,0E0,0E0,0E0],"parents":[2147483647,0,0,1,1,2,2,4,4,5,5,7,7,9,9,10,10],"right_children":[2,4,6,-1,8,10,-1,12,-1,14,16,-1,-1,-1,-1,-1,-1],"split_conditions":[9.95E1,3E0,1.075E1,-8.504896E0,9.93E1,2.5E0,-6.997488E-1,6.332272E1,-3.2011884E-1,6.33E1,5.67E1,-4.865878E0,-1.481203E0,5.085413E0,-8.5372835E-1,6.385695E0,1.276899E1],"split_indices":[2,13,13,0,2,8,0,28,0,1,3,0,0,0,0,0,0],"split_type":[0,0,0,0,0,0,0,0,0,0,0,0,0,0,0,0,0],"sum_hessian":[1.84E2,9.8E1,8.6E1,2.4E1,7.4E1,7.5E1,1.1E1,6.5E1,9E0,1.4E1,6.1E1,5.1E1,1.4E1,7E0,7E0,2.7E1,3.4E1],"tree_param":{"num_deleted":"0","num_feature":"30","num_nodes":"17","size_leaf_vector":"1"}},{"base_weights":[1.4636265E1,-1.5705553E2,3.6454532E2,-2.3358632E2,-2.8949722E1,1.0620713E1,1.48272E0,-8.035811E0,-1.590326E2,-1.1821141E2,7.247215E1,-2.070911E0,-5.0333633E0,-4.6230774E0,-1.2130896E0,-2.927476E0,4.1880865E0],"categories":[],"categories_nodes":[],"categories_segments":[],"categories_sizes":[],"default_left":[1,0,0,0,0,0,0,0,0,0,0,0,0,0,0,0,0],"id":25,"left_children":[1,3,5,7,9,-1,-1,-1,11,13,15,-1,-1,-1,-1,-1,-1],"loss_changes":[1.1695483E7,1.2358952E6,5.7102E5,8.41615E4,5.7610375E5,0E0,0E0,0E0,3.096275E4,7.806381E4,6.1025925E5,0E0,0E0,0E0,0E0,0E0,0E0],"parents":[2147483647,0,0,1,1,2,2,3,3,4,4,8,8,9,9,10,10],"right_children":[2,4,6,8,10,-1,-1,-1,12,14,16,-1,-1,-1,-1,-1,-1],"split_conditions":[2E0,1.577613E3,3.0978024E0,3.9114E3,2E0,1.0620713E1,1.48272E0,-8.035811E0,4.13913E3,2.96E1,2E0,-2.070911E0,-5.0333633E0,-4.6230774E0,-1.2130896E0,-2.927476E0,4.1880865E0],"split_indices":[12,22,29,14,7,0,0,0,14,8,16,0,0,0,0,0,0],"split_type":[0,0,0,0,0,0,0,0,0,0,0,0,0,0,0,0,0],"sum_hessian":[1.81E2,1.24E2,5.7E1,7.4E1,5E1,4.9E1,8E0,2.7E1,4.7E1,2.6E1,2.4E1,2E1,2.7E1,9E0,1.7E1,7E0,1.7E1],"tree_param":{"num_deleted":"0","num_feature":"30","num_nodes":"17","size_leaf_vector":"1"}},{"base_weights":[-2.5324034E1,-1.9006065E2,2.9929382E2,-2.3545619E2,-2.0940668E1,3.65422E2,8.838849E1,-8.4068365E0,-1.2946782E2,6.5297386E1,-2.6555169E0,3.004806E0,1.0660749E1,-2.8868344E-2,3.6889803E0,-4.1222234E0,-3.4233987E-1,-1.579324E-2,2.6145368E0],"categories":[],"categories_nodes":[],"categories_segments":[],"categories_sizes":[],"default_left":[1,0,0,0,0,0,0,0,0,0,0,0,0,0,0,0,0,0,0],"id":26,"left_children":[1,3,5,7,9,11,13,-1,15,17,-1,-1,-1,-1,-1,-1,-1,-1,-1],"loss_changes":[1.0450805E7,9.547855E5,6.926045E5,5.92161E5,2.8580312E5,1.323945E5,1.1588636E5,0E0,1.5733575E5,4.723647E4,0E0,0E0,0E0,0E0,0E0,0E0,0E0,0E0,0E0],"parents":[2147483647,0,0,1,1,2,2,3,3,4,4,5,5,6,6,8,8,9,9],"right_children":[2,4,6,8,10,12,14,-1,16,18,-1,-1,-1,-1,-1,-1,-1,-1,-1],"split_conditions":[2E0,2.000775E3,3.83E1,3.5E0,3.99353E3,-6.010363E-2,1.7E1,-8.4068365E0,1.464595E3,5.8E-1,-2.6555169E0,3.004806E0,1.0660749E1,-2.8868344E-2,3.6889803E0,-4.1222234E0,-3.4233987E-1,-1.579324E-2,2.6145368E0],"split_indices":[12,22,8,8,14,25,12,0,22,15,0,0,0,0,0,0,0,0,0],"split_type":[0,0,0,0,0,0,0,0,0,0,0,0,0,0,0,0,0,0,0],"sum_hessian":[1.81E2,1.22E2,5.9E1,9.4E1,2.8E1,4.1E1,1.8E1,4.5E1,4.9E1,1.4E1,1.4E1,9E0,3.2E1,9E0,9E0,3.8E1,1.1E1,7E0,7E0],"tree_param":{"num_deleted":"0","num_feature":"30","num_nodes":"19","size_leaf_vector":"1"}},{"base_weights":[1.1935352E1,-1.9807684E2,2.707769E2,-2.992327E2,-1.3769633E2,9.9774216E1,9.693044E0,-8.778046E0,-2.5456917E0,-1.5192476E2,-2.543936E-1,-1.2327531E1,5.859797E0,-4.849421E0,-1.4975877E0,1.6169245E0,-1.9501442E0],"categories":[],"categories_nodes":[],"categories_segments":[],"categories_sizes":[],"default_left":[0,0,0,0,0,0,0,0,0,0,0,0,0,0,0,0,0],"id":27,"left_children":[1,3,5,7,9,11,-1,-1,-1,13,-1,15,-1,-1,-1,-1,-1],"loss_changes":[1.1301586E7,4.12335E5,1.264031E6,1.991725E4,1.4400275E5,6.068814E5,0E0,0E0,0E0,1.5395162E5,0E0,1.6236806E5,0E0,0E0,0E0,0E0,0E0],"parents":[2147483647,0,0,1,1,2,2,3,3,4,4,5,5,9,9,11,11],"right_children":[2,4,6,8,10,12,-1,-1,-1,14,-1,16,-1,-1,-1,-1,-1],"split_conditions":[9.55E2,1.558E3,5.53E3,9.07E1,5.32E1,9.99E1,9.693044E0,-8.778046E0,-2.5456917E0,9.1E1,-2.543936E-1,6.38E1,5.859797E0,-4.849421E0,-1.4975877E0,1.6169245E0,-1.9501442E0],"split_indices":[23,0,0,1,9,4,0,0,0,1,0,3,0,0,0,0,0],"split_type":[0,0,0,0,0,0,0,0,0,0,0,0,0,0,0,0,0],"sum_hessian":[1.94E2,1.08E2,8.6E1,3E1,7.8E1,3.6E1,5E1,2.2E1,8E0,6.9E1,9E0,2.2E1,1.4E1,4.7E1,2.2E1,1E1,1.2E1],"tree_param":{"num_deleted":"0","num_feature":"30","num_nodes":"17","size_leaf_vector":"1"}},{"base_weights":[-2.1111494E1,-1.9971915E2,2.4085934E2,-2.1472993E2,-8.623288E-1,-2.008879E0,2.8790018E2,-2.2421901E2,-1.3658193E0,3.1562973E2,3.947553E-1,-6.134373E0,-1.6187168E0,1.9220449E0,9.406497E0],"categories":[],"categories_nodes":[],"categories_segments":[],"categories_sizes":[],"default_left":[0,0,0,0,0,0,0,0,0,0,0,0,0,0,0],"id":28,"left_children":[1,3,5,7,-1,-1,9,11,-1,13,-1,-1,-1,-1,-1],"loss_changes":[9.319806E6,2.46004E5,1.360913E6,8.3451E4,0E0,0E0,5.10651E5,2.38545E4,0E0,4.491915E5,0E0,0E0,0E0,0E0,0E0],"parents":[2147483647,0,0,1,1,2,2,3,3,6,6,7,7,9,9],"right_children":[2,4,6,8,-1,-1,10,12,-1,14,-1,-1,-1,-1,-1],"split_conditions":[9.55E2,4.998E3,3.386E3,6.5370605E1,-8.623288E-1,-2.008879E0,1E2,1.93136E3,-1.3658193E0,4.38E1,3.947553E-1,-6.134373E0,-1.6187168E0,1.9220449E0,9.406497E0],"split_indices":[23,0,0,28,0,0,5,22,0,6,0,0,0,0,0],"split_type":[0,0,0,0,0,0,0,0,0,0,0,0,0,0,0],"sum_hessian":[1.85E2,1.11E2,7.4E1,1E2,1.1E1,9E0,6.5E1,9.2E1,8E0,5.8E1,7E0,8.5E1,7E0,1.1E1,4.7E1],"tree_param":{"num_deleted":"0","num_feature":"30","num_nodes":"15","size_leaf_vector":"1"}},{"base_weights":[-1.1783234E0,-2.0729227E2,2.3620801E2,-7.8948383E0,-1.4618808E2,1.2270863E2,1.0281693E1,-1.6611658E2,-3.274318E1,2.4921938E1,6.097382E0,-4.675648E0,-9.612467E-1,-1.396815E0,8.979219E-2,3.3634915E0,-8.702113E-1],"categories":[],"categories_nodes":[],"categories_segments":[],"categories_sizes":[],"default_left":[0,0,0,0,0,0,0,0,0,0,0,0,0,0,0,0,0],"id":29,"left_children":[1,3,5,-1,7,9,-1,11,13,15,-1,-1,-1,-1,-1,-1,-1],"loss_changes":[1.042148E7,3.281205E5,1.377866E6,0E0,1.4650362E5,6.6509644E5,0E0,4.82215E4,1.6683488E4,2.8384256E5,0E0,0E0,0E0,0E0,0E0,0E0,0E0],"parents":[2147483647,0,0,1,1,2,2,4,4,5,5,7,7,8,8,9,9],"right_children":[2,4,6,-1,8,10,-1,12,14,16,-1,-1,-1,-1,-1,-1,-1],"split_conditions":[4.389582E3,3E0,3.136361E3,-7.8948383E0,3.203797E3,9.45E1,1.0281693E1,6.58E1,4.99E1,5E0,6.097382E0,-4.675648E0,-9.612467E-1,-1.396815E0,8.979219E-2,3.3634915E0,-8.702113E-1],"split_indices":[21,13,22,0,21,1,0,6,6,20,0,0,0,0,0,0,0],"split_type":[0,0,0,0,0,0,0,0,0,0,0,0,0,0,0,0,0],"sum_hessian":[1.99E2,1.07E2,9.2E1,3.2E1,7.5E1,6E1,3.2E1,6.1E1,1.4E1,3.6E1,2.4E1,5.4E1,7E0,7E0,7E0,1E1,2.6E1],"tree_param":{"num_deleted":"0","num_feature":"30","num_nodes":"17","size_leaf_vector":"1"}},{"base_weights":[1.1520077E1,-1.4621909E2,3.331139E2,-1.991653E2,2.2722475E1,1.7466234E2,1.1476985E1,-2.1402902E2,2.5890844E-2,1.0526225E2,-2.3328753E0,1.3582803E0,5.060512E0,-5.9367576E0,-1.0900464E0,-8.4556216E-1,5.6064696E0],"categories":[],"categories_nodes":[],"categories_segments":[],"categories_sizes":[],"default_left":[1,0,0,0,0,1,0,0,0,0,0,0,0,0,0,0,0],"id":30,"left_children":[1,3,5,7,9,11,-1,13,-1,15,-1,-1,-1,-1,-1,-1,-1],"loss_changes":[1.0030309E7,1.2220062E6,5.05426E5,3.0577025E5,4.1288462E5,6.279375E3,0E0,1.053295E5,0E0,4.1415528E5,0E0,0E0,0E0,0E0,0E0,0E0,0E0],"parents":[2147483647,0,0,1,1,2,2,3,3,4,4,5,5,7,7,9,9],"right_children":[2,4,6,8,10,12,-1,14,-1,16,-1,-1,-1,-1,-1,-1,-1],"split_conditions":[4E0,2.17281E3,3.202533E3,5E0,4.02937E3,4.501E3,1.1476985E1,5.9731174E-1,2.5890844E-2,9.95E1,-2.3328753E0,1.3582803E0,5.060512E0,-5.9367576E0,-1.0900464E0,-8.4556216E-1,5.6064696E0],"split_indices":[12,22,22,15,14,10,0,29,0,2,0,0,0,0,0,0,0],"split_type":[0,0,0,0,0,0,0,0,0,0,0,0,0,0,0,0,0],"sum_hessian":[1.84E2,1.26E2,5.8E1,9.5E1,3.1E1,3E1,2.8E1,8.8E1,7E0,1.8E1,1.3E1,7E0,2.3E1,8.1E1,7E0,1E1,8E0],"tree_param":{"num_deleted":"0","num_feature":"30","num_nodes":"17","size_leaf_vector":"1"}},{"base_weights":[-1.6343464E0,3.151347E2,-1.4618768E2,2.4223201E0,9.00499E0,-1.9693375E2,2.9478848E1,-2.6644632E2,-1.075344E2,4.3422246E0,-5.4695732E1,-8.891699E0,-3.5496457E0,-3.4163053E0,6.948138E-1,2.2127904E-1,-3.233617E0],"categories":[],"categories_nodes":[],"categories_segments":[],"categories_sizes":[],"default_left":[0,0,0,0,0,0,0,0,0,0,0,0,0,0,0,0,0],"id":31,"left_children":[1,3,5,-1,-1,7,9,11,13,-1,15,-1,-1,-1,-1,-1,-1],"loss_changes":[9.20463E6,1.366875E5,1.2714468E6,0E0,0E0,4.69146E5,4.8269906E5,1.9877775E5,1.9488106E5,0E0,1.2689633E5,0E0,0E0,0E0,0E0,0E0,0E0],"parents":[2147483647,0,0,1,1,2,2,5,5,6,6,7,7,8,8,10,10],"right_children":[2,4,6,-1,-1,8,10,12,14,-1,16,-1,-1,-1,-1,-1,-1],"split_conditions":[1.654E3,3.4E-1,2.000775E3,2.4223201E0,9.00499E0,7.82E1,3.82339E3,2.451805E3,9.0742074E-2,4.3422246E0,4.09362E3,-8.891699E0,-3.5496457E0,-3.4163053E0,6.948138E-1,2.2127904E-1,-3.233617E0],"split_indices":[11,15,22,0,0,1,14,21,25,0,14,0,0,0,0,0,0],"split_type":[0,0,0,0,0,0,0,0,0,0,0,0,0,0,0,0,0],"sum_hessian":[1.87E2,5.6E1,1.31E2,9E0,4.7E1,1.01E2,3E1,4.9E1,5.2E1,9E0,2.1E1,2.5E1,2.4E1,4.5E1,7E0,1.4E1,7E0],"tree_param":{"num_deleted":"0","num_feature":"30","num_nodes":"17","size_leaf_vector":"1"}},{"base_weights":[-3.0444422E1,-1.5727531E2,2.6546432E2,2.6922214E0,-1.8352054E2,4.772728E-1,3.0739658E2,-8.198884E0,-1.4075922E2,3.5142444E2,2.4403927E0,-4.1034436E0,-2.4057762E-1,2.8281717E0,1.0839365E1],"categories":[],"categories_nodes":[],"categories_segments":[],"categories_sizes":[],"default_left":[0,0,0,0,0,0,0,0,0,0,0,0,0,0,0],"id":32,"left_children":[1,3,5,-1,7,-1,9,-1,11,13,-1,-1,-1,-1,-1],"loss_changes":[7.347158E6,1.05566E6,5.71924E5,0E0,3.742335E5,0E0,2.44893E5,0E0,1.92046E5,2.479835E5,0E0,0E0,0E0,0E0,0E0],"parents":[2147483647,0,0,1,1,2,2,4,4,6,6,8,8,9,9],"right_children":[2,4,6,-1,8,-1,10,-1,12,14,-1,-1,-1,-1,-1],"split_conditions":[2.726682E3,9.338E4,5.461E3,2.6922214E0,1.386E3,4.772728E-1,9.75E0,-8.198884E0,6.474809E1,5.043E3,2.4403927E0,-4.1034436E0,-2.4057762E-1,2.8281717E0,1.0839365E1],"split_indices":[22,10,0,0,0,0,13,0,28,10,0,0,0,0,0],"split_type":[0,0,0,0,0,0,0,0,0,0,0,0,0,0,0],"sum_hessian":[1.81E2,1.29E2,5.2E1,1E1,1.19E2,9E0,4.3E1,1.9E1,1E2,3.2E1,1.1E1,8.9E1,1.1E1,1E1,2.2E1],"tree_param":{"num_deleted":"0","num_feature":"30","num_nodes":"15","size_leaf_vector":"1"}},{"base_weights":[2.6094877E1,-1.8029805E2,2.3072122E2,-2.356028E2,-9.367244E1,-4.55269E1,2.904724E2,-7.5367823E0,-1.2459515E2,-1.2658636E2,-1.4906995E1,1.8487759E-1,-2.2968986E0,2.0072092E2,1.341837E1,-3.8902385E0,-8.7852955E-1,-3.2879436E-1,-4.1537294E0,-2.1900241E0,1.3425276E0,1.2342148E0,6.8457413E0],"categories":[],"categories_nodes":[],"categories_segments":[],"categories_sizes":[],"default_left":[0,0,0,0,0,0,0,0,0,0,0,0,0,0,0,0,0,0,0,0,0,0,0],"id":33,"left_children":[1,3,5,7,9,11,13,-1,15,17,19,-1,-1,21,-1,-1,-1,-1,-1,-1,-1,-1,-1],"loss_changes":[8.526535E6,3.2810425E5,1.7605675E6,6.21425E4,1.1841978E5,5.663666E4,9.19447E5,0E0,2.6711375E4,1.0731081E5,1.3204783E5,0E0,0E0,5.4970575E5,0E0,0E0,0E0,0E0,0E0,0E0,0E0,0E0,0E0],"parents":[2147483647,0,0,1,1,2,2,3,3,4,4,5,5,6,6,8,8,9,9,10,10,13,13],"right_children":[2,4,6,8,10,12,14,-1,16,18,20,-1,-1,22,-1,-1,-1,-1,-1,-1,-1,-1,-1],"split_conditions":[2.098973E3,1.29545E3,9.95E1,3.7E0,1.581E3,4.85905E1,3.988871E3,-7.5367823E0,8.84E1,1.356198E3,7.69E1,1.8487759E-1,-2.2968986E0,9.97E1,1.341837E1,-3.8902385E0,-8.7852955E-1,-3.2879436E-1,-4.1537294E0,-2.1900241E0,1.3425276E0,1.2342148E0,6.8457413E0],"split_indices":[22,22,2,8,24,28,22,0,2,22,3,0,0,4,0,0,0,0,0,0,0,0,0],"split_type":[0,0,0,0,0,0,0,0,0,0,0,0,0,0,0,0,0,0,0,0,0,0,0],"sum_hessian":[1.88E2,9.4E1,9.4E1,5E1,4.4E1,1.7E1,7.7E1,2.7E1,2.3E1,2.8E1,1.6E1,1E1,7E0,6.4E1,1.3E1,1.5E1,8E0,8E0,2E1,7E0,9E0,2.1E1,4.3E1],"tree_param":{"num_deleted":"0","num_feature":"30","num_nodes":"23","size_leaf_vector":"1"}},{"base_weights":[-5.383755E0,-1.5773567E2,2.8862036E2,-1.9092226E2,-3.7200497E1,-3.6209345E-2,3.2212503E2,-2.5290215E2,-1.1439165E2,-3.44976E0,1.4835519E1,1.3056253E0,3.510145E2,-1.8694518E0,-7.1672163E0,-3.4699793E0,-1.2544289E-1,1.1742234E0,-1.0805268E0,5.2117624E0,1.2002893E1],"categories":[],"categories_nodes":[],"categories_segments":[],"categories_sizes":[],"default_left":[0,0,0,0,0,0,0,0,0,0,0,0,0,0,0,0,0,0,0,0,0],"id":34,"left_children":[1,3,5,7,9,-1,11,13,15,-1,17,-1,19,-1,-1,-1,-1,-1,-1,-1,-1],"loss_changes":[8.917809E6,4.7337525E5,6.65052E5,2.751635E5,1.9348194E5,0E0,3.5778E5,2.92505E4,1.01915E5,0E0,6.207564E4,0E0,2.26314E5,0E0,0E0,0E0,0E0,0E0,0E0,0E0,0E0],"parents":[2147483647,0,0,1,1,2,2,3,3,4,4,6,6,7,7,8,8,10,10,12,12],"right_children":[2,4,6,8,10,-1,12,14,16,-1,18,-1,20,-1,-1,-1,-1,-1,-1,-1,-1],"split_conditions":[1.162E3,1.915498E3,2.4615413E-1,8.68E1,2.521111E-1,-3.6209345E-2,2.6E0,5.77E1,1.3744856E-1,-3.44976E0,4.1151E3,1.3056253E0,3.282608E3,-1.8694518E0,-7.1672163E0,-3.4699793E0,-1.2544289E-1,1.1742234E0,-1.0805268E0,5.2117624E0,1.2002893E1],"split_indices":[23,22,29,1,29,0,8,1,27,0,14,0,22,0,0,0,0,0,0,0,0],"split_type":[0,0,0,0,0,0,0,0,0,0,0,0,0,0,0,0,0,0,0,0,0],"sum_hessian":[1.85E2,1.24E2,6.1E1,9.4E1,3E1,7E0,5.4E1,4.3E1,5.1E1,7E0,2.3E1,7E0,4.7E1,7E0,3.6E1,4.3E1,8E0,1.6E1,7E0,2.7E1,2E1],"tree_param":{"num_deleted":"0","num_feature":"30","num_nodes":"21","size_leaf_vector":"1"}},{"base_weights":[-4.728721E0,-1.7814978E2,2.2963737E2,-8.172728E0,-1.11107086E2,9.488995E1,3.452861E2,4.4924378E-1,-1.2601289E2,1.8220389E2,-2.404695E0,1.9858176E0,1.0162263E1,-1.9179224E0,-4.245749E0,6.6362767E0,1.6297837E0],"categories":[],"categories_nodes":[],"categories_segments":[],"categories_sizes":[],"default_left":[0,0,0,0,0,0,0,0,0,0,0,0,0,0,0,0,0],"id":35,"left_children":[1,3,5,-1,7,9,11,-1,13,15,-1,-1,-1,-1,-1,-1,-1],"loss_changes":[7.9268595E6,7.4051375E5,1.062331E6,0E0,1.7770538E5,8.949056E5,2.37989E5,0E0,5.9763375E4,1.80457E5,0E0,0E0,0E0,0E0,0E0,0E0,0E0],"parents":[2147483647,0,0,1,1,2,2,4,4,5,5,6,6,8,8,9,9],"right_children":[2,4,6,-1,8,10,12,-1,14,16,-1,-1,-1,-1,-1,-1,-1],"split_conditions":[4.770693E3,3E0,4.9061253E1,-8.172728E0,7.5E0,4.02671E3,2.641E3,4.4924378E-1,4.13762E3,-4.269965E-2,-2.404695E0,1.9858176E0,1.0162263E1,-1.9179224E0,-4.245749E0,6.6362767E0,1.6297837E0],"split_indices":[21,13,28,0,13,14,24,0,14,26,0,0,0,0,0,0,0],"split_type":[0,0,0,0,0,0,0,0,0,0,0,0,0,0,0,0,0],"sum_hessian":[1.81E2,1.05E2,7.6E1,2.7E1,7.8E1,4.1E1,3.5E1,8E0,7E1,2.8E1,1.3E1,7E0,2.8E1,3.6E1,3.4E1,1.3E1,1.5E1],"tree_param":{"num_deleted":"0","num_feature":"30","num_nodes":"17","size_leaf_vector":"1"}},{"base_weights":[3.6730254E0,-1.5241718E2,2.6705408E2,-1.6574486E2,9.478873E-1,3.1069574E2,-1.8394764E-1,-2.0837254E2,-1.0194394E2,1.3873044E0,3.4096463E2,-6.950933E0,-3.515034E0,5.534236E-1,-3.1914327E0,4.9907765E0,1.1561126E1],"categories":[],"categories_nodes":[],"categories_segments":[],"categories_sizes":[],"default_left":[0,0,0,0,0,0,0,0,0,0,0,0,0,0,0,0,0],"id":36,"left_children":[1,3,5,7,-1,9,-1,11,13,-1,15,-1,-1,-1,-1,-1,-1],"loss_changes":[8.178376E6,3.55701E5,9.01221E5,1.7102975E5,0E0,3.73511E5,0E0,1.69395E4,1.5833588E5,0E0,2.4016E5,0E0,0E0,0E0,0E0,0E0,0E0],"parents":[2147483647,0,0,1,1,2,2,3,3,5,5,7,7,8,8,10,10],"right_children":[2,4,6,8,-1,10,-1,12,14,-1,16,-1,-1,-1,-1,-1,-1],"split_conditions":[1.146E3,3.85E1,7.43E1,2.480951E3,9.478873E-1,2.4615413E-1,-1.8394764E-1,8.91E1,2.638392E3,1.3873044E0,5.7E1,-6.950933E0,-3.515034E0,5.534236E-1,-3.1914327E0,4.9907765E0,1.1561126E1],"split_indices":[23,8,3,21,0,29,0,1,21,0,3,0,0,0,0,0,0],"split_type":[0,0,0,0,0,0,0,0,0,0,0,0,0,0,0,0,0],"sum_hessian":[1.85E2,1.18E2,6.7E1,1.11E2,7E0,5.7E1,1E1,5.7E1,5.4E1,8E0,4.9E1,2.3E1,3.4E1,7E0,4.7E1,2.7E1,2.2E1],"tree_param":{"num_deleted":"0","num_feature":"30","num_nodes":"17","size_leaf_vector":"1"}},{"base_weights":[-9.812657E0,-1.528002E2,2.5016548E2,-2.5530615E2,-1.03185555E2,2.9169272E2,-9.3046874E-1,-8.079501E0,-1.1184671E0,-1.2673252E2,-3.123206E1,1.5821553E2,1.082721E1,-3.696286E0,-1.19341806E-1,8.149501E-1,-2.7128646E0,1.0037241E0,4.7572865E0],"categories":[],"categories_nodes":[],"categories_segments":[],"categories_sizes":[],"default_left":[0,0,0,0,0,0,0,0,0,0,0,0,0,0,0,0,0,0,0],"id":37,"left_children":[1,3,5,7,9,11,-1,-1,-1,13,15,17,-1,-1,-1,-1,-1,-1,-1],"loss_changes":[7.2183015E6,4.49934E5,8.904065E5,2.9280875E5,1.3430288E5,5.024915E5,0E0,0E0,0E0,1.06330375E5,1.6843467E5,5.547025E4,0E0,0E0,0E0,0E0,0E0,0E0,0E0],"parents":[2147483647,0,0,1,1,2,2,3,3,4,4,5,5,9,9,10,10,11,11],"right_children":[2,4,6,8,10,12,-1,-1,-1,14,16,18,-1,-1,-1,-1,-1,-1,-1],"split_conditions":[1.162E3,3.85904E3,7.43E1,1.475082E3,9.94E1,3.282608E3,-9.3046874E-1,-8.079501E0,-1.1184671E0,8.25E1,4.16633E3,-5.929378E-2,1.082721E1,-3.696286E0,-1.19341806E-1,8.149501E-1,-2.7128646E0,1.0037241E0,4.7572865E0],"split_indices":[23,14,3,22,2,22,0,0,0,3,14,25,0,0,0,0,0,0,0],"split_type":[0,0,0,0,0,0,0,0,0,0,0,0,0,0,0,0,0,0,0],"sum_hessian":[1.8E2,1.18E2,6.2E1,2.9E1,8.9E1,5.4E1,8E0,2.1E1,8E0,6.3E1,2.6E1,3.3E1,2.1E1,5.6E1,7E0,1.6E1,1E1,8E0,2.5E1],"tree_param":{"num_deleted":"0","num_feature":"30","num_nodes":"19","size_leaf_vector":"1"}},{"base_weights":[1.7946038E0,-1.811171E2,2.09389E2,-2.2291678E2,-7.7198456E1,-3.0418463E1,2.5297954E2,-2.3669214E2,-1.5347252E0,-9.745835E1,-1.8618149E-1,-1.4893029E0,2.7452278E-1,2.9124823E2,-8.4745705E-1,-6.723706E0,-1.5410707E0,-2.8647294E0,-7.689738E-1,8.528814E0,-3.1108806E-2],"categories":[],"categories_nodes":[],"categories_segments":[],"categories_sizes":[],"default_left":[0,0,0,0,0,0,0,0,0,0,0,0,0,0,0,0,0,0,0,0,0],"id":38,"left_children":[1,3,5,7,9,11,13,15,-1,17,-1,-1,-1,19,-1,-1,-1,-1,-1,-1,-1],"loss_changes":[7.7835845E6,3.5182825E5,1.058223E6,7.078625E4,5.446278E4,2.6452633E4,9.607005E5,1.01332E5,0E0,1.1445938E3,0E0,0E0,0E0,6.70051E5,0E0,0E0,0E0,0E0,0E0,0E0,0E0],"parents":[2147483647,0,0,1,1,2,2,3,3,4,4,5,5,6,6,7,7,9,9,13,13],"right_children":[2,4,6,8,10,12,14,16,-1,18,-1,-1,-1,20,-1,-1,-1,-1,-1,-1,-1],"split_conditions":[4.389582E3,9.07E1,9.95E1,7.56E1,4E0,5.276669E3,1.075E1,3.557E3,-1.5347252E0,8.82E1,-1.8618149E-1,-1.4893029E0,2.7452278E-1,4.38832E3,-8.4745705E-1,-6.723706E0,-1.5410707E0,-2.8647294E0,-7.689738E-1,8.528814E0,-3.1108806E-2],"split_indices":[21,1,2,9,16,21,13,0,0,2,0,0,0,14,0,0,0,0,0,0,0],"split_type":[0,0,0,0,0,0,0,0,0,0,0,0,0,0,0,0,0,0,0,0,0],"sum_hessian":[1.91E2,1.02E2,8.9E1,6.7E1,3.5E1,1.4E1,7.5E1,5.9E1,8E0,2.5E1,1E1,7E0,7E0,6.6E1,9E0,5.1E1,8E0,1.8E1,7E0,5.9E1,7E0],"tree_param":{"num_deleted":"0","num_feature":"30","num_nodes":"21","size_leaf_vector":"1"}},{"base_weights":[-2.4043145E0,-1.5114543E2,2.2915227E2,-2.0530981E2,-6.366509E1,3.5422577E1,3.2077737E2,-7.0606747E0,-1.0194644E2,-1.0752976E2,-1.4153994E1,-3.2489754E1,3.2616997E0,3.8152974E0,9.794976E0,-8.566604E-1,-3.0838048E0,-3.9482255E0,1.4707166E-1,5.9972936E-1,-1.6787609E0,1.799878E0,-2.817078E0],"categories":[],"categories_nodes":[],"categories_segments":[],"categories_sizes":[],"default_left":[0,0,0,0,0,0,0,0,0,0,0,0,0,0,0,0,0,0,0,0,0,0,0],"id":39,"left_children":[1,3,5,7,9,11,13,-1,15,17,19,21,-1,-1,-1,-1,-1,-1,-1,-1,-1,-1,-1],"loss_changes":[6.338041E6,4.3812175E5,1.1969975E6,2.28552E5,1.0394555E5,2.1341645E5,4.39755E4,0E0,9.635E3,1.3383581E5,7.016221E4,2.2198012E5,0E0,0E0,0E0,0E0,0E0,0E0,0E0,0E0,0E0,0E0,0E0],"parents":[2147483647,0,0,1,1,2,2,3,3,4,4,5,5,6,6,8,8,9,9,10,10,11,11],"right_children":[2,4,6,8,10,12,14,-1,16,18,20,22,-1,-1,-1,-1,-1,-1,-1,-1,-1,-1,-1],"split_conditions":[4.984E3,1.320122E3,4.72E1,8.91E1,7.48E1,6.944277E-2,3.136361E3,-7.0606747E0,2.87E1,3.4218687E-1,2.413122E-2,9.338E4,3.2616997E0,3.8152974E0,9.794976E0,-8.566604E-1,-3.0838048E0,-3.9482255E0,1.4707166E-1,5.9972936E-1,-1.6787609E0,1.799878E0,-2.817078E0],"split_indices":[0,22,6,1,1,26,22,0,8,29,26,10,0,0,0,0,0,0,0,0,0,0,0],"split_type":[0,0,0,0,0,0,0,0,0,0,0,0,0,0,0,0,0,0,0,0,0,0,0],"sum_hessian":[1.7E2,1.05E2,6.5E1,5.9E1,4.6E1,2.4E1,4.1E1,3E1,2.9E1,2E1,2.6E1,1.6E1,8E0,1.5E1,2.6E1,9E0,2E1,1.3E1,7E0,1.7E1,9E0,7E0,9E0],"tree_param":{"num_deleted":"0","num_feature":"30","num_nodes":"23","size_leaf_vector":"1"}},{"base_weights":[-2.1170513E1,-1.4998009E2,2.6204828E2,-1.7416374E2,1.8506586E1,7.563498E-1,2.934369E2,-2.2462422E2,-7.1974915E1,-2.7362113E0,3.4941347E0,2.6722403E0,9.106261E0,-6.3947606E0,-1.7551259E0,-2.3763385E0,-2.9319147E-2],"categories":[],"categories_nodes":[],"categories_segments":[],"categories_sizes":[],"default_left":[1,0,0,0,0,0,0,0,0,0,0,0,0,0,0,0,0],"id":40,"left_children":[1,3,5,7,9,-1,11,13,15,-1,-1,-1,-1,-1,-1,-1,-1],"loss_changes":[7.0963075E6,5.650965E5,3.8693125E5,4.8896475E5,4.1429397E5,0E0,2.73309E5,9E4,6.0968766E4,0E0,0E0,0E0,0E0,0E0,0E0,0E0,0E0],"parents":[2147483647,0,0,1,1,2,2,3,3,4,4,6,6,7,7,8,8],"right_children":[2,4,6,8,10,-1,12,14,16,-1,-1,-1,-1,-1,-1,-1,-1],"split_conditions":[4E0,4.36E0,1.367E3,9.07E1,3.257E3,7.563498E-1,5.145E3,2.297E3,9.98E1,-2.7362113E0,3.4941347E0,2.6722403E0,9.106261E0,-6.3947606E0,-1.7551259E0,-2.3763385E0,-2.9319147E-2],"split_indices":[12,15,23,1,0,0,10,24,4,0,0,0,0,0,0,0,0],"split_type":[0,0,0,0,0,0,0,0,0,0,0,0,0,0,0,0,0],"sum_hessian":[1.8E2,1.26E2,5.4E1,1.1E2,1.6E1,8E0,4.6E1,6.8E1,4.2E1,8E0,8E0,1.4E1,3.2E1,5.8E1,1E1,3.2E1,1E1],"tree_param":{"num_deleted":"0","num_feature":"30","num_nodes":"17","size_leaf_vector":"1"}},{"base_weights":[1.1782648E1,-1.2118104E2,2.7456573E2,-1.670957E2,-5.313124E0,1.3086697E2,3.7277432E2,-6.326996E0,-1.3125473E2,-9.753137E1,4.933377E0,1.5878204E-1,4.3015747E0,1.6988713E2,1.2191372E1,-4.019021E0,1.0714968E0,-3.4102108E0,-9.491695E-2,9.276985E-1,5.7179713E0],"categories":[],"categories_nodes":[],"categories_segments":[],"categories_sizes":[],"default_left":[1,0,0,0,0,0,0,0,0,0,0,0,0,0,0,0,0,0,0,0,0],"id":41,"left_children":[1,3,5,7,9,11,13,-1,15,17,-1,-1,-1,19,-1,-1,-1,-1,-1,-1,-1],"loss_changes":[6.9767645E6,7.0061825E5,6.02126E5,2.435425E4,9.2287394E5,1.431725E5,9.33765E4,0E0,3.2431088E5,9.9445375E4,0E0,0E0,0E0,8.3197E4,0E0,0E0,0E0,0E0,0E0,0E0,0E0],"parents":[2147483647,0,0,1,1,2,2,3,3,4,4,5,5,6,6,8,8,9,9,13,13],"right_children":[2,4,6,8,10,12,14,-1,16,18,-1,-1,-1,20,-1,-1,-1,-1,-1,-1,-1],"split_conditions":[2E0,3.462E3,5.69E1,1.386E3,2.85E0,2.2E1,6.63E3,-6.326996E0,6.449077E1,3.5657734E-1,4.933377E0,1.5878204E-1,4.3015747E0,7.2E-1,1.2191372E1,-4.019021E0,1.0714968E0,-3.4102108E0,-9.491695E-2,9.276985E-1,5.7179713E0],"split_indices":[12,0,3,0,15,12,0,0,28,29,0,0,0,15,0,0,0,0,0,0,0],"split_type":[0,0,0,0,0,0,0,0,0,0,0,0,0,0,0,0,0,0,0,0,0],"sum_hessian":[1.86E2,1.26E2,6E1,8.8E1,3.8E1,3.1E1,2.9E1,1.6E1,7.2E1,2.8E1,1E1,8E0,2.3E1,1.5E1,1.4E1,6.5E1,7E0,1.9E1,9E0,7E0,8E0],"tree_param":{"num_deleted":"0","num_feature":"30","num_nodes":"21","size_leaf_vector":"1"}},{"base_weights":[-5.4365425E0,-1.7031157E2,1.7508641E2,-7.262596E0,-1.1436219E2,7.603088E1,3.2806104E2,-1.3107802E2,-2.9923552E-1,-3.6505578E0,1.2073458E2,1.01295E1,1.9105363E0,-4.010275E0,-1.476629E-1,4.6810045E0,1.5788084E-1],"categories":[],"categories_nodes":[],"categories_segments":[],"categories_sizes":[],"default_left":[0,0,0,0,0,0,0,0,0,0,0,0,0,0,0,0,0],"id":42,"left_children":[1,3,5,-1,7,9,11,13,-1,-1,15,-1,-1,-1,-1,-1,-1],"loss_changes":[6.042133E6,3.9707725E5,1.2936162E6,0E0,1.2855675E5,7.67131E5,3.102455E5,1.7127788E5,0E0,0E0,3.791042E5,0E0,0E0,0E0,0E0,0E0,0E0],"parents":[2147483647,0,0,1,1,2,2,4,4,5,5,6,6,7,7,10,10],"right_children":[2,4,6,-1,8,10,12,14,-1,-1,16,-1,-1,-1,-1,-1,-1],"split_conditions":[9.95E1,3E0,3.100777E3,-7.262596E0,1.3930817E-1,2.3E0,9.75E0,9.93E1,-2.9923552E-1,-3.6505578E0,9.75E0,1.01295E1,1.9105363E0,-4.010275E0,-1.476629E-1,4.6810045E0,1.5788084E-1],"split_indices":[2,13,22,0,27,8,13,2,0,0,13,0,0,0,0,0,0],"split_type":[0,0,0,0,0,0,0,0,0,0,0,0,0,0,0,0,0],"sum_hessian":[1.89E2,9.9E1,9E1,2.5E1,7.4E1,6.1E1,2.9E1,6.2E1,1.2E1,8E0,5.3E1,2.1E1,8E0,5.2E1,1E1,3.3E1,2E1],"tree_param":{"num_deleted":"0","num_feature":"30","num_nodes":"17","size_leaf_vector":"1"}},{"base_weights":[-1.6098442E1,-1.587143E2,2.0212875E2,-6.8266916E0,-1.2263842E2,2.4038701E2,-2.2345243E0,-1.4658536E2,-3.0970572E1,1.5445735E2,9.558355E0,-4.370371E0,-1.2938046E0,-1.5268707E0,6.947175E-1,7.552703E-1,7.4667954E0],"categories":[],"categories_nodes":[],"categories_segments":[],"categories_sizes":[],"default_left":[0,0,0,0,0,0,0,0,0,0,0,0,0,0,0,0,0],"id":43,"left_children":[1,3,5,-1,7,9,-1,11,13,15,-1,-1,-1,-1,-1,-1,-1],"loss_changes":[5.888421E6,1.85722E5,9.650495E5,0E0,1.8042962E5,3.1432475E5,0E0,7.9161625E4,5.514115E4,7.7923075E5,0E0,0E0,0E0,0E0,0E0,0E0,0E0],"parents":[2147483647,0,0,1,1,2,2,4,4,5,5,7,7,8,8,9,9],"right_children":[2,4,6,-1,8,10,-1,12,14,16,-1,-1,-1,-1,-1,-1,-1],"split_conditions":[9.55E2,1.386E3,7.76E1,-6.8266916E0,6.32E1,6.63E3,-2.2345243E0,1.915498E3,1.501E3,2.38E0,9.558355E0,-4.370371E0,-1.2938046E0,-1.5268707E0,6.947175E-1,7.552703E-1,7.4667954E0],"split_indices":[23,0,3,0,6,0,0,22,24,15,0,0,0,0,0,0,0],"split_type":[0,0,0,0,0,0,0,0,0,0,0,0,0,0,0,0,0],"sum_hessian":[1.75E2,1.07E2,6.8E1,1.7E1,9E1,6.1E1,7E0,6.8E1,2.2E1,4.5E1,1.6E1,5.3E1,1.5E1,1.5E1,7E0,2.7E1,1.8E1],"tree_param":{"num_deleted":"0","num_feature":"30","num_nodes":"17","size_leaf_vector":"1"}},{"base_weights":[-1.6381264E1,1.9033223E2,-1.19676384E2,1.5677704E1,2.5379036E2,-1.4975589E2,3.2705386E0,-1.0769598E0,1.8196143E0,2.913974E2,6.491901E-1,-2.1011534E2,-8.166925E1,2.6099524E0,-5.9758892E1,9.502347E0,2.0125911E0,-1.6378763E0,-5.9446497E0,-2.5746267E0,4.2205143E-1,6.163714E-1,-2.81846E0],"categories":[],"categories_nodes":[],"categories_segments":[],"categories_sizes":[],"default_left":[0,0,0,0,0,0,0,0,0,0,0,0,0,0,0,0,0,0,0,0,0,0,0],"id":44,"left_children":[1,3,5,7,9,11,13,-1,-1,15,-1,17,19,-1,21,-1,-1,-1,-1,-1,-1,-1,-1],"loss_changes":[3.9596992E6,6.5816425E5,4.5889075E5,9.15901E4,3.3658125E5,2.855925E5,2.2779648E5,0E0,0E0,3.6212625E5,0E0,5.559E3,9.992672E4,0E0,1.0710474E5,0E0,0E0,0E0,0E0,0E0,0E0,0E0,0E0],"parents":[2147483647,0,0,1,1,2,2,3,3,4,4,5,5,6,6,9,9,11,11,12,12,14,14],"right_children":[2,4,6,8,10,12,14,-1,-1,16,-1,18,20,-1,22,-1,-1,-1,-1,-1,-1,-1,-1],"split_conditions":[1.654E3,4.9E1,2.098973E3,1.593E3,9.75E0,8.39E1,-6.9549163E-3,-1.0769598E0,1.8196143E0,1E2,6.491901E-1,-1.8389519E-1,1.1832183E-1,2.6099524E0,5E0,9.502347E0,2.0125911E0,-1.6378763E0,-5.9446497E0,-2.5746267E0,4.2205143E-1,6.163714E-1,-2.81846E0],"split_indices":[11,6,22,23,13,1,25,0,0,4,0,25,27,0,13,0,0,0,0,0,0,0,0],"split_type":[0,0,0,0,0,0,0,0,0,0,0,0,0,0,0,0,0,0,0,0,0,0,0],"sum_hessian":[1.71E2,5.5E1,1.16E2,1.7E1,3.8E1,9.2E1,2.4E1,9E0,8E0,3.1E1,7E0,4.1E1,5.1E1,8E0,1.6E1,2E1,1.1E1,7E0,3.4E1,4.4E1,7E0,7E0,9E0],"tree_param":{"num_deleted":"0","num_feature":"30","num_nodes":"23","size_leaf_vector":"1"}},{"base_weights":[2.6520183E0,-1.0214033E2,2.45087E2,-1.4934123E2,1.592324E1,1.7078467E-2,2.7913898E2,-1.9315378E2,-5.520515E1,-7.378702E1,8.027666E1,1.3064915E0,3.0841043E2,-7.085394E0,-3.4210165E0,-1.9580696E0,2.7608603E-1,4.568264E-1,-3.29635E0,3.2908907E0,-7.651928E-1,8.956665E0,2.01659E0],"categories":[],"categories_nodes":[],"categories_segments":[],"categories_sizes":[],"default_left":[1,0,0,0,0,0,0,0,0,0,0,0,0,0,0,0,0,0,0,0,0,0,0],"id":45,"left_children":[1,3,5,7,9,-1,11,13,15,17,19,-1,21,-1,-1,-1,-1,-1,-1,-1,-1,-1,-1],"loss_changes":[4.799363E6,7.527579E5,4.7199725E5,3.1617525E5,2.9545616E5,0E0,2.2817075E5,5.161675E4,5.509022E4,1.1732552E5,1.6535386E5,0E0,1.1932075E5,0E0,0E0,0E0,0E0,0E0,0E0,0E0,0E0,0E0,0E0],"parents":[2147483647,0,0,1,1,2,2,3,3,4,4,6,6,7,7,8,8,9,9,10,10,12,12],"right_children":[2,4,6,8,10,-1,12,14,16,18,20,-1,22,-1,-1,-1,-1,-1,-1,-1,-1,-1,-1],"split_conditions":[1E1,2.000775E3,-8.310603E-2,9.07E1,7.850187E-3,1.7078467E-2,2.2750947E-1,1.378E3,1.46018E3,5.320319E3,1.075E1,1.3064915E0,3.82E1,-7.085394E0,-3.4210165E0,-1.9580696E0,2.7608603E-1,4.568264E-1,-3.29635E0,3.2908907E0,-7.651928E-1,8.956665E0,2.01659E0],"split_indices":[12,22,25,1,27,0,29,0,22,21,13,0,8,0,0,0,0,0,0,0,0,0,0],"split_type":[0,0,0,0,0,0,0,0,0,0,0,0,0,0,0,0,0,0,0,0,0,0,0],"sum_hessian":[1.75E2,1.25E2,5E1,8.8E1,3.7E1,7E0,4.3E1,5.5E1,3.3E1,1.5E1,2.2E1,7E0,3.6E1,1.5E1,4E1,2.5E1,8E0,7E0,8E0,1.5E1,7E0,2.9E1,7E0],"tree_param":{"num_deleted":"0","num_feature":"30","num_nodes":"23","size_leaf_vector":"1"}},{"base_weights":[4.8071885E0,-1.3238629E2,1.5849963E2,-2.1875812E2,-8.417814E1,-2.4302466E0,1.8794475E2,-6.7457614E0,-1.6892016E0,-9.9431145E1,1.040441E0,-4.568617E-1,2.1810284E2,-2.9075933E0,2.5756577E-2,2.7570562E0,7.5078955E0],"categories":[],"categories_nodes":[],"categories_segments":[],"categories_sizes":[],"default_left":[0,0,0,0,0,0,0,0,0,0,0,0,0,0,0,0,0],"id":46,"left_children":[1,3,5,7,9,-1,11,-1,-1,13,-1,-1,15,-1,-1,-1,-1],"loss_changes":[4.3850035E6,3.2793262E5,8.4366925E5,8.140925E4,1.8208581E5,0E0,5.8416175E5,0E0,0E0,8.024325E4,0E0,0E0,3.8283925E5,0E0,0E0,0E0,0E0],"parents":[2147483647,0,0,1,1,2,2,3,3,4,4,6,6,9,9,12,12],"right_children":[2,4,6,8,10,-1,12,-1,-1,14,-1,-1,16,-1,-1,-1,-1],"split_conditions":[4.389582E3,3.85904E3,-1.09789E-1,2.480951E3,4.36E0,-2.4302466E0,9.95E1,-6.7457614E0,-1.6892016E0,8.25E1,1.040441E0,-4.568617E-1,5.69E1,-2.9075933E0,2.5756577E-2,2.7570562E0,7.5078955E0],"split_indices":[21,14,25,21,15,0,2,0,0,3,0,0,3,0,0,0,0],"split_type":[0,0,0,0,0,0,0,0,0,0,0,0,0,0,0,0,0],"sum_hessian":[1.94E2,1.03E2,9.1E1,2.8E1,7.5E1,8E0,8.3E1,1.9E1,9E0,6.8E1,7E0,1.1E1,7.2E1,6.1E1,7E0,3.3E1,3.9E1],"tree_param":{"num_deleted":"0","num_feature":"30","num_nodes":"17","size_leaf_vector":"1"}},{"base_weights":[5.4782176E0,-1.1789018E2,2.2090385E2,-1.4496204E2,-6.2934162E1,-1.7181842E0,2.5874652E2,-4.379951E0,-3.259365E1,2.9728937E-1,-7.960966E1,2.985231E2,8.585509E1,-2.3919644E0,1.0908749E0,-2.4881113E0,-1.7253646E-1,3.780632E0,9.960492E0,3.2534907E0,7.514554E-2],"categories":[],"categories_nodes":[],"categories_segments":[],"categories_sizes":[],"default_left":[0,0,0,0,0,0,0,0,0,0,0,0,0,0,0,0,0,0,0,0,0],"id":47,"left_children":[1,3,5,7,9,-1,11,-1,13,-1,15,17,19,-1,-1,-1,-1,-1,-1,-1,-1],"loss_changes":[5.2586345E6,1.22772875E5,8.972165E5,1.4457162E5,7.332795E4,0E0,2.66098E5,0E0,1.1596069E5,0E0,4.2842594E4,2.284925E5,6.4870734E4,0E0,0E0,0E0,0E0,0E0,0E0,0E0,0E0],"parents":[2147483647,0,0,1,1,2,2,3,3,4,4,6,6,8,8,10,10,11,11,12,12],"right_children":[2,4,6,8,10,-1,12,-1,14,-1,16,18,20,-1,-1,-1,-1,-1,-1,-1,-1],"split_conditions":[1.162E3,9.06E1,9.95E1,1.99619E3,8.39E1,-1.7181842E0,1E2,-4.379951E0,7.51E1,2.9728937E-1,8E1,5.69E1,3.000143E3,-2.3919644E0,1.0908749E0,-2.4881113E0,-1.7253646E-1,3.780632E0,9.960492E0,3.2534907E0,7.514554E-2],"split_indices":[23,1,2,22,2,0,4,0,3,0,3,3,22,0,0,0,0,0,0,0,0],"split_type":[0,0,0,0,0,0,0,0,0,0,0,0,0,0,0,0,0,0,0,0,0],"sum_hessian":[1.84E2,1.19E2,6.5E1,7.2E1,4.7E1,7E0,5.8E1,5.8E1,1.4E1,9E0,3.8E1,4.3E1,1.5E1,7E0,7E0,3E1,8E0,2.1E1,2.2E1,8E0,7E0],"tree_param":{"num_deleted":"0","num_feature":"30","num_nodes":"21","size_leaf_vector":"1"}},{"base_weights":[3.4625816E0,-1.1923279E2,2.0557402E2,-5.3110857E0,-7.148136E1,7.466987E1,2.823545E2,-1.0373731E2,-7.2793727E0,-3.770319E0,1.27163185E2,1.8370384E0,8.146729E0,4.2562857E-1,-3.2207246E0,-1.8906431E0,2.6774595E0,-2.0938702E0,1.8006767E0,4.513727E0,6.3682073E-1],"categories":[],"categories_nodes":[],"categories_segments":[],"categories_sizes":[],"default_left":[0,0,0,0,0,0,0,0,0,0,1,0,0,0,0,0,0,0,0,0,0],"id":48,"left_children":[1,3,5,-1,7,9,11,13,15,17,19,-1,-1,-1,-1,-1,-1,-1,-1,-1,-1],"loss_changes":[5.056943E6,3.93099E5,6.2491025E5,0E0,1.8270116E5,1.6031286E5,9.9992E4,1.437645E5,3.1518088E5,1.5689536E5,7.3545625E4,0E0,0E0,0E0,0E0,0E0,0E0,0E0,0E0,0E0,0E0],"parents":[2147483647,0,0,1,1,2,2,4,4,5,5,6,6,7,7,8,8,9,9,10,10],"right_children":[2,4,6,-1,8,10,12,14,16,18,20,-1,-1,-1,-1,-1,-1,-1,-1,-1,-1],"split_conditions":[1.162E3,5.52E2,3E0,-5.3110857E0,9.92E1,9.99E1,3E-1,6.19E2,7.43E1,-5.697521E-2,2.86E2,1.8370384E0,8.146729E0,4.2562857E-1,-3.2207246E0,-1.8906431E0,2.6774595E0,-2.0938702E0,1.8006767E0,4.513727E0,6.3682073E-1],"split_indices":[23,23,16,0,2,4,15,23,3,25,11,0,0,0,0,0,0,0,0,0,0],"split_type":[0,0,0,0,0,0,0,0,0,0,0,0,0,0,0,0,0,0,0,0,0],"sum_hessian":[1.9E2,1.2E2,7E1,3.6E1,8.4E1,3.1E1,3.9E1,5.3E1,3.1E1,1.5E1,1.6E1,7E0,3.2E1,7E0,4.6E1,2.1E1,1E1,7E0,8E0,8E0,8E0],"tree_param":{"num_deleted":"0","num_feature":"30","num_nodes":"21","size_leaf_vector":"1"}},{"base_weights":[1.025616E1,-9.734891E1,2.1542683E2,-1.3087943E2,1.7015234E1,9.52432E1,2.968589E2,-6.167977E0,-9.1364716E1,4.6289773E0,-6.8656685E1,-6.535332E-1,1.3713422E2,9.514547E0,1.2931789E0,-2.8054929E0,1.0342423E0,-3.9481747E0,7.547718E-1,4.5742593E0,1.2113935E0],"categories":[],"categories_nodes":[],"categories_segments":[],"categories_sizes":[],"default_left":[1,0,0,0,0,0,0,0,0,0,0,0,0,0,0,0,0,0,0,0,0],"id":49,"left_children":[1,3,5,7,9,11,13,-1,15,-1,17,-1,19,-1,-1,-1,-1,-1,-1,-1,-1],"loss_changes":[4.5625725E6,5.375489E5,4.9541175E5,2.7815362E5,5.852518E5,2.2011525E5,4.8312575E5,0E0,1.9809538E5,0E0,2.5747656E5,0E0,4.1785188E4,0E0,0E0,0E0,0E0,0E0,0E0,0E0,0E0],"parents":[2147483647,0,0,1,1,2,2,3,3,4,4,5,5,6,6,8,8,10,10,12,12],"right_children":[2,4,6,8,10,12,14,-1,16,-1,18,-1,20,-1,-1,-1,-1,-1,-1,-1,-1],"split_conditions":[2E0,2.098973E3,5.66E1,1.371E3,3.82339E3,1.7E1,1E2,-6.167977E0,5.32E1,4.6289773E0,3.1542072E-1,-6.535332E-1,3.9E1,9.514547E0,1.2931789E0,-2.8054929E0,1.0342423E0,-3.9481747E0,7.547718E-1,4.5742593E0,1.2113935E0],"split_indices":[12,22,3,0,14,12,4,0,9,0,29,0,12,0,0,0,0,0,0,0,0],"split_type":[0,0,0,0,0,0,0,0,0,0,0,0,0,0,0,0,0,0,0,0,0],"sum_hessian":[1.93E2,1.29E2,6.4E1,9.9E1,3E1,3.2E1,3.2E1,1.8E1,8.1E1,8E0,2.2E1,9E0,2.3E1,2.3E1,9E0,7.4E1,7E0,1E1,1.2E1,1.2E1,1.1E1],"tree_param":{"num_deleted":"0","num_feature":"30","num_nodes":"21","size_leaf_vector":"1"}},{"base_weights":[-1.939742E1,-1.1385373E2,1.8535674E2,-5.6956043E0,-8.133788E1,4.52563E1,7.343622E0,-8.914141E1,2.7639502E-1,1.0157923E2,-1.8373011E0,-1.692054E0,-3.983922E0,3.6583629E0,8.671166E-2],"categories":[],"categories_nodes":[],"categories_segments":[],"categories_sizes":[],"default_left":[0,0,0,0,0,0,0,0,0,0,0,0,0,0,0],"id":50,"left_children":[1,3,5,-1,7,9,-1,11,-1,13,-1,-1,-1,-1,-1],"loss_changes":[3.7832255E6,3.15106E5,7.12331E5,0E0,8.705994E4,2.6268822E5,0E0,9.2632625E4,0E0,8.650142E4,0E0,0E0,0E0,0E0,0E0],"parents":[2147483647,0,0,1,1,2,2,4,4,5,5,7,7,9,9],"right_children":[2,4,6,-1,8,10,-1,12,-1,14,-1,-1,-1,-1,-1],"split_conditions":[1.162E3,3.88E2,8.2E-1,-5.6956043E0,6.704E3,2E0,7.343622E0,1.6886994E-1,2.7639502E-1,4.7E-1,-1.8373011E0,-1.692054E0,-3.983922E0,3.6583629E0,8.671166E-2],"split_indices":[23,23,15,0,0,7,0,26,0,15,0,0,0,0,0],"split_type":[0,0,0,0,0,0,0,0,0,0,0,0,0,0,0],"sum_hessian":[1.81E2,1.26E2,5.5E1,2.1E1,1.05E2,2.6E1,2.9E1,9.7E1,8E0,1.8E1,8E0,7.9E1,1.8E1,1.1E1,7E0],"tree_param":{"num_deleted":"0","num_feature":"30","num_nodes":"15","size_leaf_vector":"1"}},{"base_weights":[-1.0072033E1,-1.4513695E2,1.845694E2,-6.4848847E0,-1.0731266E2,-1.3839972E0,2.324863E2,-1.26755844E2,-2.6218874E0,1.12956406E2,2.9895993E2,-3.7159536E0,3.3984834E-1,8.55316E-1,-1.0992914E0,3.9587048E-1,4.4404387E0,3.6457753E0,1.0618023E1],"categories":[],"categories_nodes":[],"categories_segments":[],"categories_sizes":[],"default_left":[0,0,0,0,0,0,0,0,0,0,0,0,0,0,0,0,0,0,0],"id":51,"left_children":[1,3,5,-1,7,-1,9,11,13,15,17,-1,-1,-1,-1,-1,-1,-1,-1],"loss_changes":[5.4449555E6,2.76113E5,1.0506485E6,0E0,2.027195E5,0E0,3.3411325E5,1.7612738E5,4.0743305E4,1.8078038E5,3.0411375E5,0E0,0E0,0E0,0E0,0E0,0E0,0E0,0E0],"parents":[2147483647,0,0,1,1,2,2,4,4,6,6,7,7,8,8,9,9,10,10],"right_children":[2,4,6,-1,8,-1,10,12,14,16,18,-1,-1,-1,-1,-1,-1,-1,-1],"split_conditions":[9.55E2,3.88E2,9.95E1,-6.4848847E0,6.46E1,-1.3839972E0,5.69E1,5.22145E3,4E0,3E0,6.040306E3,-3.7159536E0,3.3984834E-1,8.55316E-1,-1.0992914E0,3.9587048E-1,4.4404387E0,3.6457753E0,1.0618023E1],"split_indices":[23,23,2,0,6,0,3,21,16,16,21,0,0,0,0,0,0,0,0],"split_type":[0,0,0,0,0,0,0,0,0,0,0,0,0,0,0,0,0,0,0],"sum_hessian":[1.93E2,1.15E2,7.8E1,2.1E1,9.4E1,1.3E1,6.5E1,7.8E1,1.6E1,3E1,3.5E1,7.1E1,7E0,9E0,7E0,1.4E1,1.6E1,2E1,1.5E1],"tree_param":{"num_deleted":"0","num_feature":"30","num_nodes":"19","size_leaf_vector":"1"}},{"base_weights":[4.215602E0,-9.226617E1,2.1545244E2,-1.4009073E2,2.2529503E1,5.6422962E1,2.9902237E2,-1.7510014E2,-5.338068E1,-7.911976E1,8.971182E1,2.9884734E0,-5.2728977E0,3.2055194E0,9.394481E0,-6.134399E0,-3.0424628E0,-1.906689E0,9.564625E-2,-2.9057095E0,-1.6779599E-1,-1.5075518E0,4.728583E0,7.8161836E-1,-9.9864554E-1],"categories":[],"categories_nodes":[],"categories_segments":[],"categories_sizes":[],"default_left":[1,0,0,0,0,0,0,0,0,0,0,0,0,0,0,0,0,0,0,0,0,0,0,0,0],"id":52,"left_children":[1,3,5,7,9,11,13,15,17,19,21,-1,23,-1,-1,-1,-1,-1,-1,-1,-1,-1,-1,-1,-1],"loss_changes":[4.0321538E6,7.6918625E5,7.0443175E5,2.2811638E5,3.638016E5,1.092884E5,8.634775E4,3.7229625E4,4.2616938E4,4.384761E4,4.767818E5,0E0,3.1588816E4,0E0,0E0,0E0,0E0,0E0,0E0,0E0,0E0,0E0,0E0,0E0,0E0],"parents":[2147483647,0,0,1,1,2,2,3,3,4,4,5,5,6,6,7,7,8,8,9,9,10,10,12,12],"right_children":[2,4,6,8,10,12,14,16,18,20,22,-1,24,-1,-1,-1,-1,-1,-1,-1,-1,-1,-1,-1,-1],"split_conditions":[6E0,3.951E3,5.44E1,9.06E1,3E0,-4.269965E-2,5.703E3,1.548E3,4E0,7.2413795E-2,7.36E1,2.9884734E0,5.863E3,3.2055194E0,9.394481E0,-6.134399E0,-3.0424628E0,-1.906689E0,9.564625E-2,-2.9057095E0,-1.6779599E-1,-1.5075518E0,4.728583E0,7.8161836E-1,-9.9864554E-1],"split_indices":[12,0,3,1,16,26,0,0,17,26,3,0,0,0,0,0,0,0,0,0,0,0,0,0,0],"split_type":[0,0,0,0,0,0,0,0,0,0,0,0,0,0,0,0,0,0,0,0,0,0,0,0,0],"sum_hessian":[1.84E2,1.29E2,5.5E1,9E1,3.9E1,2.3E1,3.2E1,5.9E1,3.1E1,1.5E1,2.4E1,9E0,1.4E1,1.3E1,1.9E1,2E1,3.9E1,2.2E1,9E0,8E0,7E0,1E1,1.4E1,7E0,7E0],"tree_param":{"num_deleted":"0","num_feature":"30","num_nodes":"25","size_leaf_vector":"1"}},{"base_weights":[1.6207203E1,-1.1698324E2,1.6827403E2,-1.7103954E2,-6.3579643E1,1.9211273E2,-1.19212E0,-5.7397923E0,-5.9711567E1,-9.0229866E1,2.2137934E1,2.2666286E1,2.4175067E2,-2.2048662E0,-2.954174E-1,-3.3995051E0,1.8827835E-1,-5.7279164E-1,1.4590079E0,3.0556495E0,-3.2014391E0,1.0644062E0,7.226035E0],"categories":[],"categories_nodes":[],"categories_segments":[],"categories_sizes":[],"default_left":[0,0,0,0,0,0,0,0,0,0,0,0,0,0,0,0,0,0,0,0,0,0,0],"id":53,"left_children":[1,3,5,7,9,11,-1,-1,13,15,17,19,21,-1,-1,-1,-1,-1,-1,-1,-1,-1,-1],"loss_changes":[4.0468192E6,2.3183288E5,5.3414075E5,1.589425E5,1.6272962E5,6.7547025E5,0E0,0E0,2.0642633E4,1.9701769E5,3.8858742E4,4.5803212E5,3.336615E5,0E0,0E0,0E0,0E0,0E0,0E0,0E0,0E0,0E0,0E0],"parents":[2147483647,0,0,1,1,2,2,3,3,4,4,5,5,8,8,9,9,10,10,11,11,12,12],"right_children":[2,4,6,8,10,12,-1,-1,14,16,18,20,22,-1,-1,-1,-1,-1,-1,-1,-1,-1,-1],"split_conditions":[9.53E2,1.185278E3,1.075E1,1.3E1,5.9674297E1,2E0,-1.19212E0,-5.7397923E0,9.49868E2,4E0,1.475082E3,6.48E1,3E-1,-2.2048662E0,-2.954174E-1,-3.3995051E0,1.8827835E-1,-5.7279164E-1,1.4590079E0,3.0556495E0,-3.2014391E0,1.0644062E0,7.226035E0],"split_indices":[23,22,13,13,28,16,0,0,22,16,22,3,15,0,0,0,0,0,0,0,0,0,0],"split_type":[0,0,0,0,0,0,0,0,0,0,0,0,0,0,0,0,0,0,0,0,0,0,0],"sum_hessian":[1.86E2,1E2,8.6E1,4.2E1,5.8E1,7.8E1,8E0,2.5E1,1.7E1,4.4E1,1.4E1,2E1,5.8E1,8E0,9E0,3E1,1.4E1,7E0,7E0,1.3E1,7E0,1E1,4.8E1],"tree_param":{"num_deleted":"0","num_feature":"30","num_nodes":"23","size_leaf_vector":"1"}},{"base_weights":[-4.317344E0,-1.44156E2,1.343836E2,-1.6087218E2,6.532386E-2,7.810471E1,7.2317348E0,-5.319795E0,-1.0689959E2,7.144014E0,1.427156E2,-3.6627584E0,-1.0698065E0,1.7525697E0,-1.9033633E0,6.492724E-1,5.1716876E0],"categories":[],"categories_nodes":[],"categories_segments":[],"categories_sizes":[],"default_left":[0,0,0,0,0,1,0,0,0,0,0,0,0,0,0,0,0],"id":54,"left_children":[1,3,5,7,-1,9,-1,-1,11,13,15,-1,-1,-1,-1,-1,-1],"loss_changes":[3.8594538E6,2.4607338E5,6.31569E5,4.168275E4,0E0,3.635995E5,0E0,0E0,7.129431E4,2.4842456E5,2.2759888E5,0E0,0E0,0E0,0E0,0E0,0E0],"parents":[2147483647,0,0,1,1,2,2,3,3,5,5,8,8,9,9,10,10],"right_children":[2,4,6,8,-1,10,-1,-1,12,14,16,-1,-1,-1,-1,-1,-1],"split_conditions":[2.000775E3,3.951E3,6.829188E3,8.68E1,6.532386E-2,2.3E1,7.2317348E0,-5.319795E0,6.32E1,2.47332E-2,-3.1922724E-2,-3.6627584E0,-1.0698065E0,1.7525697E0,-1.9033633E0,6.492724E-1,5.1716876E0],"split_indices":[22,0,21,1,0,12,0,0,6,25,25,0,0,0,0,0,0],"split_type":[0,0,0,0,0,0,0,0,0,0,0,0,0,0,0,0,0],"sum_hessian":[1.85E2,9.2E1,9.3E1,8.2E1,1E1,7.4E1,1.9E1,3.6E1,4.6E1,3.9E1,3.5E1,2.6E1,2E1,2.3E1,1.6E1,1.4E1,2.1E1],"tree_param":{"num_deleted":"0","num_feature":"30","num_nodes":"17","size_leaf_vector":"1"}},{"base_weights":[-3.7354906E0,-1.1048661E2,1.7850722E2,-5.5892925E0,-6.57526E1,6.70218E-2,2.1040717E2,-3.318702E0,-1.2761071E2,1.18124954E2,8.783479E0,1.0830703E0,-1.5435325E0,-1.4352773E0,-3.890824E0,-0E0,4.0194206E0],"categories":[],"categories_nodes":[],"categories_segments":[],"categories_sizes":[],"default_left":[0,0,0,0,0,0,0,0,0,0,0,0,0,0,0,0,0],"id":55,"left_children":[1,3,5,-1,7,-1,9,11,13,15,-1,-1,-1,-1,-1,-1,-1],"loss_changes":[3.736702E6,4.4741075E5,3.939265E5,0E0,3.5951112E5,0E0,3.9737725E5,1.4834088E5,1.05139375E4,1.8030606E5,0E0,0E0,0E0,0E0,0E0,0E0,0E0],"parents":[2147483647,0,0,1,1,2,2,4,4,6,6,7,7,8,8,9,9],"right_children":[2,4,6,-1,8,-1,10,12,14,16,-1,-1,-1,-1,-1,-1,-1],"split_conditions":[1.186E3,3E0,8.4E1,-5.5892925E0,4.15159E3,6.70218E-2,1.938E3,9.4E1,5.65E2,-5.697521E-2,8.783479E0,1.0830703E0,-1.5435325E0,-1.4352773E0,-3.890824E0,-0E0,4.0194206E0],"split_indices":[23,13,1,0,14,0,23,1,23,25,0,0,0,0,0,0,0],"split_type":[0,0,0,0,0,0,0,0,0,0,0,0,0,0,0,0,0],"sum_hessian":[1.78E2,1.14E2,6.4E1,2.7E1,8.7E1,1.1E1,5.3E1,4.7E1,4E1,3.8E1,1.5E1,2.7E1,2E1,1.4E1,2.6E1,1E1,2.8E1],"tree_param":{"num_deleted":"0","num_feature":"30","num_nodes":"17","size_leaf_vector":"1"}},{"base_weights":[2.369147E1,-9.541314E1,1.5873665E2,-0E0,-1.10906235E2,8.068903E1,2.95247E2,8.248449E-1,-8.313625E-1,-4.111576E0,-5.07156E1,-3.928242E1,1.2899449E2,9.167176E0,1.7639319E0,-2.3586857E0,1.922462E0,-2.2723014E0,5.647452E-1,4.0148315E0,-5.1851116E-2],"categories":[],"categories_nodes":[],"categories_segments":[],"categories_sizes":[],"default_left":[0,0,0,0,0,0,0,0,0,0,0,0,0,0,0,0,0,0,0,0,0],"id":56,"left_children":[1,3,5,7,9,11,13,-1,-1,-1,15,17,19,-1,-1,-1,-1,-1,-1,-1,-1],"loss_changes":[3.0013485E6,1.4743525E5,7.5867025E5,2.7437613E4,1.7455275E5,4.1248425E5,1.7683975E5,0E0,0E0,0E0,2.6844734E5,8.093834E4,1.4597762E5,0E0,0E0,0E0,0E0,0E0,0E0,0E0,0E0],"parents":[2147483647,0,0,1,1,2,2,3,3,4,4,5,5,6,6,10,10,11,11,12,12],"right_children":[2,4,6,8,10,12,14,-1,-1,-1,16,18,20,-1,-1,-1,-1,-1,-1,-1,-1],"split_conditions":[9.95E1,8.39E1,6.738332E3,1.655E3,3E0,1.162E3,3.77E1,8.248449E-1,-8.313625E-1,-4.111576E0,1.581E3,4.82E1,3.573E3,9.167176E0,1.7639319E0,-2.3586857E0,1.922462E0,-2.2723014E0,5.647452E-1,4.0148315E0,-5.1851116E-2],"split_indices":[2,2,21,24,17,23,8,0,0,0,24,6,24,0,0,0,0,0,0,0,0],"split_type":[0,0,0,0,0,0,0,0,0,0,0,0,0,0,0,0,0,0,0,0,0],"sum_hessian":[1.73E2,9.3E1,8E1,1.4E1,7.9E1,5.8E1,2.2E1,7E0,7E0,3.9E1,4E1,1.7E1,4.1E1,1.5E1,7E0,3.2E1,8E0,8E0,9E0,3.4E1,7E0],"tree_param":{"num_deleted":"0","num_feature":"30","num_nodes":"21","size_leaf_vector":"1"}},{"base_weights":[1.0716467E1,-9.041728E1,2.2236049E2,-1.17720184E2,9.959489E0,1.7155737E-1,2.6315524E2,-1.5149435E2,-4.3033905E1,3.2939315E0,-7.187711E1,1.4001978E2,1.0089164E1,-4.403032E0,-7.228164E-2,6.609356E-1,-1.6552268E0,1.0710813E-2,-2.6153674E0,4.8663626E0,6.8126243E-1],"categories":[],"categories_nodes":[],"categories_segments":[],"categories_sizes":[],"default_left":[1,0,0,0,0,0,0,0,0,0,0,0,0,0,0,0,0,0,0,0,0],"id":57,"left_children":[1,3,5,7,9,-1,11,13,15,-1,17,19,-1,-1,-1,-1,-1,-1,-1,-1,-1],"loss_changes":[4.50758E6,4.0053675E5,5.85751E5,2.3861788E5,4.097217E5,0E0,4.54399E5,1.6316262E5,7.0918375E4,0E0,5.1425703E4,1.6187894E5,0E0,0E0,0E0,0E0,0E0,0E0,0E0,0E0,0E0],"parents":[2147483647,0,0,1,1,2,2,3,3,4,4,6,6,7,7,8,8,10,10,11,11],"right_children":[2,4,6,8,10,-1,12,14,16,-1,18,20,-1,-1,-1,-1,-1,-1,-1,-1,-1],"split_conditions":[2E0,9.95E1,1.26E3,9.07E1,9.96E1,1.7155737E-1,6.402E3,5.461E3,8.39E1,3.2939315E0,3.397E3,3.254E3,1.0089164E1,-4.403032E0,-7.228164E-2,6.609356E-1,-1.6552268E0,1.0710813E-2,-2.6153674E0,4.8663626E0,6.8126243E-1],"split_indices":[12,2,23,1,2,0,0,0,2,0,0,24,0,0,0,0,0,0,0,0,0],"split_type":[0,0,0,0,0,0,0,0,0,0,0,0,0,0,0,0,0,0,0,0,0],"sum_hessian":[1.97E2,1.36E2,6.1E1,1.06E2,3E1,1.1E1,5E1,6.8E1,3.8E1,1.1E1,1.9E1,3.2E1,1.8E1,6.1E1,7E0,8E0,3E1,7E0,1.2E1,2E1,1.2E1],"tree_param":{"num_deleted":"0","num_feature":"30","num_nodes":"21","size_leaf_vector":"1"}},{"base_weights":[1.1879539E1,-9.383667E1,1.7151848E2,-1.08525154E2,1.7209634E0,9.415099E1,7.71957E0,-5.167345E0,-7.9465385E1,2.0772512E1,1.6744243E2,-2.8547266E0,-1.470571E-1,1.518328E0,-8.710917E-1,1.1363423E0,5.178446E0],"categories":[],"categories_nodes":[],"categories_segments":[],"categories_sizes":[],"default_left":[0,0,0,0,0,0,0,0,0,0,1,0,0,0,0,0,0],"id":58,"left_children":[1,3,5,7,-1,9,-1,-1,11,13,15,-1,-1,-1,-1,-1,-1],"loss_changes":[3.1843422E6,3.1564412E5,5.0440975E5,1.6026788E5,0E0,2.760356E5,0E0,0E0,1.8886238E5,8.4141414E4,3.5411188E4,0E0,0E0,0E0,0E0,0E0,0E0],"parents":[2147483647,0,0,1,1,2,2,3,3,5,5,8,8,9,9,10,10],"right_children":[2,4,6,8,-1,10,-1,-1,12,14,16,-1,-1,-1,-1,-1,-1],"split_conditions":[1.162E3,5.743902E3,6.641E3,1.378E3,1.7209634E0,3E0,7.71957E0,-5.167345E0,6.16E1,6.056282E3,4.707E3,-2.8547266E0,-1.470571E-1,1.518328E0,-8.710917E-1,1.1363423E0,5.178446E0],"split_indices":[23,21,0,0,0,16,0,0,6,21,10,0,0,0,0,0,0],"split_type":[0,0,0,0,0,0,0,0,0,0,0,0,0,0,0,0,0],"sum_hessian":[1.75E2,1.07E2,6.8E1,1E2,7E0,4.9E1,1.9E1,1.5E1,8.5E1,2.9E1,2E1,5.9E1,2.6E1,1.7E1,1.2E1,7E0,1.3E1],"tree_param":{"num_deleted":"0","num_feature":"30","num_nodes":"17","size_leaf_vector":"1"}},{"base_weights":[-9.3860035E0,-1.00752335E2,1.5468E2,-1.1464059E2,1.657515E0,-1.550945E0,1.8273398E2,-4.4329753E0,-6.9479774E1,2.1492361E2,7.9516995E-1,-2.1663685E0,-8.82169E-2,3.122127E0,7.8821874E0],"categories":[],"categories_nodes":[],"categories_segments":[],"categories_sizes":[],"default_left":[0,0,0,0,0,0,0,0,0,0,0,0,0,0,0],"id":59,"left_children":[1,3,5,7,-1,-1,9,-1,11,13,-1,-1,-1,-1,-1],"loss_changes":[3.1367302E6,3.545865E5,5.2427112E5,2.18899E5,0E0,0E0,2.879465E5,0E0,6.348097E4,1.9488075E5,0E0,0E0,0E0,0E0,0E0],"parents":[2147483647,0,0,1,1,2,2,3,3,6,6,8,8,9,9],"right_children":[2,4,6,8,-1,-1,10,-1,12,14,-1,-1,-1,-1,-1],"split_conditions":[1.146E3,2.694911E3,9.95E1,1.025E1,1.657515E0,-1.550945E0,1E2,-4.4329753E0,6.52E1,3.282608E3,7.9516995E-1,-2.1663685E0,-8.82169E-2,3.122127E0,7.8821874E0],"split_indices":[23,22,2,13,0,0,4,0,6,22,0,0,0,0,0],"split_type":[0,0,0,0,0,0,0,0,0,0,0,0,0,0,0],"sum_hessian":[1.95E2,1.27E2,6.8E1,1.19E2,8E0,7E0,6.1E1,4.6E1,7.3E1,4.8E1,1.3E1,6E1,1.3E1,3E1,1.8E1],"tree_param":{"num_deleted":"0","num_feature":"30","num_nodes":"15","size_leaf_vector":"1"}},{"base_weights":[8.383672E0,-8.661555E1,1.8072246E2,-4.41676E0,-6.3841232E1,1.24368095E2,8.3310795E0,1.7906642E0,-7.679098E1,-3.2905018E-1,1.5834877E2,-2.285726E0,4.2616308E-1,6.2834924E-1,5.054766E0],"categories":[],"categories_nodes":[],"categories_segments":[],"categories_sizes":[],"default_left":[0,0,0,0,0,0,0,0,0,0,0,0,0,0,0],"id":60,"left_children":[1,3,5,-1,7,9,-1,-1,11,-1,13,-1,-1,-1,-1],"loss_changes":[3.3678542E6,1.6790438E5,2.76422E5,0E0,2.3229203E5,3.0723938E5,0E0,0E0,1.06613125E5,0E0,1.9219712E5,0E0,0E0,0E0,0E0],"parents":[2147483647,0,0,1,1,2,2,4,4,5,5,8,8,10,10],"right_children":[2,4,6,-1,8,10,-1,-1,12,-1,14,-1,-1,-1,-1],"split_conditions":[1.162E3,4.01E2,3.54E0,-4.41676E0,-1.9497006E-1,8.4E1,8.3310795E0,1.7906642E0,6.4621414E1,-3.2905018E-1,4.7597553E1,-2.285726E0,4.2616308E-1,6.2834924E-1,5.054766E0],"split_indices":[23,23,15,0,27,1,0,0,28,0,28,0,0,0,0],"split_type":[0,0,0,0,0,0,0,0,0,0,0,0,0,0,0],"sum_hessian":[1.92E2,1.26E2,6.6E1,1.8E1,1.08E2,5.6E1,1E1,7E0,1.01E2,1.2E1,4.4E1,9.2E1,9E0,1.1E1,3.3E1],"tree_param":{"num_deleted":"0","num_feature":"30","num_nodes":"15","size_leaf_vector":"1"}},{"base_weights":[-1.3242388E1,-1.1805878E2,1.0752117E2,-1.5300917E2,-5.6894577E1,2.720884E1,1.7239766E2,-5.070779E0,-2.2404993E0,-8.644079E1,1.1113337E1,3.741532E0,-2.735951E1,8.268211E1,6.9906673E0,2.9009452E-1,-3.0069497E0,1.9273744E0,-1.4786041E0,-2.6480548E0,9.471111E-1,-1.4958005E-1,3.1679356E0],"categories":[],"categories_nodes":[],"categories_segments":[],"categories_sizes":[],"default_left":[0,0,0,0,0,0,0,0,0,0,0,0,0,0,0,0,0,0,0,0,0,0,0],"id":61,"left_children":[1,3,5,7,9,11,13,-1,-1,15,17,-1,19,21,-1,-1,-1,-1,-1,-1,-1,-1,-1],"loss_changes":[2.4684885E6,1.6054762E5,4.40483E5,4.914325E4,1.0548142E5,3.3300047E5,2.4966375E5,0E0,0E0,1.0201789E5,1.1545771E5,0E0,2.0456044E5,1.1986742E5,0E0,0E0,0E0,0E0,0E0,0E0,0E0,0E0,0E0],"parents":[2147483647,0,0,1,1,2,2,3,3,4,4,5,5,6,6,9,9,10,10,12,12,13,13],"right_children":[2,4,6,8,10,12,14,-1,-1,16,18,-1,20,22,-1,-1,-1,-1,-1,-1,-1,-1,-1],"split_conditions":[2.000775E3,1.298211E3,3E0,3.99876E3,1.563E3,3.82898E3,3.13E3,-5.070779E0,-2.2404993E0,1.356198E3,1.706143E3,3.741532E0,9.43E1,4.38E1,6.9906673E0,2.9009452E-1,-3.0069497E0,1.9273744E0,-1.4786041E0,-2.6480548E0,9.471111E-1,-1.4958005E-1,3.1679356E0],"split_indices":[22,22,16,14,24,14,24,0,0,22,22,0,1,6,0,0,0,0,0,0,0,0,0],"split_type":[0,0,0,0,0,0,0,0,0,0,0,0,0,0,0,0,0,0,0,0,0,0,0],"sum_hessian":[1.81E2,9.7E1,8.4E1,5.5E1,4.2E1,4.2E1,4.2E1,2.7E1,2.8E1,2.8E1,1.4E1,1E1,3.2E1,2.8E1,1.4E1,7E0,2.1E1,7E0,7E0,1.3E1,1.9E1,1E1,1.8E1],"tree_param":{"num_deleted":"0","num_feature":"30","num_nodes":"23","size_leaf_vector":"1"}},{"base_weights":[7.15164E-1,-1.1760537E2,1.3348811E2,-1.5318369E2,-3.3452656E1,6.7442865E0,7.059605E1,-4.6217136E0,-1.2033751E0,-2.003915E0,1.1283805E1,-2.8028477E1,1.31189E2,1.0707424E0,-4.99371E-1,-2.1579087E0,1.612526E0,4.77422E0,-8.943598E-1],"categories":[],"categories_nodes":[],"categories_segments":[],"categories_sizes":[],"default_left":[0,0,0,0,0,0,0,0,0,0,0,0,0,0,0,0,0,0,0],"id":62,"left_children":[1,3,5,7,9,-1,11,-1,-1,-1,13,15,17,-1,-1,-1,-1,-1,-1],"loss_changes":[3.000412E6,2.657635E5,5.6039825E5,1.0360275E5,8.005742E4,0E0,4.3846175E5,0E0,0E0,0E0,2.7449918E4,1.8737602E5,4.012737E5,0E0,0E0,0E0,0E0,0E0,0E0],"parents":[2147483647,0,0,1,1,2,2,3,3,4,4,6,6,10,10,11,11,12,12],"right_children":[2,4,6,8,10,-1,12,-1,-1,-1,14,16,18,-1,-1,-1,-1,-1,-1],"split_conditions":[2.098973E3,2.96E1,3.82898E3,4.63427E3,1.247937E3,6.7442865E0,3.49E1,-4.6217136E0,-1.2033751E0,-2.003915E0,8.54E1,4.033418E-1,9.75E0,1.0707424E0,-4.99371E-1,-2.1579087E0,1.612526E0,4.77422E0,-8.943598E-1],"split_indices":[22,8,14,14,22,0,8,0,0,0,2,29,13,0,0,0,0,0,0],"split_type":[0,0,0,0,0,0,0,0,0,0,0,0,0,0,0,0,0,0,0],"sum_hessian":[1.77E2,9.4E1,8.3E1,6.2E1,3.2E1,2.1E1,6.2E1,4.8E1,1.4E1,1.4E1,1.8E1,2.5E1,3.7E1,8E0,1E1,1.6E1,9E0,2.8E1,9E0],"tree_param":{"num_deleted":"0","num_feature":"30","num_nodes":"19","size_leaf_vector":"1"}},{"base_weights":[7.039327E-1,-1.1870048E2,1.4819565E2,-1.346631E2,-2.0633604E1,6.0240734E1,2.4579532E2,-9.71815E1,-4.989367E0,9.7644776E-1,-1.6457765E0,-1.9227107E0,1.06173836E2,7.5495343E0,9.222611E-1,-3.0084245E0,1.3492692E-1,2.734428E-1,4.3881817E0],"categories":[],"categories_nodes":[],"categories_segments":[],"categories_sizes":[],"default_left":[0,0,0,0,0,0,0,0,0,0,0,0,0,0,0,0,0,0,0],"id":63,"left_children":[1,3,5,7,9,11,13,15,-1,-1,-1,-1,17,-1,-1,-1,-1,-1,-1],"loss_changes":[3.34594E6,1.4428175E5,6.247881E5,5.0614125E4,7.121228E4,3.83828E5,2.4668525E5,1.1797906E5,0E0,0E0,0E0,0E0,2.3339922E5,0E0,0E0,0E0,0E0,0E0,0E0],"parents":[2147483647,0,0,1,1,2,2,3,3,4,4,5,5,6,6,7,7,12,12],"right_children":[2,4,6,8,10,12,14,16,-1,-1,-1,-1,18,-1,-1,-1,-1,-1,-1],"split_conditions":[4.984E3,3.25E1,3.054355E3,8.2E1,9.99E1,2.3E0,1E2,1.16691284E-1,-4.989367E0,9.7644776E-1,-1.6457765E0,-1.9227107E0,2.647E3,7.5495343E0,9.222611E-1,-3.0084245E0,1.3492692E-1,2.734428E-1,4.3881817E0],"split_indices":[0,8,22,3,5,8,4,27,0,0,0,0,24,0,0,0,0,0,0],"split_type":[0,0,0,0,0,0,0,0,0,0,0,0,0,0,0,0,0,0,0],"sum_hessian":[1.76E2,9.8E1,7.8E1,8.2E1,1.6E1,4.7E1,3.1E1,6E1,2.2E1,7E0,9E0,1.1E1,3.6E1,2.4E1,7E0,5.1E1,9E0,1.7E1,1.9E1],"tree_param":{"num_deleted":"0","num_feature":"30","num_nodes":"19","size_leaf_vector":"1"}},{"base_weights":[2.218106E1,-8.890087E1,1.6490343E2,-4.9600015E0,-5.7443558E1,1.884386E2,-1.1908454E0,-7.388407E1,7.246671E-1,1.1188666E2,8.282884E0,2.9451874E-1,-2.3893921E0,1.0729103E0,3.981639E0],"categories":[],"categories_nodes":[],"categories_segments":[],"categories_sizes":[],"default_left":[0,0,0,0,0,0,0,0,0,0,0,0,0,0,0],"id":64,"left_children":[1,3,5,-1,7,9,-1,11,-1,13,-1,-1,-1,-1,-1],"loss_changes":[3.0199078E6,2.5868269E5,4.6999325E5,0E0,1.4267103E5,4.78686E5,0E0,1.1786156E5,0E0,1.1636106E5,0E0,0E0,0E0,0E0,0E0],"parents":[2147483647,0,0,1,1,2,2,4,4,5,5,7,7,9,9],"right_children":[2,4,6,-1,8,10,-1,12,-1,14,-1,-1,-1,-1,-1],"split_conditions":[4.770693E3,1.386E3,3.1088703E0,-4.9600015E0,9.95E1,6.829188E3,-1.1908454E0,1E0,7.246671E-1,3.6E1,8.282884E0,2.9451874E-1,-2.3893921E0,1.0729103E0,3.981639E0],"split_indices":[21,0,29,0,2,21,0,7,0,8,0,0,0,0,0],"split_type":[0,0,0,0,0,0,0,0,0,0,0,0,0,0,0],"sum_hessian":[1.77E2,1.01E2,7.6E1,1.6E1,8.5E1,6.9E1,7E0,7.2E1,1.3E1,5.1E1,1.8E1,1.2E1,6E1,2.3E1,2.8E1],"tree_param":{"num_deleted":"0","num_feature":"30","num_nodes":"15","size_leaf_vector":"1"}},{"base_weights":[5.561732E0,-9.345759E1,1.2487427E2,-5.0467286E0,-4.5657017E1,1.6229901E2,-4.395761E1,1.171414E0,-6.972301E1,-1.0224762E0,1.866665E2,-1.9945457E0,1.4883503E-1,-9.530763E-1,1.1080945E0,-2.1302924E0,-7.9844154E-2,2.510552E0,6.255053E0],"categories":[],"categories_nodes":[],"categories_segments":[],"categories_sizes":[],"default_left":[0,0,0,0,0,0,0,0,0,0,0,0,0,0,0,0,0,0,0],"id":65,"left_children":[1,3,5,-1,7,9,11,13,15,-1,17,-1,-1,-1,-1,-1,-1,-1,-1],"loss_changes":[2.3736795E6,4.4991362E5,6.2534975E5,0E0,9.438797E4,4.2322462E5,3.7558094E4,6.3605316E4,3.7638656E4,0E0,1.569855E5,0E0,0E0,0E0,0E0,0E0,0E0,0E0,0E0],"parents":[2147483647,0,0,1,1,2,2,4,4,5,5,6,6,7,7,8,8,10,10],"right_children":[2,4,6,-1,8,10,12,14,16,-1,18,-1,-1,-1,-1,-1,-1,-1,-1],"split_conditions":[9.95E1,3.85278E3,1.075E1,-5.0467286E0,4.01146E3,7.65E2,1.7E1,1.08E0,8.1E1,-1.0224762E0,3E0,-1.9945457E0,1.4883503E-1,-9.530763E-1,1.1080945E0,-2.1302924E0,-7.9844154E-2,2.510552E0,6.255053E0],"split_indices":[2,14,13,0,14,23,12,15,3,0,16,0,0,0,0,0,0,0,0],"split_type":[0,0,0,0,0,0,0,0,0,0,0,0,0,0,0,0,0,0,0],"sum_hessian":[1.87E2,1.03E2,8.4E1,2.7E1,7.6E1,6.9E1,1.5E1,2.8E1,4.8E1,7E0,6.2E1,7E0,8E0,1.5E1,1.3E1,4E1,8E0,2.9E1,3.3E1],"tree_param":{"num_deleted":"0","num_feature":"30","num_nodes":"19","size_leaf_vector":"1"}},{"base_weights":[1.2254884E1,-8.140469E1,1.6477219E2,-4.5595117E0,-5.0809444E1,1.25261E1,2.0450717E2,1.2834485E0,-6.918013E1,-2.2689443E0,3.1453583E0,1.4773321E0,2.340629E2,-2.1823788E0,3.4057632E-2,6.992189E0,1.8920983E0],"categories":[],"categories_nodes":[],"categories_segments":[],"categories_sizes":[],"default_left":[0,0,0,0,0,0,0,0,0,0,0,0,0,0,0,0,0],"id":66,"left_children":[1,3,5,-1,7,9,11,-1,13,-1,-1,-1,15,-1,-1,-1,-1],"loss_changes":[2.8224895E6,2.8016694E5,4.3486838E5,0E0,2.0969156E5,3.1201338E5,1.6654825E5,0E0,8.467481E4,0E0,0E0,0E0,9.7708E4,0E0,0E0,0E0,0E0],"parents":[2147483647,0,0,1,1,2,2,4,4,5,5,6,6,8,8,12,12],"right_children":[2,4,6,-1,8,10,12,-1,14,-1,-1,-1,16,-1,-1,-1,-1],"split_conditions":[1.162E3,2.5E0,1.8E0,-4.5595117E0,7.5E0,3E0,2.641E3,1.2834485E0,6.332272E1,-2.2689443E0,3.1453583E0,1.4773321E0,1E2,-2.1823788E0,3.4057632E-2,6.992189E0,1.8920983E0],"split_indices":[23,13,9,0,13,17,24,0,28,0,0,0,4,0,0,0,0],"split_type":[0,0,0,0,0,0,0,0,0,0,0,0,0,0,0,0,0],"sum_hessian":[1.84E2,1.16E2,6.8E1,2.1E1,9.5E1,1.6E1,5.2E1,1.3E1,8.2E1,9E0,7E0,1.2E1,4E1,6.8E1,1.4E1,3E1,1E1],"tree_param":{"num_deleted":"0","num_feature":"30","num_nodes":"17","size_leaf_vector":"1"}},{"base_weights":[2.1302845E1,-7.895663E1,1.5760437E2,-1.2638464E2,-3.6974724E1,2.0949005E1,2.0587238E2,-4.3447127E0,-5.271982E1,-8.3144135E1,7.597759E0,-1.51769E0,7.384083E1,3.1301856E-1,2.3301149E2,-2.0214684E0,-1.5011579E-1,-2.4948928E0,-4.794157E-1,-9.177556E-1,1.8143157E0,2.4390047E0,4.83128E-1,2.7618651E0,7.5925856E0],"categories":[],"categories_nodes":[],"categories_segments":[],"categories_sizes":[],"default_left":[0,0,0,0,0,1,0,0,0,0,0,0,0,0,0,0,0,0,0,0,0,0,0,0,0],"id":67,"left_children":[1,3,5,7,9,11,13,-1,15,17,19,-1,21,-1,23,-1,-1,-1,-1,-1,-1,-1,-1,-1,-1],"loss_changes":[2.7520892E6,1.9958725E5,5.2953025E5,8.360475E4,1.5288938E5,1.5397736E5,3.061675E5,0E0,2.7848977E4,1.37440625E4,1.2771383E5,0E0,9.1975625E3,0E0,1.6395475E5,0E0,0E0,0E0,0E0,0E0,0E0,0E0,0E0,0E0,0E0],"parents":[2147483647,0,0,1,1,2,2,3,3,4,4,5,5,6,6,8,8,9,9,10,10,12,12,14,14],"right_children":[2,4,6,8,10,12,14,-1,16,18,20,-1,22,-1,24,-1,-1,-1,-1,-1,-1,-1,-1,-1,-1],"split_conditions":[9.55E2,1.184168E3,2E0,8.93E1,3E0,4E0,4.707E3,-4.3447127E0,-2.8070176E-3,8.25E1,2E0,-1.51769E0,3.4E1,3.1301856E-1,5.7E1,-2.0214684E0,-1.5011579E-1,-2.4948928E0,-4.794157E-1,-9.177556E-1,1.8143157E0,2.4390047E0,4.83128E-1,2.7618651E0,7.5925856E0],"split_indices":[23,22,16,1,16,12,10,0,27,3,7,0,12,0,3,0,0,0,0,0,0,0,0,0,0],"split_type":[0,0,0,0,0,0,0,0,0,0,0,0,0,0,0,0,0,0,0,0,0,0,0,0,0],"sum_hessian":[1.88E2,1.1E2,7.8E1,4.5E1,6.5E1,2.3E1,5.5E1,2.4E1,2.1E1,2.9E1,3.6E1,9E0,1.4E1,8E0,4.7E1,1.1E1,1E1,2.2E1,7E0,2.3E1,1.3E1,7E0,7E0,2E1,2.7E1],"tree_param":{"num_deleted":"0","num_feature":"30","num_nodes":"25","size_leaf_vector":"1"}},{"base_weights":[1.0613711E1,-9.189539E1,1.3772177E2,-1.6724265E2,-5.0601074E1,8.00028E0,1.8197429E2,-5.3509245E0,-1.3067006E0,-6.2301796E1,7.1048474E-1,-2.0029552E0,1.9389516E0,1.1556984E2,7.045126E0,-2.0577605E0,-3.0153945E-1,3.5621703E0,1.0216153E0],"categories":[],"categories_nodes":[],"categories_segments":[],"categories_sizes":[],"default_left":[0,0,0,0,0,1,0,0,0,0,0,0,0,1,0,0,0,0,0],"id":68,"left_children":[1,3,5,7,9,11,13,-1,-1,15,-1,-1,-1,17,-1,-1,-1,-1,-1],"loss_changes":[2.7206702E6,3.008102E5,5.2287175E5,8.60305E4,8.8890625E4,2.0830348E5,1.6969525E5,0E0,0E0,5.337297E4,0E0,0E0,0E0,3.7866812E4,0E0,0E0,0E0,0E0,0E0],"parents":[2147483647,0,0,1,1,2,2,3,3,4,4,5,5,6,6,9,9,13,13],"right_children":[2,4,6,8,10,12,14,-1,-1,16,-1,-1,-1,18,-1,-1,-1,-1,-1],"split_conditions":[9.48E2,3E0,2E0,2.430531E3,1.3744856E-1,4E0,6.829188E3,-5.3509245E0,-1.3067006E0,6.29E1,7.1048474E-1,-2.0029552E0,1.9389516E0,4E1,7.045126E0,-2.0577605E0,-3.0153945E-1,3.5621703E0,1.0216153E0],"split_indices":[23,13,16,21,27,12,21,0,0,6,0,0,0,12,0,0,0,0,0],"split_type":[0,0,0,0,0,0,0,0,0,0,0,0,0,0,0,0,0,0,0],"sum_hessian":[1.95E2,1.09E2,8.6E1,3.1E1,7.8E1,2.4E1,6.2E1,2E1,1.1E1,6.9E1,9E0,1E1,1.4E1,4.4E1,1.8E1,5E1,1.9E1,3.1E1,1.3E1],"tree_param":{"num_deleted":"0","num_feature":"30","num_nodes":"19","size_leaf_vector":"1"}},{"base_weights":[-8.513027E0,-7.096505E1,1.2549538E2,-4.4274178E0,-3.555853E1,2.1710144E1,5.678476E0,3.692477E1,-6.3085773E1,7.352458E1,-2.5443263E0,2.2271347E0,-1.8263801E0,-1.9908687E0,-3.1871803E-2,3.8905995E0,-5.0672144E-1],"categories":[],"categories_nodes":[],"categories_segments":[],"categories_sizes":[],"default_left":[0,0,0,0,0,0,0,0,0,0,0,0,0,0,0,0,0],"id":69,"left_children":[1,3,5,-1,7,9,-1,11,13,15,-1,-1,-1,-1,-1,-1,-1],"loss_changes":[1.6019501E6,4.0133438E5,5.3104875E5,0E0,2.2390189E5,2.692844E5,0E0,2.0605078E5,5.7853906E4,2.1794786E5,0E0,0E0,0E0,0E0,0E0,0E0,0E0],"parents":[2147483647,0,0,1,1,2,2,4,4,5,5,7,7,8,8,9,9],"right_children":[2,4,6,-1,8,10,-1,12,14,16,-1,-1,-1,-1,-1,-1,-1],"split_conditions":[5.282E3,3E0,5.0823895E1,-4.4274178E0,1E1,4.15637E3,5.678476E0,3.141E3,8.11E1,-1.4755732E-2,-2.5443263E0,2.2271347E0,-1.8263801E0,-1.9908687E0,-3.1871803E-2,3.8905995E0,-5.0672144E-1],"split_indices":[0,13,28,0,13,14,0,24,3,27,0,0,0,0,0,0,0],"split_type":[0,0,0,0,0,0,0,0,0,0,0,0,0,0,0,0,0],"sum_hessian":[1.77E2,1.23E2,5.4E1,2.6E1,9.7E1,2.9E1,2.5E1,2.6E1,7.1E1,2.2E1,7E0,1.9E1,7E0,5.8E1,1.3E1,1E1,1.2E1],"tree_param":{"num_deleted":"0","num_feature":"30","num_nodes":"17","size_leaf_vector":"1"}},{"base_weights":[1.5922765E1,-7.6392075E1,1.14679344E2,3.2682352E0,-9.191217E1,1.3987267E2,-8.5499674E-1,-9.4042975E-1,1.1487539E0,-1.0944302E2,-3.6623363E1,1.6553813E2,-1.1368003E0,-6.388092E-1,-3.3273532E0,8.2052094E-1,-1.8089563E0,2.70034E0,8.41382E0],"categories":[],"categories_nodes":[],"categories_segments":[],"categories_sizes":[],"default_left":[0,0,0,0,0,0,0,0,0,0,0,0,0,0,0,0,0,0,0],"id":70,"left_children":[1,3,5,7,9,11,-1,-1,-1,13,15,17,-1,-1,-1,-1,-1,-1,-1],"loss_changes":[1.8573904E6,1.3351331E5,3.950025E5,4.8250383E4,5.7617688E4,4.4915925E5,0E0,0E0,0E0,6.739975E4,8.375394E4,5.0668738E5,0E0,0E0,0E0,0E0,0E0,0E0,0E0],"parents":[2147483647,0,0,1,1,2,2,3,3,4,4,5,5,9,9,10,10,11,11],"right_children":[2,4,6,8,10,12,-1,-1,-1,14,16,18,-1,-1,-1,-1,-1,-1,-1],"split_conditions":[9.95E1,8.39E1,1.075E1,9.1E1,2.46E0,7.77E1,-8.5499674E-1,-9.4042975E-1,1.1487539E0,1.3E0,2.99E0,3.01E0,-1.1368003E0,-6.388092E-1,-3.3273532E0,8.2052094E-1,-1.8089563E0,2.70034E0,8.41382E0],"split_indices":[2,2,13,1,15,3,0,0,0,9,15,15,0,0,0,0,0,0,0],"split_type":[0,0,0,0,0,0,0,0,0,0,0,0,0,0,0,0,0,0,0],"sum_hessian":[1.9E2,9.9E1,9.1E1,1.7E1,8.2E1,7.8E1,1.3E1,9E0,8E0,5.7E1,2.5E1,6.9E1,9E0,1.2E1,4.5E1,8E0,1.7E1,5.7E1,1.2E1],"tree_param":{"num_deleted":"0","num_feature":"30","num_nodes":"19","size_leaf_vector":"1"}},{"base_weights":[-1.09353695E1,-8.71749E1,1.1851769E2,-9.864994E1,1.090152E0,-1.5532918E0,1.46718E2,-4.6067247E0,-7.3074005E1,1.9590033E1,1.8880545E2,-2.3026097E0,1.8548274E-1,1.4690899E0,-4.717752E-1,4.0735775E-1,5.704851E0],"categories":[],"categories_nodes":[],"categories_segments":[],"categories_sizes":[],"default_left":[0,0,0,0,0,0,0,0,0,0,0,0,0,0,0,0,0],"id":71,"left_children":[1,3,5,7,-1,-1,9,-1,11,13,15,-1,-1,-1,-1,-1,-1],"loss_changes":[1.9374249E6,2.0988794E5,4.2549194E5,1.3205525E5,0E0,0E0,3.2102312E5,0E0,1.1433119E5,3.9373734E4,1.995215E5,0E0,0E0,0E0,0E0,0E0,0E0],"parents":[2147483647,0,0,1,1,2,2,3,3,6,6,8,8,9,9,10,10],"right_children":[2,4,6,8,-1,-1,10,-1,12,14,16,-1,-1,-1,-1,-1,-1],"split_conditions":[1.162E3,6.32083E3,9.95E1,1.378E3,1.090152E0,-1.5532918E0,5.35E1,-4.6067247E0,6.332272E1,-2.8428549E-2,5.043E3,-2.3026097E0,1.8548274E-1,1.4690899E0,-4.717752E-1,4.0735775E-1,5.704851E0],"split_indices":[23,21,2,0,0,0,3,0,28,27,10,0,0,0,0,0,0],"split_type":[0,0,0,0,0,0,0,0,0,0,0,0,0,0,0,0,0],"sum_hessian":[1.82E2,1.16E2,6.6E1,1.08E2,8E0,8E0,5.8E1,1.7E1,9.1E1,1.7E1,4.1E1,7.7E1,1.4E1,7E0,1E1,7E0,3.4E1],"tree_param":{"num_deleted":"0","num_feature":"30","num_nodes":"17","size_leaf_vector":"1"}},{"base_weights":[9.7429285E0,-8.593102E1,1.1264778E2,-4.51883E0,-5.0423565E1,6.2235924E1,7.2524796E0,-7.960206E1,1.1428183E1,-2.2503588E1,1.27396996E2,-2.656722E0,9.477581E-1,-6.1243504E-1,1.8579899E0,9.5571744E-1,-2.3143706E0,1.437399E0,5.5670347E0],"categories":[],"categories_nodes":[],"categories_segments":[],"categories_sizes":[],"default_left":[0,0,0,0,0,0,0,0,0,0,0,0,0,0,0,0,0,0,0],"id":72,"left_children":[1,3,5,-1,7,9,-1,11,13,15,17,-1,-1,-1,-1,-1,-1,-1,-1],"loss_changes":[1.987617E6,2.5539375E5,6.6916675E5,0E0,1.5823528E5,4.7876556E5,0E0,1.6497244E5,7.868779E4,1.8238238E5,2.1017994E5,0E0,0E0,0E0,0E0,0E0,0E0,0E0,0E0],"parents":[2147483647,0,0,1,1,2,2,4,4,5,5,7,7,8,8,9,9,10,10],"right_children":[2,4,6,-1,8,10,-1,12,14,16,18,-1,-1,-1,-1,-1,-1,-1,-1],"split_conditions":[2.000775E3,1.386E3,3.01E0,-4.51883E0,6.2252846E1,4.9229E1,7.2524796E0,3E0,1.669E3,4.02176E3,3.457784E3,-2.656722E0,9.477581E-1,-6.1243504E-1,1.8579899E0,9.5571744E-1,-2.3143706E0,1.437399E0,5.5670347E0],"split_indices":[22,0,15,0,28,28,0,15,24,14,22,0,0,0,0,0,0,0,0],"split_type":[0,0,0,0,0,0,0,0,0,0,0,0,0,0,0,0,0,0,0],"sum_hessian":[1.88E2,9.8E1,9E1,2.1E1,7.7E1,7.6E1,1.4E1,5.1E1,2.6E1,3.5E1,4.1E1,4.4E1,7E0,1.9E1,7E0,2E1,1.5E1,2.8E1,1.3E1],"tree_param":{"num_deleted":"0","num_feature":"30","num_nodes":"19","size_leaf_vector":"1"}},{"base_weights":[1.2143289E0,-7.6497215E1,1.4039078E2,-4.5510335E0,-3.5336235E1,1.8034336E1,1.7876677E2,2.5125685E0,-5.4142574E1,2.4526534E0,-1.2388576E0,4.6356028E-1,2.0405614E2,-4.613169E-1,-2.1614141E0,6.4168663E0,1.3102638E0],"categories":[],"categories_nodes":[],"categories_segments":[],"categories_sizes":[],"default_left":[0,0,0,0,0,0,0,0,0,0,0,0,0,0,0,0,0],"id":73,"left_children":[1,3,5,-1,7,9,11,-1,13,-1,-1,-1,15,-1,-1,-1,-1],"loss_changes":[2.1735718E6,4.6402375E5,3.1469275E5,0E0,2.7845094E5,1.5168958E5,1.9424312E5,0E0,8.1711E4,0E0,0E0,0E0,1.8869475E5,0E0,0E0,0E0,0E0],"parents":[2147483647,0,0,1,1,2,2,4,4,5,5,6,6,8,8,12,12],"right_children":[2,4,6,-1,8,10,12,-1,14,-1,-1,-1,16,-1,-1,-1,-1],"split_conditions":[1.162E3,4E0,2E0,-4.5510335E0,7.5E0,3.6E1,3.4E-1,2.5125685E0,4.16633E3,2.4526534E0,-1.2388576E0,4.6356028E-1,9.75E0,-4.613169E-1,-2.1614141E0,6.4168663E0,1.3102638E0],"split_indices":[23,13,16,0,13,12,15,0,14,0,0,0,13,0,0,0,0],"split_type":[0,0,0,0,0,0,0,0,0,0,0,0,0,0,0,0,0],"sum_hessian":[1.87E2,1.22E2,6.5E1,3E1,9.2E1,1.8E1,4.7E1,8E0,8.4E1,7E0,1.1E1,8E0,3.9E1,4.1E1,4.3E1,2.8E1,1.1E1],"tree_param":{"num_deleted":"0","num_feature":"30","num_nodes":"17","size_leaf_vector":"1"}},{"base_weights":[2.651194E0,-5.3330048E1,1.493519E2,-9.7126625E1,-2.0547934E1,4.2504333E1,5.0793157E0,-3.6476896E0,-5.5604366E1,1.4431436E0,-3.7576824E1,2.300385E0,-7.2596323E-1,-1.9909555E0,-1.0186814E-1,-2.767001E0,-1.6510811E-1],"categories":[],"categories_nodes":[],"categories_segments":[],"categories_sizes":[],"default_left":[1,0,0,0,0,0,0,0,0,0,0,0,0,0,0,0,0],"id":74,"left_children":[1,3,5,7,9,11,-1,-1,13,-1,15,-1,-1,-1,-1,-1,-1],"loss_changes":[1.6657249E6,1.9660081E5,1.9730875E5,4.8847188E4,1.3321625E5,9.469366E4,0E0,0E0,4.03926E4,0E0,1.6300847E5,0E0,0E0,0E0,0E0,0E0,0E0],"parents":[2147483647,0,0,1,1,2,2,3,3,4,4,5,5,8,8,10,10],"right_children":[2,4,6,8,10,12,-1,-1,14,-1,16,-1,-1,-1,-1,-1,-1],"split_conditions":[1.9E1,1.29545E3,-2.7867591E-2,3.91244E3,-1.7544061E-1,4.09107E3,5.0793157E0,-3.6476896E0,4E0,1.4431436E0,3.0820394E-1,2.300385E0,-7.2596323E-1,-1.9909555E0,-1.0186814E-1,-2.767001E0,-1.6510811E-1],"split_indices":[12,22,25,14,25,14,0,0,17,0,29,0,0,0,0,0,0],"split_type":[0,0,0,0,0,0,0,0,0,0,0,0,0,0,0,0,0],"sum_hessian":[1.89E2,1.4E2,4.9E1,5.4E1,8.6E1,1.8E1,3.1E1,1.9E1,3.5E1,1.3E1,7.3E1,1E1,8E0,2.3E1,1.2E1,1.8E1,5.5E1],"tree_param":{"num_deleted":"0","num_feature":"30","num_nodes":"17","size_leaf_vector":"1"}},{"base_weights":[-5.0487967E0,-9.236543E1,1.0189867E2,-1.3220753E2,-4.120924E1,-1.1734599E1,1.4596944E2,-5.1821175E1,-1.6444217E2,-5.4270733E1,7.798962E-1,-2.3886929E0,4.972923E1,8.561267E1,6.190031E0,-2.178448E0,4.2401146E-2,-4.7072353E0,-1.2986158E0,-2.0612721E0,-2.7133602E-1,2.3800876E0,-5.5123174E-1,3.058894E0,-7.166826E-2],"categories":[],"categories_nodes":[],"categories_segments":[],"categories_sizes":[],"default_left":[0,0,0,0,0,0,0,0,0,0,0,0,0,0,0,0,0,0,0,0,0,0,0,0,0],"id":75,"left_children":[1,3,5,7,9,11,13,15,17,19,-1,-1,21,23,-1,-1,-1,-1,-1,-1,-1,-1,-1,-1,-1],"loss_changes":[1.9707702E6,1.9759E5,4.8826488E5,1.00138875E5,6.761874E4,1.9093798E5,2.2523088E5,4.693421E4,1.898E3,5.0271766E4,0E0,0E0,7.873069E4,1.4059516E5,0E0,0E0,0E0,0E0,0E0,0E0,0E0,0E0,0E0,0E0,0E0],"parents":[2147483647,0,0,1,1,2,2,3,3,4,4,5,5,6,6,7,7,8,8,9,9,12,12,13,13],"right_children":[2,4,6,8,10,12,14,16,18,20,-1,-1,22,24,-1,-1,-1,-1,-1,-1,-1,-1,-1,-1,-1],"split_conditions":[9.95E1,8.68E1,1.146E3,4.8307255E1,2.882E3,4.72E1,6.641E3,3.5657734E-1,3.1E0,6.3137478E1,7.798962E-1,-2.3886929E0,5.179717E1,3.368E3,6.190031E0,-2.178448E0,4.2401146E-2,-4.7072353E0,-1.2986158E0,-2.0612721E0,-2.7133602E-1,2.3800876E0,-5.5123174E-1,3.058894E0,-7.166826E-2],"split_indices":[2,1,23,28,0,6,0,29,8,28,0,0,28,24,0,0,0,0,0,0,0,0,0,0,0],"split_type":[0,0,0,0,0,0,0,0,0,0,0,0,0,0,0,0,0,0,0,0,0,0,0,0,0],"sum_hessian":[1.97E2,1.09E2,8.8E1,5.5E1,5.4E1,2.6E1,6.2E1,2.1E1,3.4E1,4.7E1,7E0,1E1,1.6E1,4.5E1,1.7E1,1.1E1,1E1,2.7E1,7E0,2.7E1,2E1,9E0,7E0,3.2E1,1.3E1],"tree_param":{"num_deleted":"0","num_feature":"30","num_nodes":"25","size_leaf_vector":"1"}},{"base_weights":[1.0705361E1,-6.2923943E1,1.3542569E2,-9.6136505E1,-2.573617E1,-1.5958577E1,1.7520422E2,-3.865339E-1,-2.7545476E0,1.0577551E0,-4.570858E1,-1.4468048E0,7.2389597E-1,2.0137807E2,6.837414E-1,-2.121874E0,-4.4710383E-1,1.5360407E0,6.791073E0],"categories":[],"categories_nodes":[],"categories_segments":[],"categories_sizes":[],"default_left":[0,0,0,0,0,0,0,0,0,0,0,0,0,0,0,0,0,0,0],"id":76,"left_children":[1,3,5,7,9,11,13,-1,-1,-1,15,-1,-1,17,-1,-1,-1,-1,-1],"loss_changes":[1.8597511E6,1.402761E5,4.7182762E5,3.1282688E4,1.0469585E5,4.7505996E4,1.9717725E5,0E0,0E0,0E0,4.67756E4,0E0,0E0,2.9113012E5,0E0,0E0,0E0,0E0,0E0],"parents":[2147483647,0,0,1,1,2,2,3,3,4,4,5,5,6,6,10,10,13,13],"right_children":[2,4,6,8,10,12,14,-1,-1,-1,16,-1,-1,18,-1,-1,-1,-1,-1],"split_conditions":[1.162E3,3E0,2E0,9.91E1,4.814381E1,1.772E3,9.75E0,-3.865339E-1,-2.7545476E0,1.0577551E0,-5.8987528E-2,-1.4468048E0,7.2389597E-1,7.041E3,6.837414E-1,-2.121874E0,-4.4710383E-1,1.5360407E0,6.791073E0],"split_indices":[23,16,16,4,28,23,13,0,0,0,26,0,0,10,0,0,0,0,0],"split_type":[0,0,0,0,0,0,0,0,0,0,0,0,0,0,0,0,0,0,0],"sum_hessian":[1.89E2,1.21E2,6.8E1,5.8E1,6.3E1,1.5E1,5.3E1,7E0,5.1E1,1.3E1,5E1,7E0,8E0,4.3E1,1E1,1.7E1,3.3E1,1.6E1,2.7E1],"tree_param":{"num_deleted":"0","num_feature":"30","num_nodes":"19","size_leaf_vector":"1"}},{"base_weights":[1.5042961E0,-5.7166367E1,1.2145943E2,-7.04069E1,3.6727276E1,1.5272278E2,-7.7910775E-1,-1.10921425E2,-2.731698E1,3.0875487E0,-1.6224407E0,-4.323097E-2,1.8737373E2,-3.7112536E0,-9.440741E-1,5.824253E-1,-1.0535933E0,1.9273925E0,6.0174026E0],"categories":[],"categories_nodes":[],"categories_segments":[],"categories_sizes":[],"default_left":[0,0,0,0,0,0,0,0,0,0,0,0,0,0,0,0,0,0,0],"id":77,"left_children":[1,3,5,7,9,11,-1,13,15,-1,-1,-1,17,-1,-1,-1,-1,-1,-1],"loss_changes":[1.3930341E6,1.8356844E5,3.3863506E5,1.8597106E5,2.1504653E5,2.9705938E5,0E0,9.468206E4,4.758142E4,0E0,0E0,0E0,8.953825E4,0E0,0E0,0E0,0E0,0E0,0E0],"parents":[2147483647,0,0,1,1,2,2,3,3,4,4,5,5,7,7,8,8,12,12],"right_children":[2,4,6,8,10,12,-1,14,16,-1,-1,-1,18,-1,-1,-1,-1,-1,-1],"split_conditions":[2.524972E3,1.162E3,3.1386814E0,8.68E1,1.465E3,5.145E3,-7.7910775E-1,4E0,1E0,3.0875487E0,-1.6224407E0,-4.323097E-2,3.054355E3,-3.7112536E0,-9.440741E-1,5.824253E-1,-1.0535933E0,1.9273925E0,6.0174026E0],"split_indices":[22,23,29,1,23,10,0,17,7,0,0,0,22,0,0,0,0,0,0],"split_type":[0,0,0,0,0,0,0,0,0,0,0,0,0,0,0,0,0,0,0],"sum_hessian":[1.84E2,1.26E2,5.8E1,1.12E2,1.4E1,4.8E1,1E1,5.2E1,6E1,7E0,7E0,1E1,3.8E1,3.3E1,1.9E1,1.1E1,4.9E1,1.5E1,2.3E1],"tree_param":{"num_deleted":"0","num_feature":"30","num_nodes":"19","size_leaf_vector":"1"}},{"base_weights":[-1.886507E1,-7.397388E1,1.3139201E2,4.1584854E1,